svm_type c_svc
kernel_type rbf
gamma 0.125
nr_class 2
total_sv 260
rho 2.09939
label 1 -1
nr_sv 95 165
SV
8 1:6.338014 2:-0.097487 3:-0.28272 4:0.353365 5:0.214791 6:-0.293395 7:0.537061 8:-0.159632 9:-0.323895 10:0.029893 11:0.281104 12:0.35218 13:0.154754 14:0.02341 15:-0.451465 16:-0.4932 17:-0.44359 18:0.067078 19:-0.370778 20:-0.406215 21:-0.481277 22:-0.341671 23:0.309138 24:-0.027445 25:-0.196037 26:0.337242 27:0.604146 28:0.105931 29:-0.066395 30:0.153047 
8 1:6.337686 2:-0.093465 3:0.258004 4:0.370137 5:-0.211124 6:-0.259194 7:0.517689 8:0.196415 9:-0.315921 10:0.045809 11:0.303722 12:-0.366912 13:0.080999 14:0.014522 15:0.51627 16:-0.580436 17:-0.261065 18:0.014659 19:-0.322802 20:0.395308 21:0.372539 22:-0.576348 23:0.029278 24:-0.028508 25:0.302335 26:0.287964 27:-0.603741 28:-0.132172 29:-0.0937 30:-0.139532 
0.1445300915895232 1:5.843361 2:0.404512 3:0.597571 4:0.196387 5:-0.161717 6:-1.635729 7:-0.253636 8:0.452673 9:-0.257573 10:0.431357 11:-0.095045 12:-0.009093 13:0.321954 14:-0.16052 15:-0.085421 16:0.015323 17:-0.262726 18:0.397128 19:-0.111036 20:0.177713 21:-0.203228 22:0.035336 23:0.281752 24:-0.300523 25:0.429672 26:0.07512 27:-0.144243 28:-0.355629 29:0.570796 30:-0.244034 
1.668677690921915 1:6.028785 2:0.98892 3:0.27116 4:0.355209 5:0.329364 6:-1.19884 7:0.485043 8:-0.376322 9:-0.054708 10:0.830816 11:0.041574 12:-0.05454 13:0.307527 14:-0.083034 15:-0.412374 16:-0.149147 17:0.009515 18:-0.94454 19:0.84351 20:0.009027 21:0.332111 22:-0.233707 23:0.020186 24:0.009227 25:-0.557201 26:0.134046 27:0.339854 28:0.089541 29:-0.072522 30:-0.188463 
3.449995130139447 1:6.283948 2:0.773603 3:0.247797 4:0.151001 5:-0.063272 6:-1.175256 7:0.294285 8:0.202084 9:-0.063883 10:0.545438 11:0.149097 12:0.270116 13:0.382479 14:-0.227802 15:0.208604 16:0.027699 17:0.309645 18:-0.657544 19:0.445037 20:0.026513 21:-0.09522 22:0.190526 23:0.346074 24:0.379489 25:0.157278 26:-0.064434 27:-0.095303 28:0.132869 29:0.430409 30:0.140104 
4.0391104579415 1:6.284213 2:0.76161 3:-0.246912 4:0.148108 5:-0.050687 6:-1.175432 7:0.251998 8:-0.172752 9:-0.072501 10:0.539634 11:0.15998 12:-0.33538 13:0.335494 14:0.240781 15:-0.248757 16:0.40247 17:-0.264072 18:-0.586752 19:0.426226 20:0.023124 21:0.123366 22:-0.08952 23:-0.387599 24:0.404766 25:-0.172765 26:-0.026501 27:0.114128 28:-0.079135 29:0.456007 30:-0.196254 
8 1:6.438533 2:0.254211 3:0.204796 4:-0.110475 5:-0.167755 6:-0.504333 7:-0.598181 8:0.104429 9:-0.181294 10:0.530046 11:-0.120403 12:0.307302 13:-0.310798 14:-0.076294 15:0.541515 16:0.195155 17:0.019025 18:-0.182284 19:-0.032433 20:-0.083716 21:0.173189 22:-0.356668 23:-0.285269 24:0.094118 25:-0.115645 26:-0.038197 27:-0.310486 28:0.141455 29:-0.1238 30:-0.027799 
8 1:6.444478 2:0.27135 3:-0.191252 4:-0.117769 5:0.114281 6:-0.500618 7:-0.57628 8:-0.122197 9:-0.185174 10:0.523714 11:-0.108829 12:-0.259448 13:-0.362309 14:0.10093 15:-0.546638 16:0.091193 17:0.109596 18:-0.13885 19:-0.045673 20:0.085016 21:-0.208433 22:-0.023745 23:0.445595 24:0.070732 25:0.055851 26:-0.116958 27:0.329671 28:-0.142339 29:-0.12588 30:0.033711 
4.000622824472353 1:5.985812 2:1.389658 3:0.389988 4:0.489678 5:0.296061 6:-1.138759 7:0.17035 8:-0.231696 9:0.062312 10:0.857103 11:-0.320783 12:0.092645 13:0.17886 14:-0.132931 15:-0.103079 16:0.373601 17:0.08545 18:0.013718 19:-0.344267 20:-0.273284 21:0.177225 22:0.162448 23:0.508261 24:0.182974 25:0.094401 26:0.587623 27:0.013691 28:-0.194811 29:-0.045503 30:-0.117977 
3.070588130371198 1:5.990866 2:1.376538 3:-0.390623 4:0.50746 5:-0.382128 6:-1.09973 7:0.152741 8:0.230192 9:0.084198 10:0.866189 11:-0.308098 12:-0.15025 13:0.158443 14:0.119441 15:0.072104 16:0.245188 17:0.299966 18:-0.019295 19:-0.323223 20:0.268501 21:-0.216785 22:-0.179091 23:-0.540934 24:0.184476 25:0.132704 26:0.574525 27:0.062087 28:0.171516 29:-0.03688 30:0.083285 
0.5333022049483276 1:5.711044 2:-2.012952 3:-0.111972 4:1.243902 5:0.571157 6:-0.936369 7:-0.142084 8:-0.689792 9:0.307409 10:-0.340953 11:0.627392 12:-0.081209 13:-0.420651 14:-0.007653 15:-0.750753 16:-0.449392 17:-0.644935 18:0.097772 19:-0.073272 20:-0.646037 21:0.080845 22:0.247966 23:-0.350481 24:-0.151582 25:-0.348615 26:0.333363 27:0.172929 28:-0.307903 29:-0.227143 30:-0.199116 
0.1404123218498627 1:5.792048 2:-0.931191 3:0.198983 4:0.31223 5:0.276512 6:-1.625607 7:0.449866 8:0.188877 9:0.165715 10:0.079763 11:0.370404 12:0.899124 13:0.244012 14:-0.302597 15:-0.373575 16:0.72474 17:-0.17576 18:-0.348722 19:0.216223 20:-0.481823 21:0.027203 22:0.199792 23:-0.256314 24:0.308702 25:-0.160651 26:0.082205 27:0.155754 28:0.015482 29:-0.131528 30:-0.330663 
2.32082391030098 1:5.80221 2:-0.935831 3:-0.201258 4:0.321852 5:-0.39778 6:-1.56016 7:0.415013 8:-0.179374 9:0.138566 10:0.076223 11:0.371452 12:-0.949567 13:0.087528 14:0.267555 15:0.331059 16:0.215187 17:0.649851 18:-0.445209 19:0.249181 20:0.504443 21:0.039317 22:0.29469 23:0.108957 24:0.315059 25:0.223298 26:0.039516 27:-0.153791 28:0.029641 29:-0.117036 30:0.354934 
5.831585426303565 1:5.485489 2:-0.691315 3:0.125024 4:0.143069 5:-0.785453 6:-2.067003 7:0.379115 8:-0.429409 9:0.348375 10:0.352172 11:0.447287 12:0.024716 13:0.200515 14:-0.264581 15:-0.123386 16:0.754765 17:-0.777706 18:-0.213538 19:0.009687 20:0.061562 21:-0.082427 22:0.293242 23:-0.317533 24:-0.264091 25:-0.220985 26:-0.432426 27:-0.210901 28:0.121779 29:-0.348923 30:-0.220113 
1.44275469038134 1:6.099888 2:-0.84094 3:0.738667 4:1.067573 5:-0.285703 6:-1.072929 7:0.016442 8:0.284064 9:0.151932 10:-0.426596 11:0.417482 12:-0.030427 13:-0.067389 14:-0.600632 15:-0.225406 16:0.120962 17:-0.045259 18:-0.43556 19:0.221317 20:0.238952 21:-0.216992 22:0.121435 23:0.050876 24:-0.001056 25:0.272874 26:0.24157 27:0.174452 28:0.109325 29:-0.104497 30:0.642887 
1.645819838214269 1:6.099122 2:-0.835041 3:-0.739322 4:1.068946 5:0.242975 6:-1.100198 7:0.027501 8:-0.277717 9:0.140896 10:-0.432084 11:0.427508 12:0.045918 13:-0.046757 14:0.596641 15:0.216409 16:0.10011 17:0.073735 18:-0.471055 19:0.257675 20:-0.233055 21:0.25203 22:0.012583 23:-0.054065 24:0.046662 25:-0.169277 26:0.315519 27:-0.142734 28:-0.116551 29:-0.127168 30:-0.622209 
2.565966531765726 1:5.87466 2:-0.623283 3:-0.028956 4:0.177954 5:-0.003142 6:-0.495141 7:-0.273577 8:-0.094037 9:-0.489092 10:-0.165631 11:-0.199974 12:0.526942 13:0.272673 14:-0.11809 15:-0.480159 16:0.097361 17:-0.325791 18:0.294424 19:-0.307006 20:-0.161386 21:-0.025438 22:0.789312 23:0.781272 24:0.196103 25:-0.469026 26:0.226169 27:0.690229 28:0.605232 29:0.039163 30:-0.331154 
2.00755093488959 1:5.874367 2:-0.640235 3:0.018507 4:0.160693 5:-0.014021 6:-0.471928 7:-0.285498 8:0.149145 9:-0.490959 10:-0.180272 11:-0.191399 12:-0.571305 13:0.14633 14:0.112465 15:0.50901 16:-0.252299 17:0.286678 18:0.142039 19:-0.174463 20:0.17828 21:0.103597 22:-0.010403 23:-1.120759 24:0.20921 25:0.553402 26:0.084492 27:-0.694075 28:-0.614001 29:0.08707 30:0.356467 
1.549489295778755 1:5.798972 2:-0.440249 3:-0.30787 4:0.731927 5:-0.049868 6:-1.00829 7:-1.062394 8:-0.778714 9:0.100294 10:-0.653761 11:-0.150616 12:-0.340554 13:0.511578 14:-0.729953 15:0.215021 16:-0.36887 17:-0.217602 18:0.196096 19:-0.216229 20:-0.418173 21:0.023138 22:0.1802 23:-0.119909 24:0.350086 25:-0.015939 26:-0.803569 27:-0.239172 28:0.535569 29:0.017681 30:-0.250971 
1.302106978159952 1:5.821861 2:-0.439933 3:0.295597 4:0.731646 5:-0.011243 6:-1.010943 7:-1.060794 8:0.75149 9:0.161889 10:-0.650455 11:-0.134091 12:0.270325 13:0.578453 14:0.732751 15:-0.150683 16:-0.395779 17:-0.171251 18:0.222896 19:-0.228281 20:0.411671 21:0.007821 22:0.233332 23:-0.100435 24:0.339435 25:-0.229822 26:-0.800397 27:0.18517 28:-0.535201 29:0.05209 30:0.245802 
7.363341746134861 1:5.910074 2:-0.791445 3:0.29697 4:-0.003363 5:-0.23428 6:-0.677826 7:0.09904 8:-0.380863 9:-0.068885 10:0.260244 11:-0.007384 12:0.435336 13:0.305374 14:-0.138413 15:-0.502913 16:-0.268929 17:-0.814862 18:0.628881 19:0.357391 20:-0.175953 21:-0.170625 22:0.285188 23:-0.091071 24:-0.283214 25:0.073235 26:0.325642 27:-0.069635 28:-0.333269 29:0.293004 30:-0.301011 
6.152180075529469 1:5.899042 2:-0.817751 3:-0.313905 4:-0.008004 5:0.16067 6:-0.643942 7:0.092546 8:0.400639 9:-0.030623 10:0.281053 11:0.010064 12:-0.482959 13:0.247165 14:0.151906 15:0.543674 16:-0.866216 17:0.139619 18:0.52706 19:0.423373 20:0.162357 21:0.190157 22:0.221785 23:-0.10436 24:-0.254647 25:0.079516 26:0.37042 27:0.022712 28:0.312391 29:0.295556 30:0.305481 
1.881864744733059 1:5.919356 2:0.395239 3:-0.518949 4:0.318612 5:-0.311496 6:-1.057899 7:0.330491 8:0.20881 9:-0.020875 10:0.201902 11:-0.252601 12:-0.23621 13:0.127693 14:0.428499 15:-0.627512 16:0.236425 17:-0.591866 18:0.077143 19:-0.002814 20:-0.257949 21:-0.808896 22:0.453626 23:0.171271 24:-0.576518 25:0.104795 26:0.643795 27:0.353454 28:0.581824 29:-0.055782 30:-0.017003 
2.339972190341793 1:5.828456 2:-0.493907 3:0.095904 4:0.22077 5:0.181342 6:-0.936661 7:0.413354 8:-0.348802 9:-0.320369 10:-0.243928 11:0.552939 12:0.729114 13:-0.054813 14:-0.327237 15:0.732404 16:-0.253815 17:-0.284959 18:-0.242653 19:0.126349 20:-0.238036 21:-0.082851 22:1.115744 23:-0.07668 24:-0.009551 25:-0.505207 26:-0.287501 27:-0.165383 28:0.115297 29:0.340125 30:-0.171536 
4.069655918023388 1:5.819664 2:-0.511438 3:-0.085379 4:0.256259 5:-0.214635 6:-0.919159 7:0.375892 8:0.389143 9:-0.304803 10:-0.210406 11:0.603423 12:-0.714427 13:-0.175661 14:0.345314 15:-0.665461 16:-0.377034 17:-0.15548 18:-0.213282 19:0.129682 20:0.236115 21:0.304021 22:0.874656 23:-0.658216 24:0.016922 25:0.390002 26:-0.473487 27:0.113661 28:-0.086202 29:0.331488 30:0.187439 
4.646081865790114 1:6.102885 2:-0.510157 3:-0.288896 4:0.224205 5:0.094071 6:-0.816661 7:0.481022 8:0.018525 9:-0.262023 10:-0.100322 11:0.198571 12:-0.1775 13:-0.010831 14:0.012774 15:0.44501 16:-0.075483 17:0.246835 18:0.412644 19:-0.417094 20:0.178886 21:-0.085209 22:0.724983 23:0.228132 24:-0.037926 25:-0.004308 26:0.135778 27:-0.083195 28:0.403073 29:-0.005713 30:-0.143704 
5.261282010042706 1:6.100062 2:-0.535436 3:0.273741 4:0.280356 5:-0.151966 6:-0.838953 7:0.483571 8:0.032001 9:-0.264047 10:-0.098774 11:0.175675 12:0.160479 13:-0.01677 14:-0.002098 15:-0.404346 16:0.1263 17:-0.103287 18:0.426428 19:-0.392518 20:-0.201998 21:0.227038 22:0.312681 23:-0.685775 24:-0.032701 25:0.028246 26:0.124574 27:0.078524 28:-0.452407 29:0.051011 30:0.148648 
0.3838282730882835 1:5.939325 2:-0.172143 3:-0.248458 4:-0.010953 5:-0.280896 6:-1.184988 7:-0.539399 8:-0.381979 9:0.019299 10:-0.056518 11:0.148517 12:0.434242 13:0.085298 14:0.097099 15:-0.600339 16:-0.398129 17:-0.13345 18:0.191688 19:0.352879 20:-0.549277 21:-0.122268 22:0.304211 23:0.261794 24:-0.045221 25:-0.263295 26:-0.450833 27:-0.126929 28:-0.436881 29:0.317724 30:-0.385216 
0.7093612304433479 1:5.936717 2:-0.169769 3:0.260486 4:-0.070492 5:0.170433 6:-1.175372 7:-0.592055 8:0.38536 9:0.042827 10:-0.074117 11:0.177333 12:-0.4275 13:0.002664 14:-0.083601 15:0.642831 16:-0.267468 17:-0.308088 18:0.216953 19:0.384569 20:0.541983 21:0.130292 22:0.027426 23:-0.39972 24:-0.028169 25:0.104158 26:-0.482784 27:0.084431 28:0.431181 29:0.336553 30:0.377128 
6.230708970345426 1:5.528348 2:-0.508225 3:-0.10304 4:-0.263107 5:0.545051 6:-0.523116 7:-0.132815 8:0.07544 9:0.137258 10:0.619969 11:-0.45847 12:0.674345 13:0.633367 14:-0.643035 15:-0.662945 16:0.694797 17:0.526585 18:1.043389 19:-0.38549 20:-0.136378 21:0.427588 22:0.474129 23:-0.082232 24:-0.603145 25:-0.077465 26:0.637435 27:0.529965 28:0.579377 29:-0.326643 30:-0.112152 
5.955817177324841 1:5.532878 2:-0.520555 3:0.077622 4:-0.249628 5:-0.619725 6:-0.455862 7:-0.145969 8:-0.073853 9:0.124093 10:0.593693 11:-0.428418 12:-0.841053 13:0.510779 14:0.575977 15:0.655605 16:0.699988 17:0.664919 18:0.974855 19:-0.322305 20:0.127888 21:-0.317413 22:0.385085 23:-0.323494 24:-0.573342 25:0.317631 26:0.546957 27:-0.455319 28:-0.631186 29:-0.330406 30:0.14122 
2.664862993018693 1:5.939675 2:-0.830291 3:0.203653 4:0.819313 5:-0.294469 6:-0.711071 7:0.085185 8:-0.176877 9:-0.414236 10:0.179128 11:-0.152393 12:0.801222 13:-0.368033 14:-0.152655 15:-0.569471 16:-0.030444 17:-0.123521 18:0.23042 19:-0.272763 20:-0.234289 21:0.381632 22:-0.290272 23:-0.591697 24:-0.230357 25:0.610872 26:0.427905 27:-0.475552 28:-0.276578 29:0.417951 30:-0.28287 
2.792361817265442 1:5.949014 2:-0.806421 3:-0.214154 4:0.76009 5:0.24887 6:-0.708302 7:0.047521 8:0.20414 9:-0.410343 10:0.165148 11:-0.134048 12:-0.745261 13:-0.478006 14:0.17775 15:0.568739 16:-0.107698 17:0.061004 18:0.217755 19:-0.290397 20:0.214396 21:-0.42789 22:0.311379 23:0.624709 24:-0.229068 25:-0.413499 26:0.591926 27:0.468519 28:0.24088 29:0.400924 30:0.274348 
3.750332088147931 1:5.065842 2:-1.559448 3:0.938496 4:0.445394 5:0.77948 6:-0.665142 7:-1.536592 8:0.00765 9:-0.262555 10:0.132598 11:0.196673 12:-1.031505 13:-0.102162 14:0.374448 15:1.298613 16:0.272593 17:-0.36119 18:-0.043656 19:-0.46542 20:-1.036504 21:-0.50281 22:0.280735 23:0.219915 24:0.337553 25:-1.002982 26:0.268525 27:-0.338971 28:0.260328 29:0.003798 30:-0.219702 
3.469497889689027 1:5.067549 2:-1.576731 3:-0.905111 4:0.523721 5:-0.77024 6:-0.626065 7:-1.500204 8:-0.038951 9:-0.270226 10:0.142692 11:0.145506 12:1.043209 13:0.020118 14:-0.396638 15:-1.268439 16:-0.344558 17:0.357886 18:0.01278 19:-0.495295 20:1.012149 21:0.532678 22:-0.020373 23:-0.317256 24:0.347594 25:1.037901 26:-0.069456 27:0.330081 28:-0.256162 29:0.08972 30:0.216441 
3.001042898092045 1:5.678717 2:-0.565228 3:0.389356 4:0.546777 5:0.266321 6:-1.310768 7:-0.443951 8:0.826567 9:-0.070873 10:-0.411637 11:0.723154 12:-0.541006 13:-0.076589 14:0.701756 15:0.452607 16:0.240468 17:-0.298977 18:-0.093375 19:-0.42848 20:-0.559166 21:-0.285588 22:0.803307 23:0.549422 24:-0.474035 25:0.252967 26:-0.299229 27:-0.242766 28:0.20578 29:-0.232765 30:0.518466 
3.189682888172606 1:5.671872 2:-0.573469 3:-0.399433 4:0.600443 5:-0.317551 6:-1.342234 7:-0.383843 8:-0.801683 9:-0.139161 10:-0.408069 11:0.693229 12:0.572159 13:-0.040155 14:-0.700265 15:-0.451717 16:-0.275183 17:0.357168 18:-0.198592 19:-0.383707 20:0.547696 21:0.366946 22:0.141076 23:-0.922938 24:-0.470647 25:-0.329957 26:-0.214457 27:0.164817 28:-0.228551 29:-0.218727 30:-0.47076 
3.527824241592357 1:5.792115 2:-0.42971 3:0.272067 4:0.188919 5:-0.047807 6:-0.591766 7:0.265349 8:0.539558 9:-0.037764 10:-0.380419 11:0.005788 12:-0.13572 13:-0.402547 14:-0.195275 15:-0.769772 16:-0.075167 17:-0.221604 18:-0.151695 19:0.322295 20:-0.414608 21:-0.43233 22:0.407439 23:0.310915 24:0.123795 25:-0.05388 26:0.379891 27:0.867421 28:0.675036 29:-0.137116 30:-0.112592 
0.9388373657950455 1:5.775661 2:0.35725 3:0.126971 4:0.682425 5:0.060567 6:-1.518886 7:-0.067964 8:0.045913 9:-0.062479 10:0.727165 11:0.013709 12:-0.675913 13:-0.407279 14:0.075003 15:-0.607551 16:-0.024196 17:-0.607151 18:-0.348537 19:0.242969 20:0.257527 21:-0.384066 22:0.602241 23:0.004526 24:-0.090571 25:0.488349 26:-0.248301 27:-0.363692 28:-0.121814 29:-0.193952 30:0.325382 
1.726365952443698 1:5.674366 2:-0.147761 3:0.01571 4:0.610321 5:0.392869 6:-1.097903 7:-0.781106 8:0.241891 9:-0.148287 10:0.023942 11:0.368791 12:0.317014 13:-0.321273 14:-0.155024 15:-0.448945 16:0.443592 17:-0.110453 18:-0.322982 19:0.877022 20:-0.447137 21:0.161919 22:0.510411 23:0.038197 24:0.147131 25:0.262254 26:-0.343555 27:0.753104 28:-0.29209 29:-0.44601 30:-0.312099 
1.536223318586555 1:5.675146 2:-0.169143 3:-0.004094 4:0.635174 5:-0.46466 6:-1.073167 7:-0.769789 8:-0.23769 9:-0.156089 10:0.019576 11:0.365755 12:-0.225603 13:-0.377683 14:0.181066 15:0.443184 16:0.167029 17:0.392501 18:-0.408109 19:0.920267 20:0.464293 21:-0.052838 22:0.320182 23:-0.361735 24:0.155793 25:-0.329052 26:-0.162997 27:-0.713683 28:0.321115 29:-0.449038 30:0.308658 
0.8251545483119762 1:5.928708 2:0.049255 3:-0.64607 4:0.497952 5:-0.290313 6:-1.219969 7:-0.248903 8:-0.096774 9:-0.159214 10:-0.032982 11:-0.482168 12:0.031412 13:0.203999 14:0.146787 15:-0.188644 16:-0.178951 17:0.432327 18:0.074375 19:-0.348559 20:0.022786 21:-0.06199 22:-0.041841 23:0.077719 24:0.346656 25:-0.159253 26:-0.691236 27:0.396545 28:-0.703644 29:0.206568 30:-0.047132 
1.850197957722236 1:5.943584 2:0.04021 3:0.647145 4:0.493685 5:0.200308 6:-1.225275 7:-0.23454 8:0.130162 9:-0.156957 10:-0.035883 11:-0.482885 12:-0.074404 13:0.187905 14:-0.144739 15:0.190642 16:0.311843 17:-0.300362 18:0.15023 19:-0.40211 20:-0.020681 21:0.0615 22:-0.075592 23:-0.032832 24:0.298079 25:-0.083323 26:-0.66029 27:-0.484837 28:0.708657 29:0.147787 30:0.022331 
8 1:6.371716 2:-0.214512 3:-0.020354 4:0.376043 5:-0.698936 6:-0.494866 7:-0.081657 8:0.145381 9:-0.192845 10:-0.204949 11:-0.0088 12:0.295107 13:0.36366 14:-0.127185 15:-0.198386 16:-0.500441 17:-0.38665 18:0.288393 19:0.010235 20:-0.250797 21:0.360397 22:0.035857 23:-0.216748 24:0.196393 25:0.211449 26:0.166584 27:0.217613 28:0.028045 29:-0.058406 30:-0.087532 
8 1:6.360017 2:-0.215395 3:0.016306 4:0.326745 5:0.687519 6:-0.558783 7:-0.106351 8:-0.137362 9:-0.213089 10:-0.227724 11:-0.006196 12:-0.386147 13:0.318379 14:0.124373 15:0.262755 16:-0.548452 17:-0.229647 18:0.249385 19:0.026053 20:0.228768 21:-0.337184 22:0.178892 23:0.148397 24:0.199929 25:-0.154383 26:0.26902 27:-0.237146 28:-0.074744 29:-0.08017 30:0.088372 
0.5478580639476094 1:5.594595 2:-1.525226 3:0.281984 4:1.088261 5:-0.916932 6:-1.196059 7:0.292839 8:-0.694728 9:0.111751 10:-0.509004 11:-0.503651 12:0.104321 13:-0.642685 14:0.042443 15:-0.086168 16:-0.229496 17:-0.596672 18:0.288652 19:0.382274 20:-0.12876 21:0.62992 22:0.49186 23:-0.241987 24:-0.072554 25:-0.300671 26:-0.539704 27:-0.248474 28:-0.004133 29:0.008877 30:-0.18612 
0.7062122365001935 1:5.602949 2:-1.505874 3:-0.314806 4:1.025014 5:0.874351 6:-1.245853 7:0.281703 8:0.734184 9:0.152845 10:-0.527916 11:-0.506833 12:0.009577 13:-0.646744 14:-0.0021 15:0.158797 16:-0.643852 17:0.094301 18:0.221307 19:0.422622 20:0.122799 21:-0.562123 22:0.623797 23:-0.206257 24:-0.073916 25:0.162658 26:-0.647645 27:0.214173 28:0.037532 29:-0.018575 30:0.182413 
8 1:6.008583 2:-0.460081 3:0.235584 4:0.025143 5:0.4166 6:-0.752429 7:-0.55322 8:-0.482972 9:0.09411 10:-0.192605 11:-0.297923 12:0.0005 13:-0.642004 14:-0.166664 15:-0.213006 16:0.224371 17:-0.382855 18:0.189467 19:0.480465 20:-0.204174 21:0.183996 22:0.140074 23:0.104985 24:0.086668 25:-0.330921 26:-0.675723 27:0.474719 28:-0.070877 29:0.167046 30:0.06716 
8 1:6.005809 2:-0.473259 3:-0.251656 4:0.030476 5:-0.460192 6:-0.703468 7:-0.531573 8:0.482082 9:0.124391 10:-0.180816 11:-0.304073 12:0.138405 13:-0.634535 14:0.204942 15:0.259693 16:-0.258601 17:0.400687 18:0.092075 19:0.515622 20:0.226886 21:-0.16497 22:0.056251 23:-0.180334 24:0.073874 25:0.072574 26:-0.717101 27:-0.494462 28:0.132544 29:0.113456 30:-0.090691 
0.9527056095756755 1:5.657024 2:-1.104125 3:-0.132867 4:0.845431 5:0.424511 6:-1.424924 7:0.205073 8:0.011691 9:0.696737 10:-0.638006 11:-0.856145 12:0.100911 13:-0.495704 14:0.352182 15:-0.487146 16:-0.123734 17:0.256668 18:-0.506998 19:0.261797 20:0.02947 21:-0.196047 22:0.107038 23:0.021397 24:0.093773 25:0.135089 26:-0.93877 27:0.065386 28:-0.150871 29:-0.155048 30:0.314829 
2.63467264944791 1:5.855013 2:0.261482 3:-0.354615 4:0.815836 5:0.871195 6:-0.691328 7:0.32907 8:-0.173774 9:-0.140757 10:-0.614306 11:-0.071489 12:0.199075 13:-0.37095 14:0.580348 15:0.040819 16:-0.599863 17:-0.101884 18:0.109026 19:0.110776 20:0.229227 21:-0.31784 22:-0.263077 23:-0.116909 24:0.192108 25:-0.355562 26:0.772697 27:0.263806 28:-0.002979 29:-0.619482 30:-0.650316 
1.565564308973967 1:5.854035 2:0.239963 3:0.340968 4:0.872818 5:-0.883277 6:-0.63345 7:0.304843 8:0.219497 9:-0.137209 10:-0.591411 11:-0.034638 12:-0.142361 13:-0.385915 14:-0.579932 15:0.01371 16:-0.35096 17:-0.517641 18:0.131083 19:0.093794 20:-0.253447 21:0.239575 22:-0.187011 23:0.279322 24:0.199488 25:0.612444 26:0.643655 27:-0.201587 28:-0.042901 29:-0.543042 30:0.702104 
1.690541503451927 1:5.929584 2:1.086953 3:0.502518 4:0.420958 5:0.253761 6:-1.092319 7:0.276452 8:0.128848 9:-0.453798 10:0.036829 11:-0.354219 12:0.526964 13:0.109463 14:-0.652414 15:0.362176 16:-0.254357 17:-0.347453 18:0.166669 19:-0.358655 20:0.273946 21:0.30835 22:-0.499231 23:-0.026851 24:0.286175 25:0.510791 26:0.486389 27:0.458841 28:-0.210539 29:-0.35882 30:0.173489 
1.602181597293979 1:5.597935 2:1.119816 3:-0.557236 4:0.851476 5:-0.181866 6:-1.614744 7:0.364675 8:-0.253234 9:-0.134816 10:0.585915 11:-0.460147 12:0.116032 13:0.067099 14:0.395221 15:-0.255373 16:-0.038953 17:0.633274 18:0.09049 19:-0.361919 20:-0.773253 21:-0.153464 22:-0.085252 23:0.590165 24:-0.286938 25:0.076153 26:0.439956 27:0.450256 28:-0.97292 29:-0.9976 30:-0.444928 
1.072183936392127 1:5.604617 2:1.119137 3:0.538689 4:0.861513 5:0.102428 6:-1.601612 7:0.318745 8:0.305639 9:-0.122204 10:0.58556 11:-0.45704 12:-0.139095 13:0.027457 14:-0.436786 15:0.249687 16:0.523694 17:-0.228243 18:0.162667 19:-0.36789 20:0.750892 21:0.095388 22:-0.511824 23:-0.400279 24:-0.271523 25:0.11685 26:0.519772 27:-0.349065 28:0.925525 29:-1.049008 30:0.509407 
3.421571501299668 1:6.044933 2:1.265572 3:1.060786 4:0.297827 5:-0.436947 6:-1.173653 7:-0.233705 8:0.011534 9:-0.18792 10:0.126501 11:0.182572 12:-0.864357 13:-0.031932 14:-0.177882 15:-0.215277 16:-0.111079 17:-0.130661 18:-0.268167 19:0.018195 20:0.686103 21:-0.037692 22:-0.168084 23:-0.249765 24:0.109758 25:-0.312283 26:-0.080175 27:-0.15697 28:-0.426447 29:-0.150248 30:0.61185 
3.714748273484611 1:6.038296 2:1.269607 3:-1.06772 4:0.283824 5:0.333373 6:-1.210456 7:-0.21216 8:0.008738 9:-0.197626 10:0.132191 11:0.158743 12:0.860251 13:0.142869 14:0.188995 15:0.226145 16:-0.101257 17:-0.053858 18:-0.250348 19:0.001773 20:-0.692374 21:0.012568 22:0.061076 23:0.282506 24:0.107717 25:0.284072 26:-0.196064 27:0.164487 28:0.444835 29:-0.245495 30:-0.59903 
2.10055541219387 1:5.906528 2:0.894796 3:-0.183604 4:0.790579 5:-0.133955 6:-0.770322 7:-0.296132 8:0.227393 9:-0.22123 10:-0.347403 11:0.340201 12:0.256541 13:0.414683 14:0.760988 15:-0.177046 16:-0.478226 17:-0.307602 18:0.529171 19:-0.267108 20:0.073478 21:-0.582288 22:0.125723 23:0.19934 24:-0.206185 25:0.28276 26:0.564608 27:0.460734 28:-0.177125 29:-0.349362 30:-0.174531 
3.183753683806465 1:5.89462 2:0.933044 3:0.17954 4:0.793303 5:0.130491 6:-0.778347 7:-0.294542 8:-0.190433 9:-0.23086 10:-0.327572 11:0.3406 12:-0.303069 13:0.368504 14:-0.775252 15:0.271445 16:-0.557863 17:-0.231776 18:0.470758 19:-0.237616 20:-0.098902 21:0.53389 22:-0.191946 23:-0.210023 24:-0.223919 25:-0.066025 26:0.686795 27:-0.403946 28:0.121397 29:-0.357882 30:0.222809 
0.139956643364887 1:6.201053 2:0.34985 3:-0.255696 4:0.336166 5:-0.388422 6:-0.867497 7:0.459225 8:-0.313023 9:-0.01146 10:0.284588 11:0.127733 12:-0.397078 13:0.179516 14:-0.135969 15:0.097481 16:-0.529871 17:-0.396039 18:0.3957 19:0.251731 20:-0.106712 21:0.288104 22:-0.27733 23:-0.340202 24:0.130497 25:0.168009 26:0.443111 27:-0.381718 28:-0.135084 29:-0.193741 30:0.277084 
1.27467900381769 1:5.865743 2:-0.307162 3:-0.206128 4:-0.243027 5:-0.171571 6:-1.338836 7:0.212745 8:0.633434 9:0.261648 10:-0.326143 11:-0.405714 12:0.149594 13:-0.264673 14:0.01294 15:0.069392 16:-0.309345 17:0.43085 18:0.471322 19:-0.145555 20:0.05225 21:-0.0182 22:0.513032 23:-0.222945 24:-0.351189 25:-0.102069 26:-0.818148 27:-0.272307 28:-0.404096 29:-0.025805 30:-0.062225 
6.176377652357632 1:5.994093 2:-0.650993 3:-0.603202 4:0.43518 5:-0.551756 6:-0.64288 7:-0.451922 8:-0.152901 9:-0.1193 10:0.627179 11:-0.337582 12:-0.427111 13:-0.582538 14:-0.165599 15:0.217078 16:-0.038844 17:0.309001 18:0.420483 19:-0.294521 20:-0.174849 21:0.363804 22:0.183161 23:-0.393331 24:0.116661 25:0.502283 26:0.450686 27:-0.243701 28:-0.182305 29:0.048011 30:-0.434272 
0.2287888781664285 1:6.168788 2:0.405349 3:0.293719 4:0.78026 5:0.037939 6:-1.202898 7:0.631597 8:0.03968 9:-0.118458 10:-0.138669 11:0.174498 12:-0.215522 13:-0.456629 14:0.124069 15:-0.350242 16:-0.045153 17:-0.236412 18:-0.677641 19:0.366046 20:0.188763 21:0.44901 22:-0.077049 23:-0.13198 24:-0.041922 25:-0.298915 26:-0.527038 27:0.253765 28:0.086272 29:-0.515296 30:-0.017641 
2.598381886742869 1:6.160724 2:0.421549 3:-0.346835 4:0.791171 5:-0.098079 6:-1.191446 7:0.656246 8:-0.000511 9:-0.126775 10:-0.143248 11:0.144137 12:0.32925 13:-0.386827 14:-0.099367 15:0.323527 16:-0.112668 17:-0.015733 18:-0.718392 19:0.374731 20:-0.183757 21:-0.429009 22:0.076431 23:0.132929 24:-0.036609 25:0.142058 26:-0.60486 27:-0.226014 28:-0.084912 29:-0.559522 30:0.056998 
1.551078210060467 1:6.247847 2:0.071629 3:0.29451 4:0.316224 5:-0.379764 6:-0.988723 7:-0.694807 8:-0.218983 9:-0.290283 10:-0.205611 11:0.177707 12:0.277111 13:-0.423212 14:-0.384821 15:-0.161099 16:0.22201 17:-0.029693 18:-0.132319 19:0.280094 20:-0.113056 21:-0.266775 22:-0.003141 23:-0.220296 24:0.091076 25:-0.206785 26:-0.45948 27:0.369449 28:-0.011613 29:0.254771 30:-0.094246 
2.737677215268506 1:6.257967 2:0.083594 3:-0.298245 4:0.26653 5:0.295158 6:-1.006234 7:-0.712739 8:0.229923 9:-0.268571 10:-0.208019 11:0.201315 12:-0.174334 13:-0.433742 14:0.395311 15:0.169801 16:0.087354 17:0.191669 18:-0.137892 19:0.265551 20:0.132334 21:0.228397 22:0.112899 23:0.195204 24:0.091917 25:0.073633 26:-0.481008 27:-0.385026 28:0.073728 29:0.277466 30:0.04955 
5.907323109460665 1:5.860452 2:0.463922 3:0.678801 4:0.28923 5:-0.592075 6:-1.254335 7:0.276331 8:-0.004304 9:0.179891 10:0.126144 11:0.006094 12:-0.287276 13:0.695507 14:0.13169 15:-0.113817 16:0.399476 17:-0.110472 18:-0.714133 19:0.288818 20:0.135716 21:0.262381 22:-0.255625 23:0.282425 24:-0.178283 25:0.576899 26:-0.56418 27:0.410515 28:-0.372754 29:0.019942 30:-0.219242 
5.733838654393163 1:5.857158 2:0.438386 3:-0.69868 4:0.244254 5:0.507857 6:-1.32814 7:0.265547 8:0.03451 9:0.173273 10:0.11477 11:-0.027074 12:0.141285 13:0.747718 14:-0.168695 15:0.073187 16:0.167696 17:0.300563 18:-0.773776 19:0.305674 20:-0.099117 21:-0.33198 22:-0.358587 23:-0.002336 24:-0.159016 25:-0.681617 26:-0.257625 27:-0.403638 28:0.460458 29:0.020947 30:0.188405 
2.745322847101018 1:6.023468 2:0.107935 3:0.787254 4:0.772003 5:-0.404604 6:-1.23771 7:0.718552 8:0.723761 9:-0.180151 10:-0.30562 11:-0.293996 12:0.004367 13:-0.509978 14:-0.370265 15:-0.50148 16:0.173025 17:0.009298 18:0.348455 19:-0.674938 20:0.425033 21:0.047105 22:-0.165477 23:-0.363309 24:0.312491 25:0.571141 26:0.064062 27:0.184643 28:0.173226 29:-0.388452 30:0.091866 
3.822938767870279 1:6.013409 2:0.100493 3:-0.809929 4:0.744577 5:0.364887 6:-1.279705 7:0.721569 8:-0.644162 9:-0.245838 10:-0.330079 11:-0.302841 12:0.03144 13:-0.474219 14:0.354144 15:0.548722 16:0.08647 17:0.293073 18:0.278034 19:-0.633643 20:-0.481319 21:-0.014555 22:0.080963 23:0.398927 24:0.340485 25:-0.532797 26:0.297548 27:-0.152727 28:-0.190908 29:-0.357699 30:-0.067945 
2.729280319334713 1:6.154134 2:-0.245548 3:-0.347892 4:0.257892 5:-0.226694 6:-1.176134 7:-1.366772 8:0.386415 9:-0.120992 10:0.198534 11:0.006475 12:-0.009663 13:0.200156 14:0.106045 15:-0.456559 16:0.438756 17:0.258349 18:-0.478524 19:0.258468 20:0.056659 21:-0.510796 22:0.24342 23:-0.0042 24:-0.290596 25:0.045841 26:0.1698 27:0.19991 28:-0.437431 29:0.49596 30:-0.184123 
1.991934748759127 1:6.149305 2:-0.24287 3:0.376705 4:0.246441 5:0.133363 6:-1.205787 7:-1.36111 8:-0.410369 9:-0.137104 10:0.219662 11:0.010876 12:-0.031924 13:0.198297 14:-0.070707 15:0.447937 16:0.462949 17:0.216518 18:-0.490238 19:0.25126 20:-0.022322 21:0.520933 22:0.098921 23:-0.100095 24:-0.305618 25:-0.007279 26:0.218743 27:-0.190317 28:0.49411 29:0.489006 30:0.148746 
1.633557773868679 1:5.898311 2:-0.394912 3:-0.146813 4:0.288564 5:0.558237 6:-1.296672 7:-0.951399 8:-0.781414 9:0.048829 10:-0.513165 11:0.037604 12:0.547638 13:-0.670379 14:0.626587 15:0.621085 16:0.141697 17:0.023352 18:-0.060815 19:-0.431928 20:0.212408 21:0.240092 22:0.346547 23:0.050655 24:-0.356757 25:-0.288993 26:-0.703166 27:0.460157 28:-0.205575 29:0.692789 30:-0.399857 
1.595634764910505 1:5.904356 2:-0.416087 3:0.151065 4:0.341658 5:-0.646245 6:-1.243362 7:-0.955066 8:0.77243 9:0.091831 10:-0.494263 11:0.039907 12:-0.422099 13:-0.766062 14:-0.599354 15:-0.556438 16:0.009009 17:0.137301 18:-0.079005 19:-0.412143 20:-0.195149 21:-0.178417 22:0.231493 23:-0.296825 24:-0.368152 25:0.040133 26:-0.722257 27:-0.527255 28:0.275565 29:0.684489 30:0.362129 
4.554893295894499 1:5.92176 2:-1.380286 3:0.049374 4:0.235004 5:0.389823 6:-1.030862 7:-0.020515 8:0.240619 9:0.468353 10:-0.090931 11:-0.682545 12:-0.263775 13:-0.431415 14:-0.357897 15:-0.588081 16:-0.120969 17:-0.404736 18:-0.376664 19:0.417604 20:-0.574346 21:-0.392538 22:0.192149 23:-0.200351 24:-0.630906 25:0.19313 26:-0.140672 27:-0.311133 28:-0.312881 29:-0.017661 30:0.098062 
5.187606241831364 1:5.929093 2:-1.379563 3:-0.054956 4:0.247287 5:-0.46811 6:-1.00786 7:-0.017673 8:-0.247309 9:0.45612 10:-0.084733 11:-0.664217 12:0.335094 13:-0.372485 14:0.414006 15:0.578679 16:-0.352418 17:-0.028039 18:-0.387054 19:0.434271 20:0.583556 21:0.413435 22:0.215918 23:0.089858 24:-0.608668 25:-0.201925 26:-0.054167 27:0.300446 28:0.314451 29:-0.040827 30:-0.102431 
8 1:6.218215 2:-0.773146 3:-0.053701 4:0.147386 5:0.234721 6:-0.735883 7:-0.472504 8:-0.458398 9:0.236257 10:-0.377907 11:-0.397046 12:0.439808 13:-0.042304 14:0.215411 15:-0.184835 16:0.382408 17:0.271435 18:-0.135334 19:0.255908 20:0.315003 21:0.193234 22:0.116501 23:-0.029985 24:0.100219 25:-0.444124 26:-0.187366 27:-0.08025 28:-0.496675 29:0.122091 30:-0.137349 
8 1:6.21714 2:-0.791913 3:0.05111 4:0.169649 5:-0.304333 6:-0.70486 7:-0.511026 8:0.444776 9:0.265711 10:-0.38421 11:-0.425513 12:-0.436892 13:-0.103161 14:-0.231014 15:0.136748 16:0.434436 17:0.24083 18:-0.139163 19:0.255621 20:-0.299375 21:-0.154546 22:0.150237 23:-0.040316 24:0.127378 25:0.36419 26:-0.316213 27:0.075549 28:0.523926 29:0.103963 30:0.111551 
6.508975330720342 1:6.39153 2:-0.760286 3:-0.216513 4:0.330975 5:0.157291 6:-1.111601 7:-0.132211 8:0.458777 9:0.173209 10:-0.196034 11:0.776329 12:0.035973 13:0.312989 14:-0.456683 15:-0.134874 16:0.11299 17:0.149542 18:0.112847 19:0.058512 20:0.081602 21:-0.104151 22:-0.116626 23:-0.170287 24:0.049435 25:0.032016 26:0.118044 27:0.135992 28:0.215978 29:-0.184257 30:0.154149 
5.221421122937714 1:6.385177 2:-0.769289 3:0.208268 4:0.356113 5:-0.210915 6:-1.113344 7:-0.126106 8:-0.489775 9:0.146215 10:-0.213206 11:0.781461 12:-0.075266 13:0.312254 14:0.441371 15:0.132435 16:0.203154 17:0.063103 18:0.121595 19:0.055529 20:-0.095853 21:0.095091 22:-0.003928 23:0.20636 24:0.085923 25:0.019321 26:0.124568 27:-0.147857 28:-0.236488 29:-0.161782 30:-0.124728 
4.842535341941923 1:6.323802 2:-0.924297 3:0.854225 4:-0.24364 5:0.360504 6:-0.902949 7:0.234107 8:0.256951 9:0.183395 10:-0.209132 11:0.127403 12:0.154284 13:-0.233988 14:0.084303 15:-0.46061 16:-0.324852 17:-0.229534 18:0.194643 19:0.104849 20:0.049435 21:0.03257 22:-0.064634 23:-0.377424 24:-0.303971 25:0.259754 26:0.233505 27:-0.061375 28:-0.40016 29:0.022282 30:-0.022386 
4.237875372826725 1:6.328088 2:-0.90836 3:-0.863903 4:-0.238714 5:-0.432367 6:-0.861193 7:0.249554 8:-0.253998 9:0.146893 10:-0.199918 11:0.157951 12:-0.141453 13:-0.253158 14:-0.070508 15:0.5054 16:-0.331238 17:-0.182983 18:0.187881 19:0.077633 20:-0.056695 21:-0.031405 22:0.228421 23:0.311725 24:-0.32595 25:-0.170519 26:0.319291 27:0.06688 28:0.374914 29:0.012858 30:0.040632 
7.567782405919343 1:6.2255 2:-0.435167 3:0.256361 4:0.4207 5:0.140337 6:-1.263098 7:0.181139 8:0.226556 9:-0.096938 10:-0.159082 11:0.362581 12:-0.395886 13:0.466569 14:-0.488088 15:0.139668 16:0.86327 17:0.010233 18:0.045187 19:-0.414409 20:0.506558 21:0.033014 22:-0.052686 23:-0.213906 24:0.007836 25:-0.063024 26:-0.051031 27:-0.38515 28:0.1665 29:0.267917 30:0.42042 
8 1:6.23136 2:-0.431123 3:-0.257191 4:0.42456 5:-0.212438 6:-1.252275 7:0.247737 8:-0.20824 9:-0.119494 10:-0.154358 11:0.338628 12:0.243341 13:0.538517 14:0.444449 15:-0.111306 16:0.31982 17:0.821473 18:-0.023433 19:-0.38345 20:-0.476985 21:-0.009027 22:0.115632 23:0.165384 24:0.00955 25:0.03551 26:-0.099108 27:0.397588 28:-0.128407 29:0.235522 30:-0.432611 
6.317189102462661 1:5.949818 2:-0.558531 3:-0.023441 4:0.643621 5:-0.002033 6:-0.71733 7:-0.66518 8:-0.102655 9:-0.482722 10:-0.168339 11:-0.679891 12:0.175432 13:0.190417 14:-0.239309 15:-0.061081 16:0.306795 17:0.284353 18:-0.107852 19:0.177798 20:-0.000667 21:-0.254228 22:0.39844 23:0.105825 24:-0.174534 25:-0.003412 26:-0.720059 27:-0.481089 28:-0.157666 29:-0.393629 30:-0.11377 
6.288468908632779 1:5.962464 2:-0.560393 3:-0.001874 4:0.644947 5:-0.038952 6:-0.721521 7:-0.674594 8:0.186746 9:-0.462928 10:-0.156912 11:-0.654944 12:-0.180813 13:0.161472 14:0.203964 15:0.053837 16:0.32373 17:0.225755 18:-0.087058 19:0.193682 20:-0.001507 21:0.268783 22:0.179879 23:-0.368266 24:-0.173179 25:-0.143649 26:-0.727688 27:0.549126 28:0.229504 29:-0.395881 30:0.087773 
8 1:6.511895 2:0.573856 3:-0.053294 4:0.213592 5:-0.060148 6:-0.573344 7:-0.394591 8:0.196741 9:-0.282645 10:0.034236 11:-0.257373 12:0.009684 13:0.355082 14:-0.156336 15:-0.000415 16:0.160961 17:-0.025721 18:-0.219506 19:0.036907 20:0.089598 21:0.137222 22:-0.045311 23:-0.124738 24:-0.075039 25:0.055726 26:-0.107999 27:0.001942 28:-0.065806 29:-0.202388 30:-0.053463 
8 1:6.508498 2:0.574323 3:0.06422 4:0.215228 5:0.014533 6:-0.582094 7:-0.370413 8:-0.173552 9:-0.303562 10:0.03543 11:-0.269789 12:-0.063133 13:0.37386 14:0.139396 15:-0.031463 16:0.070981 17:0.147899 18:-0.219744 19:0.026973 20:-0.079787 21:-0.107548 22:0.079821 23:0.121843 24:-0.057989 25:-0.065826 26:-0.070592 27:0.019801 28:0.080208 29:-0.183014 30:0.069622 
4.337088661261117 1:5.858334 2:1.288164 3:-1.075051 4:0.976731 5:-0.168985 6:-1.09198 7:-0.169289 8:0.055554 9:-0.697753 10:0.473226 11:0.05389 12:0.675595 13:-0.2675 14:-0.579245 15:0.36396 16:0.625816 17:0.385196 18:0.188908 19:0.059806 20:-0.27818 21:-0.086946 22:-0.404847 23:0.22337 24:-0.097043 25:-0.176158 26:0.159034 27:-0.222686 28:0.199146 29:-0.105672 30:0.346307 
5.322635500859 1:5.858953 2:1.287046 3:1.05977 4:0.975075 5:0.137684 6:-1.105739 7:-0.182709 8:0.003185 9:-0.689158 10:0.478294 11:0.100009 12:-0.609962 13:-0.39035 14:0.562985 15:-0.408233 16:0.598347 17:0.427196 18:0.199401 19:0.065718 20:0.266907 21:0.080975 22:-0.451693 23:0.095125 24:-0.089153 25:0.170444 26:0.059823 27:0.278286 28:-0.167063 29:-0.084545 30:-0.348383 
3.322059793635547 1:5.817022 2:0.028434 3:0.526708 4:1.474103 5:-0.641793 6:-0.53966 7:-0.135439 8:0.318318 9:-0.657859 10:0.633781 11:-0.212139 12:0.790236 13:-0.481952 14:0.106026 15:-0.05371 16:0.15207 17:-0.3188 18:0.784594 19:-0.50911 20:-0.377717 21:0.116872 22:0.280232 23:-0.002122 24:0.201881 25:0.369103 26:0.807603 27:-0.030242 28:-0.08012 29:0.025684 30:-0.064446 
3.758509205639188 1:5.755635 2:-0.459688 3:0.940825 4:1.681207 5:1.381752 6:-0.696441 7:-0.022806 8:0.280084 9:-0.354878 10:-0.024357 11:-0.789847 12:-0.010076 13:-0.095435 14:-0.077394 15:-0.367863 16:0.213054 17:0.277587 18:0.093674 19:-0.379556 20:-0.056648 21:-0.786083 22:0.54806 23:0.098079 24:0.365837 25:-0.241016 26:0.120007 27:0.564315 28:0.2814 29:0.244404 30:0.152253 
2.663797332736531 1:5.763273 2:-0.499517 3:-0.942851 4:1.775907 5:-1.317423 6:-0.619071 7:-0.034508 8:-0.222414 9:-0.361391 10:-0.004861 11:-0.776876 12:-0.032425 13:-0.111725 14:0.052796 15:0.380468 16:0.322886 17:0.121692 18:0.080523 19:-0.389726 20:0.056204 21:0.896021 22:0.174706 23:-0.387295 24:0.371438 25:0.273828 26:0.080844 27:-0.544902 28:-0.267023 29:0.21327 30:-0.12797 
1.460870334784833 1:5.69283 2:0.19162 3:1.194193 4:0.245332 5:0.048601 6:-1.803486 7:0.391797 8:0.426058 9:-0.625564 10:0.326166 11:0.153877 12:-0.228499 13:-0.394195 14:-0.012447 15:-0.72946 16:-0.208082 17:-0.495244 18:-0.2779 19:0.64539 20:-0.163561 21:0.411974 22:0.512412 23:0.143269 24:-0.256762 25:0.154837 26:-0.223772 27:-0.007418 28:-0.066142 29:-0.210743 30:-0.620208 
1.100783560580856 1:5.688062 2:0.192236 3:-1.232584 4:0.250013 5:-0.185843 6:-1.793439 7:0.38725 8:-0.343841 9:-0.667255 10:0.324011 11:0.100847 12:0.306327 13:-0.343452 14:0.05083 15:0.756835 16:-0.441184 17:-0.018313 18:-0.350425 19:0.705666 20:0.170663 21:-0.360205 22:0.323478 23:-0.432028 24:-0.203474 25:-0.179274 26:-0.143437 27:0.007682 28:0.080564 29:-0.17336 30:0.614656 
-4.83468249697268 1:6.084989 2:0.104026 3:0.344568 4:0.607106 5:0.374026 6:-1.034584 7:-0.049825 8:0.904643 9:0.240293 10:0.097999 11:0.288003 12:-0.557003 13:-0.425238 14:0.111901 15:0.248384 16:0.219323 17:0.235284 18:-0.48451 19:0.158821 20:0.927333 21:0.182099 22:-0.214166 23:-0.18206 24:0.172213 25:0.307147 26:-0.216664 27:0.187304 28:0.018985 29:-0.358333 30:0.448336 
-5.797598021014889 1:6.081935 2:0.098039 3:-0.345757 4:0.650165 5:-0.398749 6:-1.023335 7:-0.014659 8:-0.916358 9:0.170321 10:0.094073 11:0.266869 12:0.648707 13:-0.316207 14:-0.109244 15:-0.282923 16:0.34356 17:0.042522 18:-0.491025 19:0.125382 20:-0.914597 21:-0.211857 22:0.05148 23:0.266912 24:0.159056 25:-0.347407 26:-0.106426 27:-0.19466 28:-0.018883 29:-0.362904 30:-0.392384 
-1.695312848317944 1:6.293235 2:-0.602487 3:0.45596 4:0.024407 5:1.184651 6:-0.480477 7:0.070505 8:0.158317 9:0.201746 10:0.020313 11:-0.341606 12:-0.403476 13:-0.201907 14:-0.537523 15:-0.438302 16:-0.150912 17:0.254546 18:0.112448 19:0.051443 20:-0.034394 21:-0.184092 22:0.574338 23:0.056868 24:-0.044607 25:-0.169965 26:-0.317616 27:0.215743 28:0.032542 29:-0.05287 30:0.250352 
-3.82304844700692 1:6.285066 2:-0.626002 3:-0.468871 4:0.102384 5:-1.213389 6:-0.413941 7:0.098238 8:-0.137977 9:0.18272 10:0.016538 11:-0.345238 12:0.43462 13:-0.120433 14:0.537057 15:0.462247 16:0.164416 17:-0.174585 18:0.174482 19:0.038557 20:0.02542 21:0.30099 22:0.335854 23:-0.437447 24:-0.040469 25:0.068211 26:-0.346942 27:-0.231405 28:-0.03957 29:-0.074836 30:-0.256995 
-0.9495377490480501 1:5.906114 2:-1.11104 3:0.42818 4:0.209376 5:0.261911 6:-0.448865 7:-0.637423 8:-0.36103 9:-0.132798 10:-0.441652 11:0.607097 12:-0.407261 13:-0.084297 14:0.4199 15:-0.288025 16:0.212099 17:-1.103679 18:0.059356 19:0.386742 20:-0.356209 21:0.02073 22:-0.016697 23:0.449983 24:-0.026034 25:0.245116 26:-0.400171 27:-0.150487 28:0.096492 29:-0.47647 30:-0.035512 
-1.555386469610645 1:5.903388 2:-1.093231 3:-0.451354 4:0.213484 5:-0.278341 6:-0.422515 7:-0.589186 8:0.319233 9:-0.114034 10:-0.405796 11:0.617417 12:0.501913 13:-0.025358 14:-0.408818 15:0.271214 16:-0.931958 17:0.615117 18:-0.136773 19:0.471196 20:0.343172 21:-0.083302 22:-0.348895 23:-0.335117 24:-0.021096 25:-0.335619 26:-0.311068 27:0.1335 28:-0.134757 29:-0.458392 30:0.015835 
-0.7338108075523807 1:5.715395 2:-1.916305 3:-0.52835 4:0.541645 5:0.783181 6:-0.740519 7:0.624116 8:0.01437 9:0.387952 10:0.580857 11:0.504921 12:-0.029697 13:-0.013658 14:-0.028167 15:0.105702 16:-0.050189 17:-0.440028 18:-0.053482 19:-0.23035 20:-0.230095 21:-0.105756 22:0.441178 23:0.479317 24:0.169579 25:-0.493782 26:0.186868 27:0.020829 28:-0.125144 29:0.30734 30:0.175375 
-1.057075466665227 1:5.709337 2:-1.937073 3:0.513986 4:0.584264 5:-0.768956 6:-0.675042 7:0.64346 8:-0.033396 9:0.383138 10:0.58487 11:0.487791 12:0.016592 13:-0.038928 14:0.012949 15:-0.066124 16:-0.415395 17:0.107396 18:-0.095962 19:-0.182267 20:0.249334 21:0.118616 22:-0.029896 23:-0.64896 24:0.181905 25:0.553628 26:0.008504 27:0.001429 28:0.15696 29:0.2932 30:-0.183753 
-2.360137827367177 1:5.304122 2:0.119915 3:-0.373332 4:1.046133 5:-0.826593 6:-1.017384 7:0.44056 8:-0.320581 9:-0.63973 10:0.722207 11:-0.580754 12:-0.50898 13:-1.258185 14:-0.023345 15:0.794911 16:-0.16417 17:0.079979 18:0.754061 19:-0.283133 20:0.356379 21:0.006515 22:-0.422088 23:-0.094592 24:-0.144873 25:0.438526 26:0.510952 27:0.232254 28:0.418124 29:-0.025914 30:0.340661 
-2.014229161933581 1:5.289108 2:0.121875 3:0.349092 4:0.995308 5:0.822189 6:-1.105029 7:0.46057 8:0.39159 9:-0.609798 10:0.713591 11:-0.608698 12:0.700787 13:-1.165398 14:0.043596 15:-0.739107 16:-0.096855 17:-0.082622 18:0.78547 19:-0.329186 20:-0.384492 21:-0.094383 22:-0.215852 23:0.36874 24:-0.15557 25:-0.263798 26:0.620122 27:-0.23041 28:-0.459513 29:-0.038832 30:-0.288948 
-0.1247521853657599 1:5.426754 2:-0.364099 3:-0.008904 4:0.12183 5:-0.016082 6:-0.560243 7:-1.580586 8:0.715143 9:-0.676685 10:-0.621769 11:0.604385 12:-0.743324 13:-0.156325 14:-0.005087 15:0.991041 16:-0.095714 17:-0.174594 18:-0.598332 19:0.480409 20:-0.576728 21:0.475608 22:-0.233467 23:0.378135 24:-0.21033 25:0.854965 26:-0.47064 27:-0.381993 28:0.398214 29:-0.548394 30:0.207012 
-0.3396092091223337 1:5.841084 2:-1.14977 3:-0.689102 4:-0.220336 5:0.302629 6:-0.405684 7:-0.405276 8:-0.701145 9:0.306584 10:0.001902 11:-0.590288 12:0.062684 13:0.158042 14:-0.182175 15:0.102022 16:0.074432 17:-0.122474 18:-0.248862 19:0.110161 20:0.081608 21:0.27837 22:0.851569 23:-0.785485 24:0.226625 25:-0.274912 26:-0.669963 27:-0.34638 28:-0.611701 29:0.073202 30:0.10643 
-0.3072547066958583 1:5.818827 2:-1.169664 3:0.692943 4:-0.200487 5:-0.373414 6:-0.396458 7:-0.436293 8:0.680632 9:0.380566 10:0.004659 11:-0.603497 12:-0.107049 13:0.171993 14:0.184241 15:-0.104934 16:-0.085832 17:0.117478 18:-0.284495 19:0.123139 20:-0.057228 21:-0.069913 22:1.167799 23:0.023514 24:0.261797 25:0.088885 26:-0.68513 27:0.279833 28:0.64899 29:0.074887 30:-0.114486 
-0.2732428287711017 1:5.437009 2:1.499777 3:-0.670368 4:-0.427073 5:-0.884803 6:-0.700535 7:0.542903 8:-0.062921 9:0.080391 10:0.723646 11:-1.168348 12:-0.409297 13:-0.073601 14:-0.101091 15:0.374363 16:1.294702 17:0.521034 18:0.115091 19:-0.449039 20:0.117194 21:-0.073866 22:0.251247 23:-0.274507 24:0.4411 25:0.239084 26:0.503584 27:-0.338568 28:-0.068726 29:-0.270512 30:0.037 
-0.8951514324746178 1:5.399676 2:1.050556 3:-0.166182 4:-0.433619 5:1.164297 6:-1.909275 7:0.530728 8:0.555808 9:0.434359 10:-0.243541 11:0.37887 12:0.606613 13:-0.17394 14:0.594028 15:0.646799 16:0.507117 17:0.313625 18:-1.000674 19:0.05819 20:0.404669 21:-0.312975 22:0.536309 23:0.525474 24:-0.026591 25:0.15062 26:-0.264139 27:0.214716 28:0.882908 29:0.18079 30:0.081413 
-1.291295068028468 1:5.393127 2:1.016342 3:0.147242 4:-0.312905 5:-1.377929 6:-1.82309 7:0.52132 8:-0.555769 9:0.370208 10:-0.230693 11:0.412313 12:-0.577821 13:-0.310941 14:-0.589017 15:-0.718896 16:0.530425 17:0.163101 18:-0.999233 19:0.095832 20:-0.382556 21:0.427293 22:-0.031058 23:-0.695743 24:-0.031207 25:-0.25478 26:-0.228393 27:-0.235354 28:-0.816426 29:0.255509 30:-0.129224 
-1.314518082298594 1:6.097795 2:-1.00326 3:-0.0401 4:0.248274 5:-1.182649 6:-0.430841 7:0.060846 8:0.420141 9:0.732816 10:-0.342778 11:-0.481283 12:0.111853 13:0.130713 14:0.063397 15:-0.432619 16:0.049575 17:0.229207 18:0.274112 19:0.132587 20:0.289604 21:-0.444794 22:0.10547 23:0.150844 24:-0.108863 25:0.449685 26:-0.070936 27:0.495898 28:-0.120839 29:-0.152141 30:-0.023285 
-1.527451030496314 1:6.089684 2:-0.996413 3:0.020214 4:0.148727 5:1.177604 6:-0.537391 7:0.067084 8:-0.452863 9:0.723873 10:-0.36077 11:-0.486245 12:-0.154396 13:0.105023 14:-0.132192 15:0.412163 16:0.186797 17:0.017941 18:0.277063 19:0.139129 20:-0.291929 21:0.43631 22:-0.130094 23:-0.167957 24:-0.157421 25:-0.435851 26:0.121998 27:-0.464587 28:0.103082 29:-0.163168 30:0.009809 
-0.5915642018972793 1:5.740369 2:0.510984 3:-0.308771 4:0.094314 5:-0.308371 6:-1.031475 7:0.779123 8:0.768962 9:-0.428097 10:0.014424 11:0.379735 12:0.008875 13:0.046363 14:-0.232263 15:-0.959432 16:0.007022 17:-0.582895 18:0.123052 19:-0.633376 20:0.020336 21:-0.08029 22:-0.069055 23:-0.553063 24:-0.33331 25:-0.251423 26:0.121173 27:-0.278808 28:-0.756154 29:0.311863 30:-0.280937 
-0.4497214601101742 1:5.743453 2:0.526318 3:0.295191 4:0.057026 5:0.2514 6:-1.050846 7:0.801251 8:-0.702912 9:-0.494008 10:0.007297 11:0.352546 12:-0.04024 13:0.079183 14:0.229867 15:1.021446 16:-0.506929 17:0.301235 18:0.04343 19:-0.617395 20:-0.02384 21:0.103979 22:0.269198 23:0.459073 24:-0.304284 25:0.267494 26:0.087632 27:0.19169 28:0.730087 29:0.357467 30:0.304303 
-1.772498617702761 1:5.717494 2:0.259646 3:-0.259878 4:0.814234 5:0.449603 6:-0.860957 7:0.071805 8:-0.01472 9:-0.335611 10:0.386199 11:0.750245 12:0.82904 13:-1.014378 14:-0.105587 15:0.234096 16:-0.839393 17:0.154128 18:-0.26074 19:0.337708 20:-0.121093 21:-0.313814 22:0.370013 23:0.543562 24:-0.385587 25:0.741867 26:0.257694 27:-0.038004 28:0.200975 29:-0.10924 30:0.072597 
-2.154705104688692 1:5.725184 2:0.24602 3:0.24206 4:0.859327 5:-0.43998 6:-0.843138 7:0.014608 8:0.034602 9:-0.335582 10:0.391747 11:0.792606 12:-0.578241 13:-1.160676 14:0.17191 15:-0.186093 16:-0.186555 17:-0.863027 18:-0.159617 19:0.310698 20:0.064565 21:0.293847 22:-0.103535 23:-0.580488 24:-0.3843 25:-0.579035 26:0.471648 27:0.027322 28:-0.183036 29:-0.151269 30:-0.073473 
-1.065669911602873 1:5.976585 2:-0.081556 3:-0.71566 4:-0.295117 5:0.509732 6:-0.874947 7:-0.564187 8:0.345437 9:-0.056949 10:0.048561 11:-0.002762 12:-0.357439 13:0.054108 14:0.422105 15:0.006331 16:-0.375605 17:-0.10359 18:0.763173 19:-0.170285 20:0.254789 21:0.302801 22:0.326188 23:0.31334 24:0.003422 25:-0.001736 26:-0.04781 27:-0.239883 28:0.182173 29:-0.152229 30:0.500877 
-1.464063994215931 1:5.970723 2:-0.093265 3:0.706225 4:-0.26529 5:-0.602157 6:-0.852387 7:-0.520853 8:-0.341284 9:-0.083628 10:0.046116 11:-0.03364 12:0.341678 13:0.099991 14:-0.420829 15:0.068626 16:-0.32833 17:-0.15884 18:0.740062 19:-0.140022 20:-0.26794 21:-0.261283 22:0.092651 23:-0.533258 24:-0.02624 25:0.020119 26:-0.078876 27:0.222386 28:-0.218009 29:-0.156724 30:-0.49939 
-0.01036520226059035 1:5.961658 2:-0.706535 3:0.261757 4:-0.299988 5:-0.540498 6:-1.033109 7:0.377681 8:-0.286179 9:-0.258951 10:0.531183 11:0.156173 12:-0.235069 13:0.063381 14:-0.170269 15:-0.102093 16:0.360865 17:-0.119731 18:0.996757 19:0.437996 20:-0.173843 21:0.6983 22:0.176093 23:0.094388 24:0.345843 25:0.577573 26:0.368994 27:0.039197 28:0.070628 29:-0.165526 30:-0.023852 
-0.006368452733323762 1:5.953877 2:-0.699741 3:-0.274759 4:-0.340905 5:0.445648 6:-1.065011 7:0.376681 8:0.314308 9:-0.235781 10:0.495842 11:0.135664 12:0.218287 13:0.099671 14:0.13438 15:0.105742 16:0.016881 17:0.520033 18:0.888832 19:0.491288 20:0.134746 21:-0.722132 22:0.184924 23:-0.230613 24:0.381752 25:-0.419996 26:0.536411 27:-0.028589 28:-0.104242 29:-0.125641 30:0.000672 
-4.731996388537985 1:5.961658 2:-0.706535 3:0.261757 4:-0.299988 5:-0.540498 6:-1.033109 7:0.377681 8:-0.286179 9:-0.258951 10:0.531183 11:0.156173 12:-0.235069 13:0.063381 14:-0.170269 15:-0.102093 16:0.360865 17:-0.119731 18:0.996757 19:0.437996 20:-0.173843 21:0.6983 22:0.176093 23:0.094388 24:0.345843 25:0.577573 26:0.368994 27:0.039197 28:0.070628 29:-0.165526 30:-0.023852 
-3.038976200814335 1:5.953877 2:-0.699741 3:-0.274759 4:-0.340905 5:0.445648 6:-1.065011 7:0.376681 8:0.314308 9:-0.235781 10:0.495842 11:0.135664 12:0.218287 13:0.099671 14:0.13438 15:0.105742 16:0.016881 17:0.520033 18:0.888832 19:0.491288 20:0.134746 21:-0.722132 22:0.184924 23:-0.230613 24:0.381752 25:-0.419996 26:0.536411 27:-0.028589 28:-0.104242 29:-0.125641 30:0.000672 
-1.040426221162503 1:5.899255 2:-0.186011 3:-0.733381 4:0.017522 5:0.925367 6:-0.759737 7:-0.523095 8:0.380613 9:-0.353814 10:0.185314 11:0.124624 12:-0.209422 13:0.551315 14:0.362788 15:-0.440034 16:0.148057 17:-0.249262 18:0.42861 19:0.138054 20:0.24058 21:-0.095153 22:0.477118 23:0.624363 24:0.097944 25:-0.389736 26:0.530678 27:0.121514 28:0.321378 29:0.343137 30:0.497261 
-2.050468486773946 1:5.889753 2:-0.203625 3:0.737326 4:0.071998 5:-0.992404 6:-0.706399 7:-0.474322 8:-0.373296 9:-0.367093 10:0.184315 11:0.094043 12:0.105783 13:0.546448 14:-0.371989 15:0.455531 16:-0.179656 17:0.275101 18:0.314058 19:0.190776 20:-0.241535 21:0.117808 22:-0.108351 23:-0.789291 24:0.04159 25:0.551356 26:0.34968 27:-0.070566 28:-0.324208 29:0.355368 30:-0.558876 
-3.631132416345611 1:5.841629 2:-0.523032 3:0.653214 4:0.411593 5:0.63077 6:-0.514823 7:0.62053 8:0.02835 9:-0.377988 10:-0.108074 11:-0.074966 12:-0.463702 13:-0.181841 14:0.301009 15:0.442601 16:0.171075 17:0.004697 18:0.187396 19:-0.296826 20:0.196585 21:0.179774 22:0.441725 23:-0.006722 24:-0.165675 25:-0.075494 26:-0.294982 27:-0.188455 28:-0.106995 29:0.23625 30:0.10802 
-3.717117021107384 1:5.834921 2:-0.543834 3:-0.667107 4:0.451635 5:-0.682815 6:-0.470447 7:0.64564 8:0.043065 9:-0.365831 10:-0.116738 11:-0.094965 12:0.453047 13:-0.112523 14:-0.302118 15:-0.423087 16:0.047677 17:0.172131 18:0.181244 19:-0.295486 20:-0.179551 21:-0.143239 22:0.359143 23:-0.312046 24:-0.167896 25:0.01521 26:-0.291824 27:0.137316 28:0.113279 29:0.292342 30:-0.109087 
-0.2975469164967486 1:5.672022 2:-0.393977 3:0.050901 4:-0.669676 5:0.441995 6:-1.058781 7:-0.466979 8:-1.305456 9:-0.315784 10:0.17371 11:0.238215 12:-0.468603 13:-0.674587 14:0.119502 15:0.292788 16:0.054822 17:-0.18262 18:0.211307 19:0.138919 20:-0.409617 21:0.060999 22:0.304568 23:0.837695 24:-0.029213 25:-0.560517 26:0.508394 27:0.853901 28:0.318064 29:0.390817 30:0.275432 
-1.262108094041757 1:5.67755 2:-0.416896 3:-0.024003 4:-0.621125 5:-0.558751 6:-1.031218 7:-0.46431 8:1.331632 9:-0.21699 10:0.1812 11:0.232687 12:0.543824 13:-0.603192 14:-0.114141 15:-0.255044 16:-0.156021 17:0.115843 18:0.164995 19:0.187198 20:0.400416 21:-0.076138 22:-0.362654 23:-0.782288 24:-0.023519 25:0.675078 26:0.321546 27:-0.827517 28:-0.289758 29:0.389183 30:-0.293144 
-0.1529219674748759 1:5.818712 2:0.027631 3:-0.697168 4:-0.241589 5:-0.576165 6:-1.481694 7:1.322049 8:0.701774 9:0.405451 10:-0.718086 11:0.455388 12:0.720809 13:0.046649 14:-0.197803 15:0.110652 16:-0.010114 17:0.79427 18:0.128569 19:-0.493649 20:0.052692 21:0.44059 22:0.174448 23:0.126806 24:0.184319 25:-0.071682 26:-0.61572 27:0.114795 28:-0.282252 29:-0.040879 30:-0.412362 
-1.585540390071517 1:5.829323 2:0.035484 3:0.662095 4:-0.285567 5:0.445565 6:-1.52755 7:1.297778 8:-0.658071 9:0.351753 10:-0.751914 11:0.463297 12:-0.755041 13:-0.080319 14:0.133593 15:-0.083931 16:0.683728 17:-0.234546 18:0.21759 19:-0.526919 20:-0.047847 21:-0.384157 22:0.102924 23:-0.283175 24:0.168378 25:-0.141372 26:-0.623876 27:-0.135579 28:0.301558 29:-0.048654 30:0.391283 
-2.29316128703187 1:6.098351 2:-0.877897 3:0.279186 4:0.208643 5:-0.777269 6:-0.905779 7:-0.73171 8:-0.880197 9:0.278359 10:-0.034545 11:0.38505 12:-0.084964 13:-0.312625 14:0.253491 15:-0.294678 16:0.268021 17:-0.411179 18:0.097609 19:0.200118 20:0.010352 21:0.01533 22:-0.173896 23:-0.44726 24:-0.560061 25:-0.562851 26:-0.013282 27:-0.116997 28:0.039852 29:0.084081 30:-0.239459 
-0.4500525661764714 1:6.237714 2:-0.778546 3:0.469469 4:0.207851 5:-0.745801 6:-0.241901 7:-0.667109 8:0.288246 9:0.118124 10:-0.501627 11:-0.11843 12:-0.118832 13:-0.271964 14:-0.812345 15:-0.11399 16:0.032479 17:-0.309205 18:0.16106 19:0.105838 20:0.093871 21:-0.213634 22:0.15749 23:-0.138371 24:0.710544 25:-0.173878 26:0.082002 27:-0.197821 28:0.265008 29:0.131984 30:-0.065898 
-1.690143118237712 1:6.248447 2:-0.768706 3:-0.456473 4:0.136625 5:0.73655 6:-0.304307 7:-0.666332 8:-0.29874 9:0.099163 10:-0.516192 11:-0.131636 12:0.143652 13:-0.217048 14:0.808554 15:0.145769 16:-0.250499 17:0.195819 18:0.103686 19:0.152056 20:-0.091485 21:0.265618 22:0.125751 23:0.013207 24:0.745828 25:0.151382 26:0.025209 27:0.232841 28:-0.256623 29:0.183852 30:0.023008 
-1.423332135658812 1:5.773387 2:-0.633554 3:0.460947 4:0.53844 5:0.434545 6:-0.988748 7:0.068575 8:-0.014848 9:0.196192 10:0.101115 11:0.607242 12:0.469752 13:-0.432425 14:-0.328894 15:-0.639784 16:0.731823 17:-0.024206 18:-0.126455 19:0.251715 20:0.239229 21:-0.029289 22:0.535929 23:-0.585282 24:-0.328011 25:-0.381273 26:-0.573463 27:0.088995 28:-0.177798 29:0.121115 30:0.355843 
-1.219108640480001 1:5.773338 2:-0.485124 3:0.587275 4:-0.091927 5:0.928358 6:-0.495434 7:-0.794492 8:0.045793 9:-0.443027 10:-0.237491 11:-0.380823 12:0.635645 13:-0.425346 14:0.145039 15:-0.562807 16:-0.041066 17:-0.144359 18:0.396454 19:-0.488043 20:-0.981263 21:0.099315 22:-0.442753 23:0.058847 24:0.189966 25:-0.583947 26:-0.393469 27:0.867278 28:0.245503 29:0.214737 30:-0.371392 
-1.081113333103008 1:5.746103 2:-0.541802 3:-0.595779 4:-0.019391 5:-0.988498 6:-0.449373 7:-0.837765 8:-0.022254 9:-0.438241 10:-0.257776 11:-0.383706 12:-0.55479 13:-0.521525 14:-0.140733 15:0.569993 16:-0.155054 17:0.129247 18:0.308012 19:-0.436202 20:0.973331 21:-0.264152 22:-0.471187 23:0.299231 24:0.25053 25:0.490121 26:-0.444939 27:-0.942136 28:-0.217186 29:0.271483 30:0.364158 
-0.6303404404974235 1:6.030193 2:0.743374 3:1.222266 4:-0.437775 5:0.130577 6:-1.05562 7:-1.135866 8:-0.492708 9:0.155178 10:-0.245133 11:-0.202156 12:0.353985 13:-0.085463 14:-0.077054 15:0.592084 16:0.18892 17:-0.042604 18:0.093865 19:-0.276996 20:-0.206132 21:0.598112 22:0.194417 23:-0.168558 24:0.285223 25:-0.357499 26:0.04344 27:0.365412 28:-0.36095 29:-0.059489 30:-0.034613 
-0.5864102194431281 1:6.033171 2:0.703133 3:-1.20733 4:-0.405028 5:-0.288964 6:-1.031274 7:-1.171544 8:0.465151 9:0.17866 10:-0.24888 11:-0.204967 12:-0.347651 13:-0.132877 14:0.053636 15:-0.58401 16:-0.019251 17:0.259615 18:0.102077 19:-0.275573 20:0.193471 21:-0.514381 22:0.363227 23:-0.042047 24:0.278876 25:0.320629 26:-0.036886 27:-0.38722 28:0.344904 29:-0.10295 30:0.043205 
-2.355136173236842 1:5.815924 2:0.713567 3:-1.552404 4:1.018719 5:0.081061 6:-0.862838 7:0.30613 8:-0.22359 9:-0.135824 10:-0.129852 11:-0.889142 12:-0.644184 13:0.44391 14:-0.226587 15:-0.007847 16:-0.324945 17:0.41856 18:-0.425194 19:0.588367 20:-0.472073 21:0.382308 22:0.214909 23:-0.229076 24:0.155479 25:-0.475932 26:0.606298 27:-0.187422 28:0.002658 29:0.087143 30:0.175568 
-3.042968941261587 1:5.823034 2:0.708465 3:1.53075 4:1.031321 5:-0.105258 6:-0.878726 7:0.325468 8:0.264112 9:-0.109527 10:-0.145283 11:-0.923291 12:0.507363 13:0.530668 14:0.263745 15:-0.004464 16:0.326098 17:-0.550538 18:-0.294026 19:0.540024 20:0.46057 21:-0.300851 22:0.421751 23:0.056009 24:0.138837 25:0.620004 26:0.38512 27:0.21629 28:0.002266 29:0.061784 30:-0.172337 
-1.543237454781061 1:5.09987 2:-0.778883 3:-0.142121 4:-0.352556 5:-1.120821 6:-1.181691 7:-0.235321 8:0.381439 9:0.154574 10:0.073162 11:0.316935 12:-0.646229 13:0.235763 14:0.249111 15:-1.125929 16:0.428699 17:-0.313133 18:-0.268601 19:0.373113 20:-0.253265 21:0.003744 22:1.242173 23:-0.011309 24:0.409167 25:-0.362646 26:-0.058492 27:0.655873 28:0.584662 29:0.492625 30:0.411111 
-0.6690439301684212 1:5.105023 2:-0.768549 3:0.14866 4:-0.412107 5:0.998828 6:-1.262378 7:-0.205075 8:-0.380737 9:0.134644 10:0.080585 11:0.274281 12:0.56745 13:0.336353 14:-0.260904 15:1.111054 16:-0.014827 17:0.490958 18:-0.441383 19:0.464162 20:0.29256 21:0.247466 22:0.869928 23:-0.774496 24:0.394915 25:0.312415 26:-0.147766 27:-0.734386 28:-0.561822 29:0.434288 30:-0.421594 
-0.3238408412972903 1:4.849377 2:0.886982 3:0.661982 4:0.113345 5:-0.490945 6:-1.840065 7:-0.048441 8:1.044096 9:1.121208 10:-0.157752 11:-0.557889 12:-0.159313 13:0.428707 14:0.456003 15:0.085073 16:-0.609492 17:-1.184092 18:-0.434369 19:0.542702 20:0.737589 21:0.206804 22:0.537706 23:-0.978837 24:0.50404 25:0.249728 26:0.553437 27:-0.272664 28:-0.137617 29:-0.75668 30:0.350675 
-0.07240390890821986 1:4.835968 2:0.918266 3:-0.682015 4:0.087105 5:0.342519 6:-1.872787 7:0.000833 8:-1.101616 9:1.034801 10:-0.164393 11:-0.541898 12:0.085518 13:0.460602 14:-0.427588 15:-0.03469 16:-1.289955 17:-0.150429 18:-0.544199 19:0.560258 20:-0.785336 21:-0.032574 22:1.090578 23:0.374464 24:0.547366 25:-0.033938 26:0.593238 27:0.305421 28:0.079489 29:-0.717107 30:-0.265929 
-2.062412794031597 1:6.219354 2:0.488856 3:-0.353121 4:0.057936 5:0.202278 6:-0.569162 7:-0.374156 8:0.116238 9:-0.176285 10:-0.207015 11:0.019959 12:-0.286517 13:1.166962 14:-0.15529 15:-0.11834 16:-0.404472 17:-0.063454 18:0.198219 19:0.194951 20:-0.117153 21:-0.076495 22:0.038131 23:0.150058 24:0.306345 25:0.077039 26:-0.183608 27:0.16219 28:-0.322817 29:-0.215502 30:-0.266262 
-2.215316759331649 1:6.21631 2:0.466257 3:0.356129 4:0.093557 5:-0.248765 6:-0.555502 7:-0.36358 8:-0.120448 9:-0.197284 10:-0.24253 11:-0.006694 12:0.073517 13:1.194304 14:0.125755 15:0.157647 16:-0.221858 17:-0.29897 18:0.236071 19:0.185499 20:0.144065 21:0.094396 22:-0.10699 23:-0.161248 24:0.332729 25:-0.126277 26:-0.112458 27:-0.151711 28:0.301264 29:-0.224711 30:0.253513 
-0.9622824997368005 1:5.923841 2:0.169346 3:-0.621276 4:0.033008 5:-0.047046 6:-0.469756 7:-0.492069 8:0.039348 9:-0.419008 10:-0.165902 11:0.41946 12:0.75436 13:-0.22308 14:-0.429045 15:0.345653 16:-0.346556 17:-0.152475 18:-0.573613 19:0.049767 20:-0.113427 21:-0.03062 22:0.073559 23:0.754625 24:-0.589598 25:-0.682501 26:0.349139 27:0.200194 28:0.418838 29:0.055188 30:0.24689 
-1.269505454218635 1:5.922899 2:0.14411 3:0.625027 4:0.052787 5:0.012426 6:-0.50721 7:-0.496826 8:-0.031553 9:-0.399648 10:-0.177297 11:0.429313 12:-0.656056 13:-0.365971 14:0.475163 15:-0.345817 16:-0.211065 17:-0.360612 18:-0.564802 19:0.097755 20:0.11731 21:0.020023 22:-0.489968 23:-0.590236 24:-0.562142 25:0.728796 26:0.106888 27:-0.201997 28:-0.441888 29:0.053065 30:-0.241843 
-5.237983024773745 1:6.059419 2:-0.010889 3:-0.323643 4:-0.203705 5:-0.33679 6:-0.776888 7:0.271112 8:-0.090721 9:-0.069822 10:0.356499 11:0.263103 12:0.289894 13:0.538799 14:0.331116 15:0.142535 16:-0.209718 17:-0.412316 18:-0.125654 19:0.125338 20:0.11913 21:0.221759 22:0.614017 23:-0.14223 24:-0.637472 25:-0.261834 26:0.180165 27:0.194275 28:-0.191005 29:0.163659 30:0.107102 
-2.81515854216291 1:6.058312 2:-0.026615 3:0.326576 4:-0.210531 5:0.252408 6:-0.813436 7:0.252251 8:0.133173 9:-0.060695 10:0.342426 11:0.251744 12:-0.40861 13:0.485975 14:-0.322699 15:-0.091386 16:-0.442658 17:-0.022384 18:-0.18359 19:0.155345 20:-0.135849 21:-0.156974 22:0.537945 23:-0.295702 24:-0.612494 25:0.328917 26:0.112359 27:-0.203679 28:0.200011 29:0.16131 30:-0.106954 
-8 1:6.271963 2:0.503373 3:0.484534 4:0.158132 5:-0.088259 6:-0.907634 7:-0.22923 8:0.062571 9:-0.341036 10:0.143946 11:0.218375 12:0.016159 13:0.210446 14:-0.383185 15:-0.288751 16:-0.065459 17:0.046711 18:0.080895 19:-0.20281 20:-0.280243 21:0.18968 22:-0.115432 23:0.110149 24:0.063606 25:0.182243 26:-0.451622 27:0.375457 28:0.116053 29:0.283423 30:0.044343 
-8 1:6.278166 2:0.490894 3:-0.487254 4:0.149989 5:0.004106 6:-0.933423 7:-0.250984 8:-0.032952 9:-0.343891 10:0.13952 11:0.212855 12:-0.051693 13:0.208293 14:0.357814 15:0.313497 16:0.040184 17:-0.027154 18:0.057479 19:-0.175961 20:0.275789 21:-0.239739 22:-0.155019 23:-0.029638 24:0.092905 25:-0.310749 26:-0.324209 27:-0.371449 28:-0.092722 29:0.242406 30:-0.077409 
-0.2369127070493001 1:5.605483 2:0.23171 3:0.605933 4:0.726134 5:-0.937368 6:-0.452017 7:-0.873384 8:1.492818 9:0.262776 10:-0.554688 11:0.229965 12:-0.599071 13:0.832982 14:0.111314 15:-0.13657 16:-0.315717 17:0.097103 18:0.164649 19:-0.026256 20:0.087434 21:0.31013 22:0.150583 23:0.191995 24:0.187894 25:0.390898 26:-0.878972 27:-0.004789 28:0.112278 29:-0.164355 30:0.520146 
-0.3522337018016733 1:5.618804 2:0.250743 3:-0.585778 4:0.677581 5:0.932522 6:-0.536557 7:-0.827816 8:-1.518566 9:0.125401 10:-0.589382 11:0.187068 12:0.427821 13:0.91549 14:-0.146118 15:0.195974 16:-0.055936 17:-0.240876 18:0.187746 19:-0.02054 20:-0.068714 21:-0.24609 22:0.038986 23:-0.270943 24:0.164239 25:-0.702356 26:-0.714742 27:-0.021135 28:-0.08657 29:-0.233381 30:-0.50336 
-1.551401310085909 1:5.881993 2:-1.039888 3:-0.377793 4:-0.589346 5:0.470149 6:-0.983832 7:-0.494827 8:-0.769541 9:0.074084 10:-0.208154 11:-0.460716 12:-0.997608 13:-0.042219 14:-0.087777 15:0.374295 16:-0.045695 17:0.132196 18:0.055449 19:0.137932 20:-0.085508 21:0.223145 22:-0.468813 23:0.268112 24:-0.153317 25:0.013762 26:0.041672 27:-0.539594 28:-0.34995 29:0.398271 30:0.672398 
-1.9416446824117 1:5.879312 2:-1.052696 3:0.406075 4:-0.554853 5:-0.599577 6:-0.953787 7:-0.474495 8:0.782931 9:0.16414 10:-0.202943 11:-0.477386 12:0.986485 13:0.125961 14:0.077042 15:-0.369276 16:0.070549 17:-0.098619 18:0.127977 19:0.094218 20:0.117733 21:-0.335585 22:-0.41735 23:0.093053 24:-0.163539 25:0.002508 26:-0.0011 27:0.525407 28:0.376653 29:0.31865 30:-0.696384 
-2.597642508699283 1:5.828626 2:-0.780115 3:-0.176584 4:0.256304 5:1.235155 6:-0.50722 7:-0.442287 8:0.318136 9:-0.491281 10:-0.102627 11:-0.290449 12:-0.122161 13:-0.3404 14:-0.067561 15:0.238296 16:-0.198768 17:-0.190645 18:0.552345 19:0.238808 20:-0.016405 21:0.504258 22:0.479431 23:-0.33425 24:0.588946 25:0.092221 26:0.125487 27:0.069027 28:-0.452855 29:0.374612 30:0.116694 
-2.251976757227604 1:5.843093 2:-0.7975 3:0.191508 4:0.34694 5:-1.220312 6:-0.400164 7:-0.40115 8:-0.292153 9:-0.520153 10:-0.11847 11:-0.283192 12:0.117096 13:-0.309329 14:0.086883 15:-0.182039 16:-0.317342 17:-0.042755 18:0.518851 19:0.217469 20:-0.021901 21:-0.437135 22:0.692987 23:-0.060697 24:0.556307 25:-0.042186 26:0.144703 27:-0.108528 28:0.45875 29:0.30796 30:-0.139864 
-1.940125592130118 1:5.624221 2:2.115028 3:0.149899 4:0.794488 5:-0.320659 6:-0.326859 7:-0.116493 8:-0.331875 9:-0.33523 10:1.22506 11:-0.417842 12:0.107337 13:0.473589 14:-0.080477 15:-0.227103 16:0.598172 17:0.355637 18:0.03476 19:0.236751 20:-0.332445 21:0.124125 22:-0.209693 23:0.041073 24:-0.018035 25:0.388128 26:0.445109 27:0.351829 28:-0.051131 29:-0.056878 30:0.140754 
-0.1277922436653566 1:5.763137 2:-0.480792 3:-0.190502 4:0.868609 5:0.081212 6:-0.132993 7:0.228103 8:0.004024 9:-0.151844 10:-0.525305 11:-0.085877 12:-0.363196 13:-1.04445 14:0.640469 15:-0.487287 16:-0.082778 17:-0.112213 18:-0.441152 19:-0.431386 20:0.057828 21:1.193359 22:0.051317 23:-0.699354 24:0.389281 25:0.282149 26:0.450553 27:-0.163781 28:-0.414832 29:-0.261931 30:0.149886 
-0.5741421199292682 1:6.520278 2:-0.07481 3:-0.432276 4:0.024528 5:0.045691 6:-0.789776 7:-0.286327 8:-0.202813 9:-0.148986 10:0.513931 11:0.034124 12:-0.249347 13:0.024132 14:-0.133577 15:0.468218 16:-0.274331 17:0.172407 18:0.543325 19:-0.604387 20:0.103383 21:-0.023109 22:-0.287191 23:0.341349 24:0.131899 25:0.033378 26:-0.228013 27:-0.493199 28:-0.021361 29:0.000256 30:0.132994 
-7.834018511282662 1:6.435882 2:-0.484757 3:0.475119 4:0.88079 5:-0.079253 6:-0.696596 7:0.251237 8:0.055456 9:-0.418001 10:-0.124516 11:0.202536 12:-0.138756 13:1.020735 14:-0.113804 15:-0.153999 16:0.142966 17:0.046248 18:0.092791 19:-0.349272 20:0.07967 21:0.119639 22:-0.070635 23:-0.189101 24:-0.069864 25:-0.005091 26:-0.047321 27:0.209466 28:-0.056308 29:0.227692 30:-0.136649 
-5.841001420482248 1:5.767663 2:-0.9834 3:-0.692019 4:0.689139 5:0.231904 6:-1.29947 7:-0.115431 8:-0.120691 9:0.04546 10:0.340698 11:-0.132229 12:-0.2073 13:0.185509 14:0.132727 15:0.584126 16:0.212793 17:0.606802 18:-0.210626 19:0.131913 20:0.137668 21:-0.084643 22:0.127566 23:0.137313 24:-0.273988 25:-0.45709 26:-0.10002 27:0.378752 28:0.087065 29:-0.196222 30:-0.034812 
-5.037045684921027 1:5.761461 2:-0.999117 3:0.671847 4:0.690619 5:-0.285806 6:-1.272202 7:-0.092194 8:0.149801 9:0.054459 10:0.35915 11:-0.131097 12:0.179104 13:0.19898 14:-0.170225 15:-0.615348 16:0.59243 17:-0.069695 18:-0.107235 19:0.090594 20:-0.127236 21:0.107751 22:0.049614 23:-0.194461 24:-0.349956 25:0.418076 26:-0.2672 27:-0.357657 28:-0.077278 29:-0.224906 30:0.034682 
-1.339288162298944 1:5.493055 2:-1.379004 3:0.256958 4:0.948402 5:-0.544134 6:-0.107867 7:-0.662816 8:-0.184785 9:-0.119373 10:-0.110777 11:-0.045453 12:-0.466129 13:-0.901632 14:-0.377479 15:0.006301 16:-1.015113 17:0.405971 18:-0.101117 19:0.369745 20:0.581039 21:-0.634878 22:0.320548 23:-0.18803 24:-0.433897 25:0.253242 26:0.203442 27:-0.482011 28:0.353196 29:0.281591 30:-0.348982 
-1.246257512416341 1:5.489078 2:-1.365795 3:-0.240946 4:0.923442 5:0.611404 6:-0.141954 7:-0.69638 8:0.184226 9:-0.087106 10:-0.105536 11:-0.051624 12:0.615261 13:-0.788084 14:0.407281 15:0.080039 16:-0.036815 17:-1.087833 18:0.088335 19:0.30059 20:-0.574303 21:0.668941 22:0.296258 23:-0.0181 24:-0.436105 25:-0.193272 26:0.206899 27:0.438028 28:-0.353247 29:0.369235 30:0.37816 
-0.3020979120606209 1:5.770623 2:-0.958924 3:-0.557238 4:0.638104 5:0.380865 6:-1.448749 7:-0.025488 8:-0.068806 9:-0.027548 10:0.429634 11:-0.072773 12:-0.15191 13:0.263787 14:0.252631 15:0.429401 16:0.204353 17:0.394088 18:0.082864 19:0.027375 20:-0.000206 21:0.001485 22:0.463102 23:0.007753 24:-0.57826 25:-0.416445 26:-0.244429 27:0.217996 28:-0.017222 29:-0.284581 30:-0.178208 
-0.7357362846973416 1:5.769935 2:-0.962628 3:0.530585 4:0.657396 5:-0.431969 6:-1.400673 7:0.002049 8:0.098526 9:-0.022775 10:0.436398 11:-0.057891 12:0.105231 13:0.291723 14:-0.295772 15:-0.442786 16:0.360532 17:0.09097 18:0.125661 19:-6.6e-05 20:-0.008472 21:0.08078 22:0.370095 23:-0.329929 24:-0.607784 25:0.331506 26:-0.409658 27:-0.226446 28:0.029103 29:-0.311495 30:0.206482 
-8 1:5.770623 2:-0.958924 3:-0.557238 4:0.638104 5:0.380865 6:-1.448749 7:-0.025488 8:-0.068806 9:-0.027548 10:0.429634 11:-0.072773 12:-0.15191 13:0.263787 14:0.252631 15:0.429401 16:0.204353 17:0.394088 18:0.082864 19:0.027375 20:-0.000206 21:0.001485 22:0.463102 23:0.007753 24:-0.57826 25:-0.416445 26:-0.244429 27:0.217996 28:-0.017222 29:-0.284581 30:-0.178208 
-7.918491898932112 1:5.769935 2:-0.962628 3:0.530585 4:0.657396 5:-0.431969 6:-1.400673 7:0.002049 8:0.098526 9:-0.022775 10:0.436398 11:-0.057891 12:0.105231 13:0.291723 14:-0.295772 15:-0.442786 16:0.360532 17:0.09097 18:0.125661 19:-6.6e-05 20:-0.008472 21:0.08078 22:0.370095 23:-0.329929 24:-0.607784 25:0.331506 26:-0.409658 27:-0.226446 28:0.029103 29:-0.311495 30:0.206482 
-1.436596718562027 1:5.542485 2:0.448255 3:-0.679592 4:1.269773 5:-0.591093 6:-0.4646 7:-1.211074 8:0.299028 9:-0.087598 10:0.358026 11:-0.722445 12:0.481278 13:-0.069077 14:0.345555 15:-0.944525 16:0.793598 17:0.153502 18:0.814839 19:0.040137 20:0.09376 21:-0.16895 22:0.16303 23:0.46748 24:0.30414 25:0.849198 26:0.450818 27:-0.170045 28:-0.316799 29:0.391297 30:-0.028832 
-1.261486442641113 1:5.555362 2:0.502299 3:0.684239 4:1.229762 5:0.584118 6:-0.457682 7:-1.205307 8:-0.309867 9:-0.132924 10:0.404395 11:-0.695313 12:-0.477726 13:-0.140058 14:-0.394774 15:0.917116 16:0.424625 17:0.759717 18:0.710467 19:0.121837 20:-0.082291 21:0.157483 22:-0.21713 23:-0.508463 24:0.3011 25:-0.667788 26:0.700224 27:0.247138 28:0.313397 29:0.339078 30:-0.06703 
-0.9958535839076099 1:5.860685 2:0.886557 3:0.251808 4:-0.131364 5:-0.049114 6:-1.154973 7:0.443035 8:-1.136544 9:-0.203316 10:0.704596 11:0.167084 12:0.226582 13:0.709339 14:0.084415 15:-0.061997 16:-0.499888 17:-0.747091 18:0.104674 19:0.128743 20:-0.082266 21:0.219308 22:-0.057436 23:0.072039 24:0.556111 25:-0.570649 26:0.246357 27:0.241017 28:0.146421 29:-0.020415 30:-0.00763 
-0.261021218618988 1:5.860927 2:0.881189 3:-0.271317 4:-0.152548 5:-0.045228 6:-1.132173 7:0.409345 8:1.168984 9:-0.131294 10:0.71268 11:0.184298 12:-0.348923 13:0.660644 14:-0.090003 15:0.131099 16:-0.848329 17:-0.155717 18:0.041972 19:0.164881 20:0.065145 21:-0.287993 22:-0.060429 23:-0.050321 24:0.576328 25:0.626357 26:0.05261 27:-0.251647 28:-0.152527 29:-0.012013 30:0.005365 
-1.703899453298567 1:6.12296 2:0.920719 3:0.050344 4:0.740129 5:-0.001228 6:-0.310358 7:-0.210874 8:0.005026 9:-0.177922 10:0.895527 11:-0.385224 12:0.259158 13:-0.396221 14:0.069597 15:-0.075298 16:0.733164 17:0.397709 18:0.046161 19:-0.07408 20:-0.122787 21:0.063241 22:-0.007529 23:0.087169 24:-0.15662 25:0.097528 26:0.540108 27:-0.036032 28:-0.138218 29:-0.04637 30:-0.059415 
-0.06179474874751397 1:6.126749 2:0.917663 3:-0.06386 4:0.734726 5:0.018151 6:-0.295554 7:-0.220516 8:-0.00755 9:-0.180431 10:0.902028 11:-0.406027 12:-0.163755 13:-0.436738 14:-0.074463 15:0.002607 16:0.66568 17:0.52028 18:0.04196 19:-0.065277 20:0.153343 21:-0.050943 22:-0.060493 23:-0.071305 24:-0.126765 25:0.074587 26:0.562391 27:0.080122 28:0.098481 29:-0.030553 30:0.066548 
-3.589376748468956 1:5.696783 2:0.265551 3:0.289935 4:0.390689 5:0.346399 6:-1.578788 7:0.109103 8:0.253946 9:0.315662 10:0.192725 11:0.278142 12:-0.312881 13:0.034479 14:0.038066 15:-0.122948 16:-0.494591 17:0.336664 18:-0.236476 19:0.144956 20:0.064457 21:-0.322071 22:-1.040124 23:0.551721 24:-0.019858 25:-0.117785 26:-0.329073 27:-0.19691 28:-0.194923 29:-0.681696 30:0.189912 
-0.1314537566363836 1:5.849425 2:0.509412 3:-0.279853 4:-0.435995 5:-0.38188 6:-1.47277 7:-0.359523 8:-0.434265 9:0.334882 10:0.261016 11:-0.00598 12:0.020108 13:0.343322 14:-0.260778 15:0.287016 16:0.204706 17:0.177755 18:0.246404 19:-0.609784 20:-0.179601 21:-0.441365 22:-0.537322 23:0.451907 24:0.058519 25:-0.118172 26:-0.31934 27:0.247303 28:0.182123 29:-0.327821 30:-0.051936 
-2.449334901135679 1:6.248751 2:0.19276 3:-1.126158 4:0.576424 5:-0.347694 6:-0.508276 7:-0.313291 8:-0.443685 9:-0.239744 10:-0.461004 11:-0.380463 12:0.115592 13:-0.4925 14:-0.213671 15:-0.613002 16:0.107032 17:0.449463 18:-0.467944 19:0.010845 20:-0.058328 21:0.1482 22:0.07934 23:-0.155295 24:0.279112 25:0.246926 26:0.002454 27:-0.040773 28:0.176318 29:-0.456676 30:-0.219062 
-0.3047402166741869 1:5.22005 2:1.884704 3:-0.007161 4:1.692824 5:-0.268659 6:-0.297587 7:-0.388281 8:0.296331 9:-0.156042 10:0.812536 11:-0.51118 12:0.096222 13:0.141191 14:-0.267173 15:-0.080706 16:0.796056 17:0.482077 18:0.168756 19:0.280612 20:0.127119 21:-0.62098 22:-1.106249 23:0.224315 24:0.024914 25:0.27293 26:0.54483 27:0.335454 28:0.074488 29:-0.334625 30:0.169362 
-3.925374528757942 1:6.196268 2:0.973028 3:-0.615966 4:0.273854 5:-0.154097 6:-1.064721 7:-0.253277 8:-0.334861 9:-0.181209 10:-0.115017 11:-0.120859 12:0.349476 13:-0.608131 14:0.166342 15:0.343794 16:0.025534 17:-0.437165 18:0.296127 19:-0.649332 20:-0.280462 21:0.254927 22:-0.892962 23:0.516715 24:0.092009 25:0.014763 26:0.300461 27:-0.065859 28:0.123535 29:-0.130102 30:-0.119165 
-2.223833339234846 1:6.289315 2:-0.064842 3:-0.20772 4:0.082897 5:0.407449 6:-0.344643 7:0.080457 8:0.380696 9:-0.259044 10:-0.328717 11:0.523101 12:0.251055 13:0.418897 14:0.091342 15:0.149077 16:0.135815 17:-0.387205 18:0.412081 19:0.042421 20:0.265615 21:-0.053944 22:0.014536 23:-0.262874 24:0.297337 25:-0.577691 26:0.47614 27:0.11696 28:0.403602 29:-0.093614 30:-0.234052 
-2.525234756774737 1:6.289913 2:-0.068213 3:0.20851 4:0.11916 5:-0.426729 6:-0.332695 7:0.093338 8:-0.354904 9:-0.303601 10:-0.324408 11:0.528483 12:-0.307234 13:0.385242 14:-0.105287 15:-0.134359 16:-0.320413 17:0.335842 18:0.349153 19:0.067903 20:-0.26263 21:0.05071 22:0.145293 23:0.181953 24:0.298003 25:0.727519 26:0.248655 27:-0.096973 28:-0.436859 29:-0.048215 30:0.214114 
-0.9283768465829446 1:6.235068 2:0.764884 3:0.986798 4:0.54443 5:0.516291 6:-1.028302 7:0.442504 8:0.72804 9:-0.157539 10:0.414017 11:0.095804 12:-0.333958 13:0.554035 14:-0.510175 15:-0.419538 16:0.169885 17:0.472629 18:-0.544483 19:0.213758 20:0.371344 21:-0.142814 22:0.510584 23:-0.17199 24:0.110243 25:-0.049087 26:0.02872 27:0.130211 28:0.117045 29:-0.252868 30:-0.292361 
-3.799711601072129 1:6.119247 2:0.054373 3:0.058273 4:-0.169582 5:-0.257329 6:-0.844688 7:-0.901954 8:-0.224112 9:0.381813 10:-0.207617 11:0.333097 12:-0.528573 13:-0.484476 14:-0.040268 15:0.241469 16:0.391992 17:0.3221 18:-0.036028 19:-0.150236 20:-0.220307 21:0.081482 22:0.346499 23:0.091427 24:-0.13252 25:-0.091137 26:-0.289503 27:-0.011828 28:-0.338231 29:-0.333929 30:0.336624 
-2.989279407832063 1:6.11372 2:0.074437 3:-0.042155 4:-0.184268 5:0.201003 6:-0.869089 7:-0.859799 8:0.163915 9:0.403975 10:-0.196865 11:0.325917 12:0.654855 13:-0.378411 14:0.039765 15:-0.24973 16:0.383701 17:0.283324 18:-0.002575 19:-0.164242 20:0.20456 21:0.033998 22:0.223382 23:-0.312211 24:-0.160858 25:-0.028906 26:-0.293444 27:-0.011399 28:0.334395 29:-0.377338 30:-0.309407 
-0.643391449742019 1:5.606126 2:1.14962 3:0.250093 4:-0.412251 5:-0.733908 6:-1.286101 7:0.433862 8:0.49989 9:0.514282 10:1.066052 11:-0.788887 12:0.06991 13:0.779586 14:0.949816 15:-0.273129 16:-0.926764 17:-0.708651 18:-0.677156 19:0.693873 20:0.162701 21:-0.285546 22:-0.133202 23:0.090721 24:-0.205246 25:0.117313 26:0.148439 27:0.00093 28:-0.49434 29:-0.167369 30:0.313038 
-0.9614477872256358 1:5.615836 2:1.17159 3:-0.280718 4:-0.455099 5:0.608597 6:-1.321735 7:0.42569 8:-0.531879 9:0.456321 10:1.068044 11:-0.8112 12:-0.189102 13:0.724866 14:-0.902621 15:0.293833 16:-0.934451 17:-0.711732 18:-0.685028 19:0.696533 20:-0.150549 21:0.234329 22:-0.177715 23:0.088244 24:-0.178803 25:-0.063348 26:0.209196 27:0.006425 28:0.478625 29:-0.196174 30:-0.290006 
-0.4106760600930328 1:5.816405 2:-0.243897 3:-0.2775 4:0.2349 5:0.538914 6:-0.981636 7:-0.032916 8:0.203493 9:0.073176 10:0.175295 11:0.151587 12:-0.271187 13:0.063106 14:0.06737 15:0.178541 16:0.391169 17:-0.096716 18:-0.117846 19:-0.166464 20:-0.653754 21:0.212142 22:0.258009 23:-0.171598 24:-0.345236 25:0.625967 26:-0.768699 27:0.128538 28:0.139129 29:0.306435 30:0.455031 
-0.09969162710235381 1:5.807158 2:-0.227394 3:0.292514 4:0.28654 5:-0.566128 6:-0.985978 7:0.016738 8:-0.204724 9:0.086634 10:0.162365 11:0.179096 12:0.215966 13:0.102847 14:-0.088324 15:-0.150287 16:0.033336 17:0.399936 18:-0.192284 19:-0.155783 20:0.68954 21:-0.121556 22:0.336109 23:-0.034135 24:-0.379995 25:-0.877787 26:-0.485192 27:-0.165322 28:-0.110379 29:0.258877 30:-0.421653 
-4.973209622202298 1:6.217485 2:0.054768 3:-0.53861 4:0.172133 5:0.270461 6:-0.92078 7:0.26474 8:-0.0739 9:0.07066 10:-0.175742 11:-0.104065 12:0.090361 13:-0.362599 14:-0.475855 15:-0.443884 16:-0.145726 17:0.444009 18:-0.205365 19:-0.314898 20:-0.188995 21:0.027827 22:0.005102 23:0.422554 24:0.093988 25:-0.157737 26:-0.044487 27:-0.07163 28:-0.328467 29:-0.63262 30:-0.221506 
-4.037003755651789 1:6.251257 2:-0.151795 3:0.145431 4:0.157255 5:0.022461 6:-0.201748 7:0.050609 8:-0.064893 9:-0.385302 10:0.298831 11:-0.277233 12:-0.148922 13:-0.302833 14:-0.065723 15:0.193242 16:-0.196069 17:-0.230824 18:0.14127 19:0.193643 20:0.174831 21:0.324737 22:0.060824 23:-0.157569 24:0.232022 25:0.01839 26:0.001627 27:-0.258714 28:-0.384646 29:0.083587 30:0.110517 
-6.862349257864593 1:6.247506 2:-0.160423 3:-0.154665 4:0.175966 5:-0.014492 6:-0.202639 7:0.056509 8:0.098619 9:-0.380815 10:0.302955 11:-0.293876 12:0.195328 13:-0.278082 14:0.08176 15:-0.182823 16:-0.276867 17:-0.089174 18:0.152276 19:0.202743 20:-0.151258 21:-0.2849 22:0.218988 23:0.064091 24:0.235768 25:-0.086036 26:-0.002958 27:0.231763 28:0.326922 29:0.058512 30:-0.085545 
-0.5131787435793108 1:5.969862 2:-0.494258 3:0.013489 4:0.755349 5:-0.436454 6:0.113472 7:0.637603 8:-0.130392 9:0.382225 10:-0.472012 11:0.129082 12:-0.893452 13:-0.070251 14:0.331429 15:0.663458 16:-0.142316 17:0.416098 18:0.129434 19:-0.709361 20:0.46184 21:0.471354 22:0.069843 23:-0.002328 24:0.014461 25:0.069944 26:0.30571 27:-0.127606 28:0.409567 29:-0.03165 30:-0.306332 
-1.449832100061928 1:5.967208 2:-0.514633 3:-0.023131 4:0.74701 5:0.530494 6:0.041484 7:0.640693 8:0.115842 9:0.407753 10:-0.500434 11:0.077237 12:0.845893 13:0.086374 14:-0.335851 15:-0.614623 16:0.253541 17:-0.249384 18:0.173755 19:-0.741581 20:-0.463243 21:-0.422803 22:0.11942 23:-0.129413 24:0.025869 25:0.009983 26:0.290567 27:0.14684 28:-0.393183 29:0.060977 30:0.284596 
-0.08943794432249451 1:6.007703 2:1.441579 3:-0.337836 4:0.446141 5:-0.444688 6:-0.79766 7:-0.409288 8:-0.704634 9:-0.166566 10:0.756592 11:0.038109 12:0.075568 13:0.812693 14:0.549441 15:0.509084 16:0.04258 17:-0.232388 18:0.211049 19:0.202814 20:-0.461824 21:0.293468 22:0.346216 23:-0.263571 24:0.237039 25:-0.095445 26:-0.286509 27:0.180774 28:0.077939 29:-0.212994 30:0.278016 
-0.4627769588250027 1:5.736464 2:-0.091872 3:-0.30174 4:0.987933 5:-0.531775 6:-0.470139 7:-0.867323 8:0.325217 9:-0.498895 10:0.045725 11:-0.034612 12:-1.146113 13:0.716598 14:-0.074396 15:-0.795302 16:-0.558308 17:0.606503 18:-0.096333 19:-0.511962 20:-0.259753 21:-0.059129 22:0.180888 23:0.676915 24:0.197685 25:0.179677 26:-0.048077 27:-0.228049 28:-0.088384 29:0.05657 30:0.165622 
-0.7160874005510582 1:5.753675 2:-0.073262 3:0.313538 4:0.928352 5:0.53869 6:-0.529546 7:-0.84146 8:-0.315528 9:-0.517343 10:0.034407 11:-0.067572 12:0.994965 13:0.885394 14:0.041374 15:0.801013 16:0.344822 17:-0.695347 18:0.016833 19:-0.527033 20:0.282594 21:0.04277 22:-0.321885 23:-0.654571 24:0.178254 25:-0.195843 26:0.023619 27:0.225224 28:0.077598 29:0.038129 30:-0.180122 
-0.4676652681107241 1:6.428374 2:-1.502954 3:0.093486 4:0.28517 5:-0.180118 6:-0.071842 7:0.602317 8:-0.374922 9:0.187216 10:-0.144255 11:-0.084335 12:-0.497493 13:-0.069155 14:0.236821 15:-0.110932 16:-0.019123 17:0.105865 18:0.029417 19:0.212352 20:-0.004984 21:-0.0376 22:0.184677 23:0.164582 24:0.040103 25:0.259557 26:0.167634 27:0.245912 28:0.058708 29:-0.07731 30:0.164275 
-0.04896116027597752 1:6.431653 2:-1.500816 3:-0.106062 4:0.278699 5:0.219156 6:-0.081705 7:0.603758 8:0.374669 9:0.21612 10:-0.144588 11:-0.103736 12:0.482593 13:-0.002176 14:-0.234929 15:0.103519 16:0.105423 17:-0.067802 18:0.038915 19:0.200634 20:-0.010859 21:0.080896 22:0.023165 23:-0.226383 24:0.027801 25:-0.186923 26:0.253412 27:-0.211483 28:-0.05122 29:-0.089958 30:-0.146887 
-4.103534953052045 1:6.402083 2:-0.874796 3:0.143018 4:0.212314 5:0.770015 6:-0.58381 7:-0.167897 8:0.333534 9:0.443698 10:-0.641811 11:0.030439 12:-0.022216 13:0.301847 14:-0.141342 15:-0.173975 16:-0.044095 17:0.492063 18:-0.280882 19:-0.156379 20:-0.169683 21:0.251266 22:-0.401942 23:-0.096837 24:-0.529417 25:0.150638 26:0.426488 27:0.058276 28:-0.101315 29:0.196358 30:0.221402 
-4.02811114120757 1:6.408457 2:-0.874961 3:-0.146899 4:0.262236 5:-0.768825 6:-0.514027 7:-0.158158 8:-0.357657 9:0.402368 10:-0.640268 11:0.036917 12:-0.045676 13:0.309786 14:0.136778 15:0.156393 16:0.457429 17:-0.249422 18:-0.20109 19:-0.200044 20:0.185862 21:-0.269582 22:-0.151733 23:0.309544 24:-0.536645 25:-0.036128 26:0.444424 27:-0.011585 28:0.094514 29:0.152329 30:-0.229233 
-0.6645561829520357 1:5.756184 2:0.152041 3:-1.172391 4:0.061334 5:0.151434 6:-0.708708 7:-1.482494 8:0.434118 9:-0.182309 10:-0.851481 11:-0.611619 12:0.2561 13:-0.06156 14:0.102393 15:0.194907 16:0.472882 17:0.516744 18:-0.443599 19:-0.528382 20:-0.099683 21:-0.224751 22:-0.623877 23:0.106349 24:-0.418063 25:-0.182085 26:-0.451149 27:-0.189158 28:0.190481 29:-0.055581 30:-0.126734 
-0.6264770314948604 1:5.769652 2:0.174631 3:1.17813 4:0.098724 5:-0.284451 6:-0.695951 7:-1.448644 8:-0.433302 9:-0.204083 10:-0.849764 11:-0.602543 12:-0.198661 13:-0.093474 14:-0.081268 15:-0.278127 16:0.611141 17:0.197671 18:-0.394683 19:-0.570419 20:0.11415 21:0.135733 22:-0.553387 23:0.330366 24:-0.45858 25:-0.002946 26:-0.498514 27:0.159427 28:-0.172761 29:-0.057576 30:0.11151 
-1.760380103839862 1:5.992686 2:0.220543 3:0.166806 4:0.80814 5:0.609518 6:-0.372445 7:-0.409515 8:0.136898 9:0.533538 10:-0.527024 11:0.042539 12:-0.158395 13:-0.082796 14:-0.140012 15:-0.411165 16:0.247656 17:-0.439119 18:-0.225166 19:-0.070894 20:0.1494 21:-0.54827 22:0.347594 23:-0.257787 24:-0.879943 25:0.581 26:0.419417 27:0.370916 28:0.110622 29:-0.222916 30:0.226444 
-1.073174641067894 1:5.50891 2:0.450454 3:0.183898 4:-0.124839 5:-0.521664 6:-1.827774 7:-0.20129 8:-0.907691 9:-0.224881 10:-0.075755 11:-0.147039 12:0.245951 13:-0.208897 14:0.185118 15:0.538554 16:0.503764 17:-0.798852 18:0.439221 19:-0.721391 20:-0.050077 21:-0.105439 22:-0.571855 23:0.214647 24:0.366996 25:-0.553216 26:0.215035 27:0.658833 28:0.752592 29:-0.33481 30:-0.254063 
-0.3716203018875848 1:5.655509 2:-0.760436 3:-0.030278 4:0.504624 5:-1.44277 6:-0.783992 7:-0.299942 8:0.128682 9:1.23827 10:-1.104003 11:-0.837046 12:-0.028741 13:0.553443 14:-0.491366 15:0.534839 16:-0.485402 17:0.233143 18:0.115214 19:0.196316 20:0.243546 21:0.192156 22:-0.250373 23:0.182219 24:0.322112 25:-0.316246 26:-0.204161 27:0.516953 28:-0.403747 29:0.115467 30:-0.249586 
-0.2537776733615874 1:5.859365 2:-0.037622 3:0.381161 4:1.167199 5:0.935138 6:0.131402 7:0.36402 8:0.329855 9:-0.243428 10:-0.519908 11:-0.852005 12:0.238572 13:-0.37742 14:0.178903 15:0.015242 16:-0.58432 17:-0.810884 18:0.211551 19:0.652033 20:0.067658 21:0.314116 22:0.381962 23:0.516219 24:0.292977 25:-0.053366 26:-0.357868 27:-0.112061 28:0.123275 29:-0.177452 30:-0.159533 
-4.445826765437866 1:6.041533 2:0.88118 3:-0.504407 4:0.281667 5:0.354681 6:-0.957682 7:1.120082 8:0.941244 9:-0.176856 10:-0.294028 11:-0.082955 12:0.194732 13:0.19814 14:0.009418 15:0.013443 16:-0.165836 17:-0.348673 18:0.00084 19:0.236338 20:-0.375154 21:-0.108901 22:-0.192124 23:0.041046 24:0.104983 25:0.665127 26:-0.161256 27:-0.04813 28:0.292503 29:-0.26593 30:0.208693 
-3.613325254367799 1:6.046177 2:0.890161 3:0.471582 4:0.285383 5:-0.409408 6:-0.951865 7:1.14152 8:-0.87616 9:-0.267228 10:-0.270212 11:-0.063815 12:-0.268952 13:0.143095 14:-0.018957 15:-0.015842 16:-0.414324 17:-0.066313 18:-0.011507 19:0.238966 20:0.355476 21:0.059569 22:-0.126454 23:0.126314 24:0.101207 25:-0.653171 26:0.065561 27:0.035175 28:-0.284447 29:-0.278192 30:-0.164038 
-8 1:6.077116 2:-0.79987 3:0.648919 4:0.575686 5:0.035008 6:-0.799918 7:-0.437849 8:0.148207 9:-0.258515 10:-0.336526 11:-0.123312 12:0.286441 13:-0.409541 14:0.208645 15:0.123617 16:-0.265164 17:-0.061257 18:0.111447 19:-0.003428 20:-0.008486 21:-0.507074 22:-0.213459 23:0.135414 24:-0.060282 25:0.443123 26:-0.751914 27:0.013105 28:-0.132836 29:0.003769 30:0.104131 
-8 1:6.070154 2:-0.779947 3:-0.646165 4:0.591475 5:-0.081198 6:-0.798743 7:-0.453124 8:-0.13197 9:-0.269676 10:-0.326768 11:-0.092312 12:-0.222311 13:-0.462319 14:-0.201585 15:-0.113462 16:-0.190335 17:-0.202727 18:0.122983 19:0.000293 20:0.015531 21:0.393648 22:-0.321252 23:0.096544 24:-0.037914 25:-0.630432 26:-0.555779 27:-0.083703 28:0.13927 29:0.027858 30:-0.065408 
-1.632907379636559 1:5.857673 2:-0.199655 3:0.075033 4:0.314033 5:0.788288 6:-0.60091 7:-0.603199 8:-0.066293 9:0.62198 10:-0.785486 11:-0.478491 12:-0.217674 13:-0.837875 14:-0.516616 15:-0.311328 16:0.104572 17:-0.887812 18:-0.494844 19:0.281619 20:-0.47684 21:-0.713633 22:0.112878 23:0.282441 24:0.081129 25:0.084723 26:0.001889 27:-0.282728 28:0.038907 29:-0.509847 30:0.364098 
-1.289037753931757 1:5.865852 2:-0.191009 3:-0.070298 4:0.342689 5:-0.830371 6:-0.511022 7:-0.570393 8:0.018479 9:0.616974 10:-0.744103 11:-0.444113 12:0.354501 13:-0.773171 14:0.560275 15:0.284767 16:-0.750545 17:0.359005 18:-0.59795 19:0.323298 20:0.460946 21:0.73129 22:-0.205295 23:-0.180097 24:0.071396 25:-0.044581 26:0.053503 27:0.280974 28:-0.033194 29:-0.468184 30:-0.308848 
-0.4222946219577684 1:5.692571 2:0.082071 3:-0.139926 4:2.080439 5:-1.707306 6:-0.2884 7:-0.627277 8:0.082064 9:0.298946 10:0.144181 11:-1.287786 12:0.033794 13:-0.247183 14:0.090353 15:-0.078321 16:0.277992 17:0.045673 18:0.365551 19:-0.314935 20:0.193053 21:-0.242113 22:-0.265118 23:0.00971 24:-0.009819 25:0.06499 26:0.400932 27:-0.219957 28:0.148269 29:-0.041198 30:-0.340972 
-0.0507260602093379 1:5.698619 2:0.141489 3:0.116033 4:1.97043 5:1.772493 6:-0.414132 7:-0.622255 8:-0.076629 9:0.279251 10:0.138311 11:-1.30513 12:-0.021641 13:-0.255112 14:-0.077607 15:0.100707 16:0.102199 17:0.314594 18:0.347649 19:-0.287685 20:-0.213529 21:0.196581 22:-0.233987 23:0.162802 24:0.007284 25:0.042853 26:0.38079 27:0.247168 28:-0.163206 29:-0.04368 30:0.334402 
-4.447505334260902 1:6.374752 2:-0.21101 3:-0.007531 4:-0.028356 5:-0.407817 6:-0.334319 7:-0.015907 8:0.180473 9:0.051371 10:0.071391 11:-0.441091 12:-0.047462 13:-0.836302 14:0.374728 15:-0.253135 16:0.032828 17:-0.010557 18:0.011965 19:0.26847 20:0.362771 21:0.128654 22:-0.020385 23:-0.413766 24:0.124959 25:0.028503 26:0.308438 27:-0.096462 28:-0.162722 29:0.191893 30:0.123651 
-5.977521736121651 1:6.187663 2:1.403388 3:0.156828 4:0.592251 5:0.300399 6:-0.740539 7:-0.761174 8:0.208364 9:-0.487237 10:1.101503 11:-0.354427 12:-0.102718 13:0.402038 14:0.303243 15:-0.198511 16:0.496904 17:0.269494 18:0.318478 19:-0.24961 20:-0.065472 21:-0.193728 22:-0.014208 23:-0.05397 24:-0.183702 25:-0.192159 26:0.419815 27:-0.014135 28:-0.102755 29:-0.54259 30:-0.016189 
-8 1:6.572065 2:-0.199629 3:-0.215316 4:0.567803 5:-0.093552 6:-0.848509 7:0.076943 8:0.31773 9:-0.149501 10:0.072452 11:0.263117 12:0.052676 13:0.546567 14:-0.130092 15:0.035543 16:0.542393 17:0.127364 18:-0.3376 19:0.135228 20:-0.055237 21:0.255148 22:0.117448 23:0.10957 24:0.0088 25:-0.156608 26:-0.045191 27:-0.272356 28:-0.012387 29:0.076202 30:-0.060997 
-8 1:6.575817 2:-0.192778 3:0.202494 4:0.552001 5:0.067688 6:-0.858662 7:0.102205 8:-0.31192 9:-0.1761 10:0.067683 11:0.264421 12:-0.156827 13:0.508863 14:0.114042 15:-0.086446 16:0.352178 17:0.396254 18:-0.351618 19:0.164324 20:0.095158 21:-0.206443 22:0.059066 23:-0.162662 24:0.023441 25:0.128393 26:-0.11478 27:0.266085 28:0.033041 29:0.079024 30:0.062813 
-1.901591351336312 1:6.408779 2:-0.025242 3:-0.452783 4:0.218479 5:0.346919 6:-0.484501 7:-1.064216 8:-0.110002 9:-0.149851 10:0.56525 11:-0.520625 12:-0.076816 13:-0.060151 14:0.399792 15:-0.156613 16:-0.341927 17:0.490332 18:-0.047911 19:0.119751 20:-0.054039 21:0.424782 22:0.026243 23:0.274953 24:0.369386 25:0.070738 26:0.028098 27:0.252406 28:-0.026599 29:-0.107226 30:-0.008804 
-0.8828779285581889 1:6.412525 2:-0.036832 3:0.479217 4:0.235907 5:-0.379686 6:-0.456796 7:-1.079582 8:0.088657 9:-0.159294 10:0.553162 11:-0.52427 12:0.10614 13:-0.063567 14:-0.408101 15:0.146837 16:0.319667 17:-0.513681 18:0.034778 19:0.090517 20:0.054943 21:-0.405545 22:-0.060731 23:-0.254907 24:0.345135 25:-0.042123 26:0.05645 27:-0.22583 28:0.028001 29:-0.134268 30:0.009258 
-8 1:6.378447 2:-0.2189 3:0.071148 4:-0.129115 5:0.189023 6:-0.909367 7:-0.538314 8:0.277403 9:-0.104577 10:0.415229 11:-0.079872 12:-0.376642 13:-0.04763 14:-0.234678 15:-0.048975 16:0.436382 17:-0.456429 18:-0.144136 19:0.452412 20:0.00566 21:-0.29054 22:0.22966 23:0.117198 24:0.497021 25:0.071085 26:0.15623 27:-0.085117 28:0.32136 29:0.162426 30:-0.084237 
-1.373108045341328 1:6.261424 2:-0.375827 3:0.494907 4:-0.147283 5:-0.467881 6:-0.592518 7:-1.427265 8:0.017523 9:-0.318535 10:0.32921 11:0.017029 12:-0.206316 13:0.114382 14:-0.607425 15:0.309932 16:0.18443 17:-0.102019 18:0.045758 19:0.03291 20:0.244334 21:-0.076422 22:0.370729 23:-0.27341 24:0.201687 25:-0.334972 26:0.11969 27:-0.491882 28:0.025108 29:0.031794 30:-0.128198 
-2.484763463471423 1:6.269124 2:-0.37036 3:-0.463702 4:-0.16361 5:0.406569 6:-0.659006 7:-1.416533 8:-0.03895 9:-0.316197 10:0.332976 11:-0.000329 12:0.197043 13:0.157339 14:0.589457 15:-0.294205 16:-0.040859 17:0.238617 18:0.04746 19:0.039796 20:-0.231347 21:0.162408 22:0.413008 23:-0.04541 24:0.222939 25:0.348742 26:0.001112 27:0.486362 28:-0.035123 29:0.06828 30:0.11303 
-6.584238153495084 1:5.91653 2:-1.185239 3:0.242166 4:0.060505 5:0.067385 6:-0.837056 7:-0.831001 8:0.949187 9:0.243241 10:-0.646818 11:-1.208439 12:-0.648821 13:-0.127341 14:-0.159393 15:0.754862 16:0.065075 17:0.067574 18:-0.308489 19:0.545953 20:0.082937 21:-0.105964 22:0.486707 23:-0.314853 24:0.42746 25:0.045373 26:0.086332 27:0.110307 28:0.392291 29:-0.238525 30:0.201474 
-5.807212392707681 1:5.909185 2:-1.191688 3:-0.240809 4:0.089598 5:-0.142284 6:-0.884979 7:-0.770401 8:-0.945979 9:0.191541 10:-0.627361 11:-1.239305 12:0.627145 13:-0.014103 14:0.168324 15:-0.78265 16:0.067532 17:-0.030131 18:-0.267527 19:0.50879 20:-0.091201 21:0.297513 22:0.560525 23:-0.028153 24:0.446388 25:-0.029772 26:0.083087 27:-0.088111 28:-0.404595 29:-0.220225 30:-0.155484 
-0.01334483211782235 1:6.01551 2:-1.372984 3:0.696446 4:0.067634 5:-0.133268 6:-0.945122 7:0.098403 8:0.39116 9:0.314668 10:0.306995 11:0.205894 12:0.516011 13:0.123452 14:-0.122795 15:0.040074 16:-0.139361 17:0.455861 18:-0.022068 19:0.103592 20:0.330931 21:0.177363 22:-0.077119 23:-0.412816 24:-0.038054 25:-0.005512 26:-0.431774 27:-0.025938 28:0.230253 29:0.340947 30:0.280887 
-0.5494121092726916 1:6.01551 2:-1.372984 3:0.696446 4:0.067634 5:-0.133268 6:-0.945122 7:0.098403 8:0.39116 9:0.314668 10:0.306995 11:0.205894 12:0.516011 13:0.123452 14:-0.122795 15:0.040074 16:-0.139361 17:0.455861 18:-0.022068 19:0.103592 20:0.330931 21:0.177363 22:-0.077119 23:-0.412816 24:-0.038054 25:-0.005512 26:-0.431774 27:-0.025938 28:0.230253 29:0.340947 30:0.280887 
-1.975167862726492 1:6.004735 2:-1.380899 3:-0.692252 4:0.057182 5:0.06957 6:-0.955703 7:0.067569 8:-0.419872 9:0.296145 10:0.283298 11:0.20898 12:-0.530846 13:0.032819 14:0.106894 15:-0.055941 16:0.376823 17:-0.298363 18:0.022138 19:0.103322 20:-0.304377 21:-0.147008 22:0.247886 23:0.354611 24:-0.039826 25:-0.159962 26:-0.403506 27:-0.02993 28:-0.222111 29:0.311346 30:-0.316253 
-0.5007072928906786 1:5.715961 2:-1.017397 3:-1.032466 4:1.33594 5:0.796375 6:-1.13073 7:1.017729 8:-0.805241 9:-0.160438 10:-0.071056 11:-0.521813 12:0.254201 13:0.400215 14:-0.370792 15:-0.083944 16:-0.098825 17:0.27361 18:-0.639487 19:-0.108771 20:-0.785783 21:-0.232682 22:0.082115 23:-0.129554 24:-0.03201 25:0.288102 26:0.099603 27:-0.279366 28:-0.069951 29:-0.01834 30:0.184515 
-0.02280915356684222 1:5.715816 2:-1.041093 3:0.995333 4:1.391713 5:-0.780188 6:-1.046663 7:0.979266 8:0.861116 9:-0.070273 10:-0.051011 11:-0.500241 12:-0.376488 13:0.360534 14:0.388615 15:0.069833 16:0.237185 17:-0.299194 18:-0.556185 19:-0.131719 20:0.797032 21:0.30794 22:0.117213 23:0.06227 24:-0.042655 25:-0.289188 26:0.180422 27:0.285925 28:0.05843 29:-0.052879 30:-0.187843 
-1.432354800617536 1:5.896011 2:0.604327 3:1.280064 4:0.707506 5:0.251737 6:-1.065699 7:-0.297435 8:0.033783 9:-0.398001 10:0.150671 11:0.188751 12:-0.132829 13:0.012411 14:-0.818308 15:0.197969 16:0.168243 17:0.274278 18:0.387455 19:-0.285256 20:0.444277 21:0.427869 22:0.191596 23:-0.047934 24:0.071885 25:0.003207 26:-0.630751 27:-0.001079 28:0.488288 29:-0.211418 30:0.424097 
-0.168091309926311 1:5.562079 2:-1.519886 3:0.173898 4:-0.17949 5:-0.022664 6:-1.313157 7:-0.842529 8:-0.084057 9:1.345948 10:-0.255806 11:-1.459817 12:0.124944 13:0.577045 14:-0.165996 15:0.117355 16:-0.060085 17:-0.035551 18:-0.583367 19:0.992763 20:-0.071393 21:0.074574 22:0.2965 23:0.037641 24:0.058322 25:0.281268 26:0.402631 27:-0.377717 28:-0.168932 29:0.427491 30:-0.006237 
-0.6896242891078002 1:5.319032 2:0.188993 3:-1.864507 4:1.417861 5:-1.03805 6:-1.04156 7:-0.149401 8:0.471821 9:-0.809038 10:-0.161859 11:0.351957 12:-0.375537 13:-0.321115 14:0.504472 15:0.739729 16:0.175373 17:0.452322 18:-0.3378 19:-0.061477 20:-0.325433 21:-0.622931 22:-0.003682 23:0.660919 24:0.300591 25:0.624317 26:0.103779 27:0.297391 28:0.529251 29:-0.32707 30:-0.265898 
-0.6840397443190124 1:5.322714 2:0.197758 3:1.836465 4:1.360334 5:1.026635 6:-1.17876 7:-0.115023 8:-0.396664 9:-0.829727 10:-0.168043 11:0.35217 12:0.469376 13:-0.293934 14:-0.498311 15:-0.792677 16:0.431032 17:-0.12657 18:-0.286005 19:-0.079609 20:0.320573 21:0.541861 22:-0.55051 23:-0.436381 24:0.226533 25:-0.541812 26:0.298154 27:-0.276585 28:-0.544103 29:-0.276956 30:0.287598 
-1.007906311314898 1:5.843489 2:-0.027743 3:0.036627 4:0.098921 5:0.197974 6:-0.784006 7:1.426413 8:0.519669 9:0.082491 10:-0.748569 11:-0.514683 12:0.016845 13:0.409139 14:0.4477 15:0.356 16:-0.096067 17:0.186626 18:-0.028801 19:-0.073091 20:0.114635 21:-0.145981 22:-0.676728 23:0.11513 24:0.279885 25:0.137732 26:0.576855 27:-0.170576 28:0.068324 29:0.318137 30:-0.658528 
-0.8018660509917651 1:5.847077 2:-0.035216 3:-0.056396 4:0.119016 5:-0.285963 6:-0.767096 7:1.446529 8:-0.456151 9:0.02872 10:-0.759775 11:-0.509624 12:-0.158147 13:0.384373 14:-0.468261 15:-0.362079 16:0.157704 17:-0.276129 18:0.051639 19:-0.09983 20:-0.090658 21:0.013363 22:-0.542957 23:0.329686 24:0.270883 25:0.022737 26:0.536024 27:0.214054 28:-0.05541 29:0.340434 30:0.622664 
-0.7086775096412329 1:6.004524 2:0.05479 3:-0.277644 4:-0.037896 5:0.16387 6:-0.39907 7:0.412965 8:0.06325 9:-0.443667 10:-0.507627 11:-0.268417 12:0.231779 13:0.026156 14:-0.38981 15:0.775085 16:-0.201191 17:0.638285 18:0.001905 19:-0.301946 20:0.228379 21:-0.45827 22:-0.286641 23:0.185824 24:0.079672 25:0.287865 26:0.156463 27:-0.260732 28:0.168496 29:0.214274 30:-0.157619 
-0.7012702583740594 1:5.920212 2:-0.148625 3:0.817542 4:-0.291696 5:-0.783297 6:-0.896934 7:-0.725254 8:-0.309509 9:-0.15052 10:-0.069357 11:-0.240789 12:0.183998 13:0.26239 14:-0.102588 15:0.319256 16:-0.565768 17:-0.003261 18:0.743738 19:-0.20259 20:-0.219237 21:-0.375435 22:0.016316 23:-0.456013 24:0.042141 25:-0.056689 26:0.052095 27:0.050533 28:-0.446726 29:0.06376 30:-0.42394 
-0.8514333504832097 1:6.020639 2:0.479993 3:0.461949 4:0.321767 5:-0.141189 6:-0.555274 7:-0.43948 8:-0.052822 9:0.397665 10:-0.092786 11:0.665763 12:-0.044829 13:-0.200928 14:-0.049515 15:-0.957178 16:-0.338878 17:-0.266667 18:-0.354604 19:0.092906 20:0.054433 21:-0.527478 22:-0.054259 23:-0.133818 24:0.298954 25:-0.462325 26:0.413055 27:-0.323456 28:-0.775589 29:0.204621 30:-0.460135 
-1.732777818509706 1:6.027786 2:0.491134 3:-0.451391 4:0.299797 5:0.091726 6:-0.538021 7:-0.445062 8:0.000744 9:0.405799 10:-0.080343 11:0.633155 12:0.096221 13:-0.16717 14:0.059739 15:0.977799 16:-0.284784 17:-0.289563 18:-0.356375 19:0.073477 20:-0.064605 21:0.489055 22:-0.067304 23:0.166941 24:0.27249 25:0.560489 26:0.275799 27:0.361103 28:0.790967 29:0.212875 30:0.413535 
-1.159348218637757 1:5.705674 2:-0.340027 3:0.07508 4:0.275225 5:0.026121 6:-1.161915 7:-0.627341 8:-0.092077 9:-0.055275 10:0.350825 11:0.733072 12:0.088812 13:-0.93006 14:0.060992 15:-0.091092 16:1.086198 17:0.437096 18:-0.814256 19:1.0031 20:0.093506 21:0.106129 22:0.971171 23:-0.325726 24:-0.063091 25:0.212141 26:-0.327517 27:-0.103018 28:0.013547 29:0.383623 30:0.000755 
-4.644363149025049 1:5.699104 2:-0.569945 3:-0.522493 4:0.740212 5:-0.447784 6:-1.15184 7:0.233702 8:0.466647 9:0.211349 10:0.029501 11:0.582984 12:-0.516874 13:-0.373194 14:0.142231 15:0.378099 16:0.214025 17:0.540618 18:-0.263082 19:-0.187506 20:-0.097538 21:0.141699 22:0.494175 23:0.079732 24:-0.346912 25:0.336148 26:-0.615071 27:-0.26583 28:0.073087 29:0.1505 30:-0.560937 
-1.281079984614382 1:6.033609 2:0.435647 3:-0.391751 4:-0.266822 5:0.54896 6:-0.700424 7:0.070011 8:-0.604661 9:0.390982 10:-0.059566 11:-0.433754 12:0.163761 13:0.080764 14:0.078977 15:0.134781 16:-0.220211 17:0.570037 18:-0.811386 19:0.307062 20:-0.258397 21:0.49312 22:-0.312646 23:0.218179 24:-0.488047 25:-0.185926 26:0.215315 27:0.483749 28:0.065871 29:0.222411 30:-0.182467 
-0.9203495980919826 1:6.016567 2:0.380738 3:0.364344 4:-0.218595 5:-0.671058 6:-0.658726 7:0.023005 8:0.601292 9:0.455087 10:-0.097439 11:-0.469533 12:-0.160022 13:0.04896 14:-0.061914 15:-0.215847 16:0.553202 17:-0.531963 18:-0.732301 19:0.299183 20:0.296454 21:-0.57711 22:-0.30915 23:0.075784 24:-0.438746 25:0.259337 26:0.16555 27:-0.45573 28:-0.053165 29:0.226434 30:0.178625 
-1.273854733127857 1:6.06705 2:0.674381 3:0.099284 4:0.026797 5:-0.118879 6:-0.12195 7:-0.55275 8:-0.310734 9:-0.605395 10:0.368739 11:-0.416281 12:0.265702 13:0.204712 14:-0.39239 15:0.421048 16:0.276624 17:0.398551 18:-0.437742 19:-0.305503 20:0.48888 21:0.835715 22:-0.190457 23:-0.320819 24:-0.070888 25:0.415133 26:0.420269 27:-0.258478 28:-0.227711 29:-0.577048 30:-0.423008 
-0.1786880706714949 1:5.225619 2:-0.811227 3:-1.085912 4:-0.165242 5:-0.10575 6:-1.147754 7:-2.5402 8:-0.129628 9:-0.384892 10:-0.106615 11:-0.021547 12:0.192979 13:0.577755 14:-0.243901 15:-0.239731 16:0.249263 17:-0.259602 18:-0.470172 19:0.478175 20:0.199785 21:0.340277 22:0.141828 23:0.047947 24:-0.403494 25:0.237123 26:0.057921 27:-0.410066 28:-0.280187 29:-0.31528 30:-0.425268 
-1.428659949611035 1:5.923053 2:0.411311 3:-0.073209 4:0.863705 5:0.475818 6:-0.611991 7:0.548048 8:-0.060423 9:-0.481614 10:0.724412 11:-0.52782 12:0.451827 13:0.302005 14:-0.481314 15:0.183865 16:-0.463395 17:0.163137 18:0.322623 19:-0.20837 20:0.108925 21:-0.244052 22:-0.157535 23:-0.162956 24:0.181771 25:-0.165374 26:-0.150503 27:-0.594072 28:0.223321 29:0.138802 30:-0.135643 
-1.767290610202248 1:5.931294 2:0.41037 3:0.052499 4:0.873198 5:-0.464242 6:-0.569068 7:0.510465 8:0.121194 9:-0.460173 10:0.730008 11:-0.491685 12:-0.547254 13:0.223702 14:0.49185 15:-0.146089 16:-0.099034 17:-0.47214 18:0.407437 19:-0.242236 20:-0.124017 21:0.191427 22:-0.022506 23:0.23111 24:0.158764 25:0.082893 26:-0.246676 27:0.549619 28:-0.241754 29:0.170781 30:0.138547 
-0.2869778958236217 1:5.451964 2:1.773918 3:-0.182714 4:0.850986 5:0.3506 6:-0.320495 7:-0.500978 8:0.21629 9:-0.173466 10:0.659294 11:-0.649833 12:0.126956 13:-0.485193 14:-0.201723 15:1.109091 16:-0.032161 17:0.438192 18:0.255089 19:-0.336565 20:0.553676 21:0.469283 22:-0.313689 23:0.396285 24:0.019188 25:0.306287 26:0.394774 27:-1.121454 28:-0.318492 29:-0.405615 30:-0.082711 
-5.423961973984728 1:6.067197 2:0.012733 3:-0.505993 4:-0.10728 5:0.134838 6:-0.524304 7:0.076465 8:0.039762 9:-0.44915 10:-0.466015 11:0.104927 12:0.464606 13:0.603592 14:0.338268 15:0.074109 16:-0.686795 17:-0.192013 18:0.317562 19:-0.386601 20:0.20465 21:-0.040103 22:-0.042176 23:-0.767412 24:-0.57919 25:0.432852 26:0.547524 27:0.413581 28:-0.34264 29:-0.359547 30:0.031372 
-6.51727702361511 1:6.072159 2:0.014619 3:0.483715 4:-0.083338 5:-0.197618 6:-0.536425 7:0.037356 8:0.007645 9:-0.444342 10:-0.453243 11:0.126895 12:-0.555805 13:0.549044 14:-0.298453 15:0.00643 16:-0.509562 17:-0.453491 18:0.339543 19:-0.409976 20:-0.242878 21:0.003335 22:0.424124 23:0.537957 24:-0.579775 25:-0.160909 26:0.724536 27:-0.371452 28:0.284456 29:-0.387001 30:-0.047238 
-4.837590701677888 1:6.235061 2:0.479457 3:0.553986 4:0.316067 5:-0.260336 6:-1.072546 7:-0.115205 8:0.165999 9:-0.132735 10:0.43358 11:0.391993 12:0.174562 13:-0.406428 14:0.022802 15:-0.330512 16:0.455626 17:0.035793 18:0.159063 19:-0.618015 20:-0.011827 21:-0.055692 22:0.156446 23:-0.323124 24:0.051882 25:0.254694 26:-0.210099 27:0.262568 28:0.126378 29:0.134084 30:0.085283 
-3.143965995335449 1:6.237625 2:0.477594 3:-0.565871 4:0.300958 5:0.1976 6:-1.06802 7:-0.110426 8:-0.138343 9:-0.158344 10:0.449535 11:0.395869 12:-0.100603 13:-0.430882 14:-0.035427 15:0.361464 16:0.177982 17:0.500795 18:0.088674 19:-0.597226 20:0.015518 21:0.07132 22:0.291012 23:0.116963 24:0.071566 25:-0.281277 26:-0.095026 27:-0.291225 28:-0.119641 29:0.134441 30:-0.099968 
-1.990204590838347 1:6.190636 2:-0.115503 3:0.341252 4:0.00984 5:-0.649864 6:-0.891991 7:0.024093 8:-0.020337 9:0.271106 10:-0.215288 11:0.136079 12:0.155205 13:-0.687167 14:0.226748 15:0.478543 16:0.356011 17:0.270413 18:-0.350261 19:0.166166 20:-0.138956 21:-0.111064 22:-0.172521 23:0.059508 24:0.199217 25:0.058116 26:-0.069885 27:0.711059 28:0.644326 29:-0.480875 30:0.407019 
-0.6346514984388514 1:6.008953 2:-0.110084 3:-0.057927 4:0.867368 5:0.462736 6:0.004193 7:0.060846 8:-0.919196 9:-0.449465 10:-0.483224 11:-0.114799 12:0.121787 13:-0.13157 14:0.375698 15:0.855234 16:-0.873675 17:0.21634 18:-0.008272 19:0.215337 20:0.501196 21:0.034568 22:-0.462337 23:0.223906 24:0.388706 25:-0.164043 26:-0.043591 27:-0.549267 28:-0.398289 29:-0.058049 30:-0.079569 
-1.194093435961045 1:6.001671 2:-0.156156 3:0.046238 4:0.907562 5:-0.414859 6:0.037321 7:0.031649 8:0.987735 9:-0.382617 10:-0.472943 11:-0.14185 12:-0.086779 13:-0.151774 14:-0.349219 15:-0.814371 16:-0.204904 17:-0.941506 18:0.146251 19:0.142473 20:-0.542725 21:-0.189304 22:-0.410723 23:0.133077 24:0.350718 25:0.16991 26:-0.141191 27:0.570844 28:0.397408 29:-0.066623 30:0.05969 
-0.4040936239948342 1:5.912225 2:-0.691389 3:0.078719 4:0.271239 5:-0.247676 6:-1.181148 7:0.000336 8:0.035999 9:-0.081173 10:0.525112 11:0.848333 12:0.068246 13:0.089012 14:0.080628 15:-0.221944 16:0.215218 17:-0.077005 18:-0.034436 19:0.319703 20:0.117774 21:-0.255195 22:-0.175358 23:0.160805 24:-0.31534 25:-0.025352 26:-0.012605 27:-0.378715 28:-0.251585 29:-0.301676 30:0.128508 
