svm_type c_svc
kernel_type rbf
gamma 0.125
nr_class 2
total_sv 431
rho 3.4303
label 1 -1
nr_sv 147 284
SV
4.418953858598534 1:5.94046 2:0.631432 3:-0.311692 4:0.167799 5:-0.6982 6:-1.16517 7:-0.380201 8:-0.156429 9:0.516832 10:0.477345 11:0.719654 12:0.441554 13:-0.630783 14:-0.074861 15:0.63292 16:0.155 17:0.280403 18:0.026492 19:-0.039807 20:-0.072733 21:-0.465896 22:-0.011427 23:-0.043679 24:-0.207556 25:-0.077607 26:-0.075859 27:0.114253 28:-0.043948 29:-0.321214 30:-0.028927 
8 1:6.292067 2:0.458993 3:-0.386517 4:0.048368 5:-0.074817 6:-1.217172 7:-0.307297 8:0.334404 9:-0.193988 10:-0.055674 11:0.02286 12:0.204714 13:0.019144 14:0.013603 15:0.09504 16:0.688962 17:0.260249 18:0.089163 19:0.206238 20:-0.088472 21:-0.345707 22:0.235633 23:-0.344603 24:0.287842 25:-0.168252 26:0.127938 27:-0.149192 28:0.085647 29:0.097594 30:0.05393 
6.525326668581934 1:6.156987 2:0.392915 3:0.637368 4:0.216296 5:0.198463 6:-0.191467 7:0.682974 8:0.005348 9:-0.059012 10:0.487167 11:0.418233 12:0.076859 13:0.88892 14:0.083527 15:0.556251 16:-0.090171 17:-0.232425 18:-0.06748 19:0.103206 20:0.149002 21:-0.241599 22:0.102599 23:0.381768 24:0.197932 25:-1.007123 26:-0.204221 27:0.314817 28:-0.007764 29:0.36514 30:-0.034413 
1.424336430073388 1:5.757226 2:-0.678632 3:-0.377815 4:0.074774 5:-0.163983 6:-1.417128 7:-0.455403 8:0.124132 9:0.424684 10:0.223278 11:0.123381 12:0.518624 13:0.045269 14:-0.008636 15:0.194924 16:0.075311 17:-0.615805 18:-0.317558 19:0.006909 20:-0.370791 21:0.346798 22:0.014623 23:-0.633279 24:0.695681 25:0.607514 26:-0.04053 27:0.0502 28:-0.376863 29:-0.167766 30:-0.20086 
5.781561896879264 1:6.141132 2:-0.432358 3:-0.221362 4:0.242138 5:-0.264034 6:-0.973453 7:-0.256886 8:-0.282499 9:-0.056056 10:0.184151 11:0.22279 12:0.611444 13:0.009698 14:-0.352803 15:0.588137 16:0.238411 17:-0.302381 18:0.077514 19:0.081872 20:-0.132779 21:-0.079409 22:0.031076 23:-0.643282 24:-0.277155 25:-0.043607 26:0.006344 27:-0.049423 28:0.164092 29:0.10789 30:0.364479 
8 1:6.233764 2:0.435425 3:0.443015 4:-0.374678 5:-0.288481 6:0.441991 7:0.0157 8:-0.084823 9:-0.033884 10:-0.225485 11:-0.682059 12:-0.082523 13:-0.324217 14:-0.212957 15:-0.724307 16:-0.351049 17:-0.088549 18:-0.167558 19:0.046236 20:0.022066 21:0.336715 22:-0.077582 23:-0.225808 24:-0.166861 25:-0.245992 26:-0.189493 27:0.180311 28:-0.065632 29:-0.142217 30:-0.031726 
6.273363108424252 1:5.509658 2:1.805917 3:0.33161 4:0.910903 5:0.265997 6:-0.27291 7:-0.942174 8:-0.593126 9:-0.404751 10:-0.580657 11:-0.285453 12:0.705221 13:-0.491444 14:0.162385 15:-0.598167 16:-0.52887 17:-0.199756 18:-0.256525 19:0.116351 20:0.264432 21:-0.716211 22:0.341119 23:-0.412995 24:0.079898 25:-0.524554 26:-0.312068 27:0.040877 28:0.165448 29:0.449563 30:0.160283 
7.033881737767273 1:5.746054 2:1.050735 3:0.531555 4:-0.234398 5:-0.096838 6:-0.688884 7:-0.133341 8:0.294366 9:-0.401518 10:-0.04822 11:0.272288 12:0.381183 13:-0.269998 14:-0.082845 15:-0.276544 16:0.130418 17:0.258301 18:-0.249952 19:-0.178035 20:0.63985 21:-0.351047 22:-0.425201 23:-0.062794 24:-0.043302 25:-0.157089 26:-0.348296 27:-0.298177 28:-0.367289 29:0.111407 30:-0.156231 
1.516174764597553 1:5.661271 2:1.974969 3:-0.021464 4:0.546261 5:-0.219191 6:-1.336634 7:-0.756117 8:0.19345 9:-0.447236 10:-0.215917 11:-0.343912 12:0.110569 13:0.119279 14:-0.013908 15:-0.496757 16:-0.11568 17:0.240574 18:0.025852 19:-0.091665 20:-0.004508 21:0.169751 22:-0.241033 23:1.008299 24:-0.062629 25:0.559297 26:0.011718 27:0.119612 28:0.217967 29:0.390754 30:0.150988 
2.25041417737453 1:5.660891 2:1.976005 3:0.002535 4:0.545839 5:0.047607 6:-1.34328 7:-0.767781 8:-0.13313 9:-0.46377 10:-0.198663 11:-0.33535 12:-0.046051 13:0.159843 14:0.092669 15:-0.452701 16:-0.207631 17:0.239492 18:-0.131656 19:-0.095421 20:-0.28425 21:0.245862 22:0.110751 23:0.969844 24:0.054442 25:0.524911 26:0.012259 27:-0.076131 28:-0.320136 29:0.227666 30:-0.340047 
2.635755778898683 1:5.883228 2:1.002994 3:-0.411421 4:-0.209356 5:-0.411975 6:-0.176639 7:-0.288327 8:-0.035972 9:-0.375469 10:-0.149058 11:-0.288151 12:-0.116932 13:0.283759 14:-0.230449 15:-0.16326 16:-0.38315 17:-0.272218 18:-0.095455 19:-0.145146 20:-0.263513 21:0.773502 22:0.012829 23:-0.268234 24:-0.099485 25:-0.099599 26:0.000867 27:-0.139832 28:-0.486301 29:-0.550587 30:-0.098325 
6.962355212270636 1:5.867468 2:1.02591 3:0.392796 4:-0.218847 5:0.359425 6:-0.258261 7:-0.275139 8:0.058962 9:-0.344895 10:-0.154332 11:-0.266396 12:0.253089 13:0.140938 14:0.306211 15:-0.392611 16:0.221609 17:-0.275688 18:0.117724 19:-0.182365 20:0.063802 21:0.614662 22:-0.564099 23:-0.228523 24:0.043371 25:-0.108733 26:0.06174 27:0.115016 28:0.578824 29:-0.335593 30:0.270165 
2.513513462167505 1:5.929958 2:0.321652 3:0.471528 4:0.32325 5:-0.056394 6:-0.680755 7:0.145029 8:-0.171212 9:-0.117449 10:0.558575 11:-0.423231 12:-0.018301 13:0.437616 14:0.052961 15:0.459516 16:0.845506 17:-0.534515 18:0.116209 19:-0.114406 20:-0.385515 21:0.341001 22:0.036639 23:-1.000091 24:-0.137256 25:-0.012375 26:-0.441562 27:0.085656 28:0.087003 29:-0.25334 30:0.163708 
0.991006047312512 1:5.680515 2:1.640209 3:0.292289 4:-0.139703 5:-0.287977 6:-0.616558 7:-0.700148 8:-0.279697 9:-0.858924 10:-0.480088 11:-0.199952 12:0.076601 13:0.078887 14:-0.262422 15:-0.282734 16:-0.341301 17:-0.307608 18:-0.095748 19:0.179495 20:0.1006 21:0.545385 22:-0.223627 23:-0.405765 24:0.357877 25:0.65939 26:-0.05742 27:-0.034165 28:-0.578787 29:0.917512 30:-0.15285 
1.420791083738532 1:5.672288 2:1.62655 3:-0.292181 4:-0.164218 5:0.193227 6:-0.651246 7:-0.671944 8:0.316415 9:-0.855058 10:-0.488251 11:-0.21769 12:-0.016144 13:0.098144 14:0.333778 15:-0.409299 16:0.178385 17:-0.317775 18:0.166667 19:0.185708 20:-0.25165 21:0.518255 22:-0.250988 23:-0.446087 24:-0.27983 25:0.671487 26:-0.052026 27:0.110291 28:0.389141 29:0.976226 30:-0.378631 
1.980250783971584 1:5.582651 2:2.007452 3:0.339973 4:-0.108953 5:0.173156 6:-0.070971 7:-0.266306 8:-0.287064 9:0.173413 10:-0.491672 11:-0.729018 12:0.217397 13:-0.671418 14:0.237973 15:-0.488473 16:-0.197232 17:-0.427616 18:0.240903 19:0.320084 20:-0.521271 21:-0.240562 22:-0.51561 23:-0.414301 24:0.224404 25:0.032189 26:0.048734 27:0.242631 28:-0.17683 29:0.74481 30:0.25154 
7.198741979554494 1:5.9069 2:-0.560198 3:-0.07893 4:0.203329 5:0.102649 6:-0.756576 7:-0.011557 8:0.075105 9:-0.248499 10:-0.026143 11:0.218652 12:0.640319 13:0.643492 14:-0.30827 15:-0.089561 16:0.020211 17:-0.142832 18:-0.239727 19:-0.378333 20:-0.08028 21:0.545998 22:-0.406581 23:0.40988 24:0.141313 25:-0.852888 26:-0.439698 27:0.060744 28:-0.138686 29:0.27341 30:-0.184442 
0.3560648079646112 1:5.402774 2:0.580158 3:0.067988 4:0.264412 5:-0.126524 6:1.30258 7:0.389044 8:0.327372 9:-0.330253 10:-0.556637 11:-1.745555 12:0.145818 13:-1.048187 14:0.89434 15:-0.990764 16:-0.794695 17:-0.076476 18:-0.317491 19:0.351484 20:-0.2625 21:0.656437 22:0.037777 23:0.495405 24:-0.31681 25:0.867826 26:0.030388 27:-0.28069 28:0.401178 29:-0.03499 30:-0.207528 
8 1:6.267219 2:0.227254 3:0.259389 4:0.012576 5:0.062306 6:0.024694 7:-0.143016 8:0.017107 9:-0.158469 10:-0.025472 11:-0.362666 12:0.080494 13:-0.038067 14:0.069763 15:-0.256496 16:-0.081378 17:-0.045117 18:0.109893 19:0.253301 20:-0.09031 21:-0.304802 22:0.15762 23:0.134295 24:0.144806 25:0.128113 26:0.182572 27:0.149824 28:-0.146733 29:0.275492 30:-0.002204 
8 1:6.264318 2:0.231967 3:-0.266794 4:0.008324 5:-0.061487 6:0.056662 7:-0.134967 8:-0.008086 9:-0.153759 10:-0.003492 11:-0.364618 12:-0.093241 13:0.023291 14:-0.023825 15:-0.247831 16:-0.074601 17:-0.03944 18:-0.072078 19:0.262007 20:0.169555 21:-0.287589 22:0.098807 23:0.158298 24:-0.160757 25:0.150017 26:0.173255 27:-0.146284 28:0.092229 29:0.279146 30:-0.104249 
8 1:6.218556 2:0.225391 3:0.181964 4:0.231037 5:-0.150032 6:-0.009977 7:0.294419 8:0.016555 9:0.300023 10:0.094321 11:-0.394133 12:-0.033031 13:-0.378082 14:0.075434 15:-0.466416 16:0.136589 17:0.201795 18:-0.203687 19:0.090379 20:0.515058 21:-0.35984 22:0.163767 23:0.094783 24:0.050312 25:0.120363 26:0.178709 27:-0.270357 28:-0.180873 29:0.192043 30:-0.265983 
8 1:6.225786 2:0.237639 3:-0.17555 4:0.2152 5:0.146694 6:-0.038544 7:0.282872 8:-0.038043 9:0.312479 10:0.091511 11:-0.398531 12:-0.220348 13:-0.32355 14:-0.038221 15:-0.290463 16:-0.371032 17:0.230216 18:0.174283 19:0.077536 20:-0.348317 21:-0.482468 22:0.200247 23:0.01909 24:-0.036113 25:0.089682 26:0.173634 27:0.276976 28:0.120264 29:0.310387 30:0.148646 
3.851162835467605 1:6.153288 2:-1.307305 3:0.365404 4:0.176003 5:-0.071007 6:-0.107014 7:0.406221 8:0.028883 9:0.552614 10:0.060358 11:-0.213476 12:0.053951 13:-0.195566 14:0.076421 15:0.269565 16:-0.354148 17:-0.187782 18:-0.043523 19:0.120615 20:0.387471 21:-0.658528 22:0.275724 23:0.299901 24:-0.218736 25:0.431763 26:0.111401 27:-0.27465 28:-0.247954 29:0.352989 30:0.170449 
0.2938225909793958 1:5.73626 2:2.042047 3:0.030259 4:0.067088 5:-0.35007 6:0.013328 7:-0.496243 8:-0.145531 9:-0.451926 10:-0.393131 11:-0.766415 12:0.144669 13:-0.46043 14:-0.140796 15:-0.839682 16:0.039627 17:-0.634244 18:0.059823 19:0.333156 20:0.258583 21:-0.115355 22:0.113973 23:-0.156385 24:-0.193337 25:-0.361048 26:-0.594416 27:-0.072292 28:-0.033224 29:0.620229 30:-0.45979 
0.4565300371914492 1:5.737373 2:2.050751 3:-0.013619 4:0.051665 5:0.354517 6:-0.013986 7:-0.485654 8:0.1643 9:-0.46801 10:-0.391516 11:-0.757695 12:-0.41325 13:-0.279449 14:0.211666 15:-0.620777 16:-0.520846 17:-0.601058 18:0.00541 19:0.337977 20:-0.119787 21:-0.226746 22:-0.04598 23:-0.211504 24:0.128413 25:-0.379343 26:-0.601143 27:0.192053 28:-0.1324 29:0.795469 30:0.068214 
4.993785529790797 1:5.543509 2:1.738363 3:-0.468156 4:0.148298 5:0.066536 6:0.232988 7:-0.40591 8:0.326401 9:-0.765256 10:-0.391608 11:-0.359456 12:-0.716562 13:-0.351118 14:-0.113803 15:-0.70111 16:0.508257 17:-0.410786 18:-0.25466 19:0.32691 20:-0.172774 21:-0.252913 22:0.621915 23:-0.228738 24:0.48481 25:-0.035184 26:-0.220113 27:-0.122358 28:0.170746 29:0.238638 30:-0.640981 
5.845122993925338 1:5.706639 2:-0.614525 3:0.240494 4:0.183501 5:-0.58623 6:-0.760153 7:0.405071 8:0.13898 9:0.135866 10:-0.283342 11:-0.159284 12:-0.017881 13:0.194488 14:-0.082711 15:-0.301319 16:-0.072246 17:0.287052 18:-0.159757 19:0.510047 20:0.74282 21:0.111276 22:0.298694 23:-0.187703 24:-0.158603 25:0.717974 26:0.164517 27:-0.955982 28:-0.135854 29:-0.520079 30:0.485116 
8 1:6.067394 2:-0.258915 3:-0.229786 4:0.4666 5:-0.027931 6:-0.687798 7:0.003441 8:0.054722 9:0.23658 10:0.027591 11:-0.188211 12:0.095801 13:-0.410328 14:-0.061246 15:-0.378298 16:-0.032347 17:0.235415 18:-0.222062 19:-0.224672 20:-0.110703 21:0.20722 22:0.216257 23:0.510414 24:-0.11528 25:-0.244651 26:0.048905 27:0.092946 28:0.512916 29:-0.36797 30:0.223043 
8 1:6.071267 2:-0.257086 3:0.221412 4:0.461682 5:-0.039445 6:-0.701679 7:-0.015141 8:-0.061238 9:0.24443 10:0.034964 11:-0.159433 12:-0.336826 13:-0.264885 14:0.106477 15:-0.326383 16:-0.221532 17:0.229501 18:0.093646 19:-0.211156 20:-0.070743 21:0.021985 22:-0.250908 23:0.521397 24:0.092384 25:-0.242404 26:0.027658 27:-0.123027 28:-0.399872 29:-0.435448 30:-0.066287 
8 1:6.18077 2:0.261081 3:-0.465613 4:-0.58562 5:-0.010749 6:-0.030335 7:-0.234063 8:0.109039 9:0.215913 10:0.235734 11:-0.263876 12:0.676637 13:0.510181 14:-0.216805 15:0.279491 16:-0.036363 17:-0.822532 18:-0.437517 19:0.431408 20:0.248596 21:-0.180083 22:-0.191194 23:-0.308764 24:-0.085838 25:0.568105 26:-0.477459 27:0.156835 28:-0.299095 29:0.360137 30:0.075169 
7.265248506787959 1:6.185814 2:0.247495 3:0.477378 4:-0.570553 5:-0.026419 6:-0.043284 7:-0.259914 8:-0.090239 9:0.220682 10:0.231139 11:-0.276509 12:-0.206326 13:0.819121 14:0.228568 15:0.211769 16:0.213541 17:-0.772031 18:0.564926 19:0.44055 20:-0.126843 21:-0.054565 22:0.236409 23:-0.315856 24:0.117289 25:0.556625 26:-0.525163 27:-0.080291 28:0.216099 29:0.298801 30:-0.231662 
6.679013814094662 1:6.000306 2:0.253245 3:0.102562 4:0.017267 5:0.004549 6:-0.728717 7:0.011547 8:-0.005186 9:-0.226019 10:0.030981 11:-0.269869 12:-0.126486 13:-0.593426 14:0.225661 15:-0.183015 16:0.077874 17:0.010478 18:-0.116928 19:-0.265161 20:-0.353755 21:-0.068234 22:0.080828 23:0.647701 24:0.147976 25:-0.469963 26:0.019524 27:0.200824 28:0.049182 29:-0.264194 30:0.154418 
2.826997114313186 1:6.00845 2:0.23476 3:-0.115014 4:0.028202 5:-0.069532 6:-0.717869 7:0.021296 8:0.000747 9:-0.202361 10:0.037756 11:-0.237614 12:-0.258361 13:-0.53314 14:-0.237057 15:-0.154349 16:-0.219735 17:0.033836 18:0.033292 19:-0.254263 20:0.211098 21:0.000555 22:0.004537 23:0.667327 24:-0.192864 25:-0.41262 26:-0.0292 27:-0.210191 28:0.023837 29:-0.182654 30:-0.093247 
8 1:6.067023 2:0.133581 3:-0.228157 4:-0.90135 5:0.233199 6:0.037988 7:0.252031 8:-0.137475 9:-0.271995 10:0.063776 11:0.064179 12:0.523043 13:0.796432 14:-0.210576 15:0.172755 16:0.215987 17:-0.054459 18:0.257774 19:0.274441 20:-0.155909 21:-0.042518 22:0.055653 23:-0.013042 24:0.155291 25:0.014868 26:-0.477674 27:-0.1401 28:-0.07443 29:0.103561 30:0.127859 
8 1:6.065733 2:0.129407 3:0.233241 4:-0.88301 5:-0.292065 6:0.086818 7:0.27856 8:0.121368 9:-0.287854 10:0.05815 11:0.057641 12:0.074519 13:0.944481 14:0.237079 15:0.289232 16:-0.028927 17:-0.078462 18:-0.232394 19:0.275289 20:0.141196 21:-0.049453 22:-0.049926 23:-0.008365 24:-0.149408 25:0.039929 26:-0.452864 27:0.209657 28:0.038577 29:0.053776 30:-0.226142 
2.639985192484424 1:5.707952 2:0.573105 3:-0.289679 4:0.108561 5:-0.110068 6:0.177793 7:0.385307 8:0.253253 9:-0.386188 10:-0.41467 11:-0.100702 12:0.036824 13:0.148602 14:-0.397617 15:-0.618481 16:-0.519869 17:-0.248922 18:-0.325626 19:0.210316 20:0.085272 21:-0.006272 22:0.102492 23:0.279476 24:0.674138 25:0.087074 26:-0.665251 27:0.103789 28:0.324964 29:0.487383 30:0.139048 
2.704951179958047 1:5.694366 2:0.567068 3:0.288922 4:0.096504 5:0.092418 6:0.156784 7:0.373563 8:-0.26451 9:-0.378756 10:-0.422734 11:-0.06107 12:0.049456 13:0.107192 14:0.508847 15:-0.791622 16:0.116677 17:-0.214176 18:0.375538 19:0.165744 20:-0.005855 21:-0.124201 22:-0.058051 23:0.292262 24:-0.663199 25:0.142234 26:-0.648873 27:-0.001772 28:-0.453503 29:0.384242 30:-0.376965 
0.1016786515159966 1:6.054636 2:-0.448446 3:-0.248679 4:0.144752 5:-0.022434 6:0.164043 7:-0.294451 8:0.228418 9:-0.273063 10:0.558064 11:0.110708 12:0.174662 13:0.033571 14:-0.171623 15:-0.730606 16:-0.087294 17:0.611075 18:-0.22805 19:0.187362 20:-0.138706 21:-0.595378 22:0.026427 23:0.781671 24:0.180976 25:0.38323 26:0.029191 27:0.096324 28:-0.450679 29:0.822887 30:-0.165501 
0.3898542490190647 1:6.053765 2:-0.443131 3:0.25226 4:0.15686 5:0.057077 6:0.156197 7:-0.319038 8:-0.194332 9:-0.283276 10:0.585043 11:0.118232 12:-0.139049 13:0.13812 14:0.262233 15:-0.637429 16:-0.354507 17:0.630677 18:0.114915 19:0.181775 20:0.13962 21:-0.403328 22:0.419836 23:0.795647 24:-0.146199 25:0.409664 26:0.036883 27:-0.058913 28:0.266773 29:0.876308 30:-0.28173 
2.766736756986623 1:6.084818 2:-0.167489 3:-0.013843 4:0.283185 5:0.05418 6:-0.156803 7:-0.218259 8:0.086755 9:-0.004197 10:0.308962 11:0.580766 12:0.27675 13:0.196733 14:0.00476 15:-0.453908 16:-0.170687 17:0.511898 18:0.077848 19:0.141922 20:0.192576 21:-0.742173 22:0.318543 23:0.398603 24:0.019702 25:0.294767 26:-0.068631 27:-0.110746 28:0.41088 29:0.660567 30:-0.12593 
1.847346389794281 1:6.222399 2:-0.066308 3:0.159458 4:0.115263 5:0.009869 6:-0.475411 7:-0.201238 8:0.010006 9:-0.310118 10:0.360445 11:0.299568 12:0.017574 13:0.07178 14:0.204651 15:-0.726291 16:-0.284489 17:0.429856 18:0.090664 19:0.381568 20:0.045351 21:-0.621045 22:0.192744 23:0.240837 24:-0.148849 25:0.598473 26:0.012536 27:0.110473 28:-0.041819 29:0.699785 30:-0.004262 
4.296606208857952 1:5.843895 2:-0.57589 3:1.295369 4:-0.251217 5:-0.083076 6:-0.724783 7:0.266673 8:-0.330714 9:-0.120952 10:0.123451 11:-0.248252 12:1.05247 13:-0.017767 14:-0.59375 15:-0.6345 16:0.012297 17:0.156537 18:0.433192 19:0.013246 20:-0.228345 21:-0.303945 22:0.004589 23:0.239399 24:-0.419653 25:-0.318837 26:-0.912637 27:-0.066943 28:0.11878 29:0.162507 30:0.348003 
5.872362456262862 1:5.845319 2:-0.563492 3:-1.310414 4:-0.239185 5:-0.03353 6:-0.694318 7:0.30568 8:0.302291 9:-0.136607 10:0.15797 11:-0.262903 12:-0.845719 13:0.578775 14:0.694775 15:-0.391051 16:-0.34381 17:0.071635 18:-0.50714 19:-0.000649 20:0.293018 21:-0.137138 22:0.167976 23:0.28915 24:0.362694 25:-0.383916 26:-0.854205 27:0.166298 28:-0.135374 29:-0.054548 30:-0.391844 
5.523585538698528 1:6.001077 2:-0.130215 3:0.992692 4:-0.150081 5:0.191577 6:-0.696161 7:0.214779 8:-0.291258 9:-0.043399 10:-0.018579 11:-0.383755 12:0.594985 13:0.358857 14:-0.781877 15:-0.46783 16:0.030935 17:-0.422088 18:0.222089 19:0.059728 20:-0.548969 21:-0.177986 22:-0.023101 23:-0.313805 24:-0.471988 25:-0.64855 26:-0.524478 27:0.161728 28:-0.097632 29:-0.283319 30:0.494098 
8 1:6.06978 2:-0.329019 3:0.133418 4:-0.067985 5:-0.079188 6:-0.110557 7:-0.424839 8:0.17564 9:0.272168 10:0.189773 11:0.146415 12:0.167476 13:0.297981 14:0.326585 15:-0.081466 16:-0.122191 17:-0.427525 18:0.022175 19:-0.029247 20:0.110768 21:-0.485682 22:0.342819 23:0.117972 24:0.021617 25:-0.505681 26:0.137691 27:-0.433559 28:-0.153135 29:0.140721 30:0.058556 
8 1:6.070848 2:-0.317523 3:-0.09323 4:-0.0719 5:0.066927 6:-0.121262 7:-0.441845 8:-0.125135 9:0.285459 10:0.211025 11:0.130201 12:0.050197 13:0.343732 14:-0.324818 15:-0.177669 16:0.010261 17:-0.426454 18:-0.001844 19:-0.017372 20:0.042323 21:-0.565892 22:0.129352 23:0.138336 24:-0.047198 25:-0.508293 26:0.166411 27:0.422371 28:0.158311 29:-0.032981 30:-0.064387 
8 1:6.122465 2:-0.077865 3:0.136806 4:0.161314 5:0.218144 6:0.37425 7:-0.184197 8:0.477144 9:-0.176148 10:0.553877 11:0.239339 12:0.037458 13:-0.03052 14:-0.312307 15:0.494227 16:-0.187818 17:-0.081075 18:-0.026664 19:0.161191 20:0.371178 21:-0.375169 22:0.301823 23:0.142495 24:-0.107586 25:-0.50351 26:0.047517 27:0.023998 28:0.190245 29:-0.073785 30:-0.123719 
8 1:6.157378 2:-0.539868 3:1.231376 4:0.296154 5:0.071897 6:0.000863 7:-0.026544 8:0.120006 9:0.540545 10:0.565763 11:-0.427561 12:0.436499 13:-0.34463 14:-0.316476 15:-0.302958 16:0.360724 17:0.216508 18:0.219994 19:-0.117534 20:0.138405 21:0.252683 22:0.348113 23:-0.318773 24:0.028498 25:-0.265743 26:0.437905 27:-0.207231 28:-0.181139 29:-0.192288 30:-0.351428 
8 1:6.161316 2:-0.555717 3:-1.221514 4:0.309065 5:-0.058229 6:0.008174 7:-0.01518 8:-0.122299 9:0.519359 10:0.573733 11:-0.400175 12:-0.55798 13:-0.019822 14:0.316219 15:-0.027665 16:-0.456947 17:0.180623 18:-0.236989 19:-0.102071 20:-0.075984 21:-0.085122 22:-0.421541 23:-0.370076 24:-0.037335 25:-0.231262 26:0.460339 27:0.152488 28:0.179543 29:0.106653 30:0.390031 
3.936385103463017 1:5.640024 2:1.152163 3:-0.275234 4:0.18825 5:-0.108466 6:-1.131525 7:-0.586302 8:0.342317 9:-0.152809 10:-0.073738 11:0.06577 12:-0.013913 13:-0.128171 14:0.313187 15:0.338672 16:-0.3838 17:-0.676077 18:0.704083 19:-0.332994 20:-0.237459 21:0.040006 22:-0.690926 23:-0.70222 24:0.856053 25:0.165999 26:0.534442 27:0.365303 28:0.490988 29:0.45228 30:0.217622 
5.249131792415757 1:5.649881 2:1.145877 3:0.259269 4:0.172335 5:-0.04119 6:-1.130127 7:-0.613674 8:-0.282566 9:-0.155296 10:-0.081917 11:0.080877 12:-0.097675 13:-0.131812 14:-0.341305 15:0.075752 16:0.507681 17:-0.716037 18:-0.624658 19:-0.288792 20:0.263075 21:0.540467 22:0.429321 23:-0.705276 24:-0.809419 25:0.234053 26:0.489442 27:-0.417838 28:-0.531045 29:0.095497 30:-0.397158 
2.412753292483193 1:6.021265 2:-0.699224 3:-0.219923 4:0.030474 5:-0.136046 6:-0.777203 7:0.737417 8:-0.140554 9:-0.226758 10:-0.652543 11:-1.053597 12:0.498764 13:0.164129 14:0.129093 15:-0.289483 16:0.279294 17:0.481427 18:-0.032995 19:0.030144 20:0.329668 21:-0.417779 22:-0.19903 23:0.869835 24:0.135743 25:0.026538 26:-0.068677 27:-0.083056 28:-0.163445 29:0.451632 30:-0.073275 
8 1:6.04261 2:-0.583111 3:-0.157829 4:0.322656 5:0.252059 6:-0.022713 7:0.331944 8:0.431725 9:0.928305 10:-0.221774 11:-0.973823 12:0.200198 13:-0.156235 14:-0.394377 15:-0.11303 16:0.012624 17:0.467453 18:0.068333 19:0.241808 20:0.236538 21:-0.012137 22:0.168631 23:0.243353 24:0.295295 25:-0.264196 26:0.159021 27:0.214663 28:0.829058 29:0.335898 30:0.193115 
1.171044997879468 1:5.779324 2:-1.137134 3:0.037641 4:-0.240473 5:0.468367 6:-0.127592 7:0.02197 8:0.197187 9:-0.038685 10:-0.293329 11:0.274036 12:-0.088291 13:0.085551 14:-0.058344 15:-0.661674 16:-0.348497 17:0.377011 18:0.091109 19:-0.094937 20:-0.122847 21:-0.583667 22:-0.08834 23:0.49664 24:0.401897 25:1.090571 26:0.29747 27:-0.428109 28:-0.567654 29:0.488734 30:-0.452947 
2.608453712195665 1:5.783857 2:-1.150393 3:-0.017497 4:-0.198989 5:-0.499395 6:-0.051718 7:0.009059 8:-0.212398 9:-0.045048 10:-0.274589 11:0.259052 12:0.094004 13:0.005722 14:0.163251 15:-0.676036 16:-0.056406 17:0.335104 18:-0.225898 19:-0.131027 20:0.091732 21:-0.283064 22:0.492542 23:0.490628 24:-0.246757 25:1.101745 26:0.356616 27:0.430169 28:0.470773 29:0.661516 30:0.147871 
4.892271774598584 1:5.855272 2:-0.87702 3:0.070209 4:-0.134308 5:0.345203 6:-0.124544 7:0.302604 8:0.196628 9:-0.013841 10:-0.173312 11:-0.168647 12:-0.094042 13:0.058577 14:-0.038124 15:-0.303012 16:-0.545333 17:-0.361511 18:-0.028008 19:0.015698 20:0.241195 21:-0.268033 22:-0.092957 23:0.357425 24:-0.09608 25:0.009801 26:0.459932 27:0.142195 28:0.540003 29:0.003108 30:0.331199 
8 1:5.888982 2:0.961836 3:-0.121232 4:-1.068429 5:-0.039913 6:0.019792 7:-0.086606 8:0.009651 9:-0.486448 10:-0.350402 11:-0.15208 12:-0.15816 13:-0.022671 14:-0.088316 15:-0.061941 16:-0.091959 17:0.765977 18:-0.01066 19:0.634093 20:-0.347326 21:-0.134182 22:0.265327 23:-0.39982 24:0.026578 25:-0.173529 26:-0.2193 27:0.133481 28:-0.027923 29:-0.097933 30:-0.509657 
1.566721310233491 1:5.741899 2:-0.595195 3:-0.379061 4:0.495879 5:-0.026646 6:-1.063124 7:-0.172811 8:-0.334808 9:0.584137 10:-0.362286 11:-0.142814 12:0.100837 13:0.095914 14:0.232788 15:0.354636 16:0.558836 17:0.088473 18:0.456917 19:0.225763 20:0.362614 21:-0.445072 22:0.041609 23:0.454368 24:-0.067122 25:0.392229 26:0.560442 27:-0.028056 28:0.520062 29:0.135726 30:-0.369624 
0.05255652719686087 1:5.693181 2:-0.178333 3:-0.217045 4:0.510609 5:0.055206 6:-1.685728 7:-0.171938 8:0.160229 9:0.264007 10:-0.000661 11:-0.010689 12:-0.100223 13:0.051871 14:0.260905 15:0.216825 16:0.068174 17:-0.088961 18:0.072409 19:-0.173447 20:0.569408 21:-0.292208 22:0.005574 23:0.482461 24:-0.38487 25:0.018274 26:-0.263965 27:-0.42837 28:0.803717 29:0.333832 30:0.151462 
0.9639173334845706 1:5.868748 2:1.464234 3:0.306512 4:0.268846 5:-0.090117 6:0.532204 7:-0.56916 8:0.080113 9:-0.678837 10:-0.697281 11:-0.632031 12:-0.037994 13:-0.371877 14:-0.049086 15:-0.801821 16:0.000703 17:-0.016706 18:-0.060939 19:-0.194717 20:-0.088947 21:-0.039854 22:-0.090089 23:0.385644 24:0.001567 25:0.099556 26:0.026989 27:-0.259282 28:-0.197125 29:0.614097 30:-0.338811 
0.8210014845168746 1:5.830167 2:-0.920782 3:0.765412 4:0.125257 5:-0.169254 6:-0.187327 7:0.373323 8:-0.183761 9:0.053749 10:-0.219077 11:-0.666584 12:-0.413909 13:-0.073874 14:0.037457 15:-0.614828 16:-0.1545 17:0.384224 18:-0.01148 19:0.259121 20:-0.92286 21:-0.537034 22:0.249238 23:0.422429 24:-0.317916 25:-0.04187 26:-0.112361 27:-0.150498 28:-0.673201 29:0.964662 30:0.13094 
5.200038598889045 1:6.056721 2:-0.14089 3:-0.302212 4:0.571122 5:-0.105024 6:-0.911132 7:-0.117966 8:-0.095692 9:0.145264 10:0.0992 11:0.099268 12:-0.055196 13:0.098153 14:0.048115 15:-0.262151 16:-0.170769 17:0.260602 18:-0.124863 19:-0.026424 20:-0.500405 21:-0.312537 22:0.095615 23:0.492075 24:0.372557 25:0.414068 26:0.265864 27:-0.026806 28:-0.154272 29:0.044531 30:-0.019386 
3.91162624087095 1:5.902661 2:-0.216695 3:-0.052538 4:0.905191 5:-0.042509 6:-0.947204 7:0.298537 8:-0.152331 9:-0.205648 10:-0.267462 11:-0.080523 12:0.038758 13:0.509503 14:0.037378 15:-0.162783 16:-0.103694 17:0.161298 18:-0.218729 19:-0.173071 20:-0.003076 21:0.002485 22:-0.096643 23:0.103063 24:0.23933 25:0.484847 26:-0.017105 27:-0.074149 28:-0.067497 29:0.287888 30:-0.068955 
0.1268989746098609 1:5.904298 2:-0.243717 3:0.024229 4:0.914087 5:-0.021405 6:-0.950247 7:0.315421 8:0.113449 9:-0.178707 10:-0.263317 11:-0.091556 12:0.276491 13:0.436184 14:0.013609 15:-0.213099 16:-0.045282 17:0.204558 18:0.168833 19:-0.179382 20:-0.046307 21:0.042716 22:0.086253 23:0.093768 24:-0.162832 25:0.53857 26:-0.0112 27:0.092664 28:0.002875 29:0.279459 30:-0.085928 
8 1:6.066009 2:0.221414 3:0.034404 4:-0.02389 5:-0.039778 6:-0.304556 7:-0.256729 8:-0.479021 9:-0.558877 10:-0.338767 11:-0.692542 12:0.275015 13:0.303967 14:-0.121836 15:0.089806 16:-0.272257 17:0.287993 18:-0.191767 19:-0.033787 20:-0.423974 21:0.0911 22:0.358582 23:-0.048777 24:0.143724 25:-0.220994 26:-0.40759 27:-0.132837 28:-0.051816 29:0.041827 30:0.025135 
6.626004030581442 1:5.921874 2:-0.455769 3:0.363354 4:-0.837357 5:-0.449021 6:0.381369 7:0.328677 8:0.376666 9:0.035033 10:-0.515499 11:-1.014917 12:0.08525 13:-0.063542 14:-0.333507 15:-0.046557 16:-0.684757 17:0.21569 18:0.054746 19:-0.070906 20:0.323888 21:-0.108343 22:-0.024605 23:0.631459 24:-0.178642 25:0.314442 26:-0.032028 27:-0.078205 28:0.364054 29:0.48743 30:0.302664 
7.653614356942324 1:5.901972 2:-0.43882 3:-0.341928 4:-0.86228 5:0.475598 6:0.286339 7:0.314279 8:-0.46685 9:0.038415 10:-0.512143 11:-1.016543 12:-0.127081 13:-0.012766 14:0.359468 15:-0.397038 16:0.506065 17:0.194431 18:-0.118247 19:-0.076748 20:-0.455692 21:-0.162328 22:0.188441 23:0.548925 24:0.176185 25:0.257109 26:-0.046 27:0.109985 28:-0.466634 29:0.267501 30:-0.519257 
2.933779018720657 1:5.699485 2:-0.199614 3:0.001273 4:0.345649 5:0.029978 6:-1.211952 7:-0.106351 8:-0.109857 9:0.734511 10:-0.128849 11:-0.538128 12:0.062356 13:-0.144743 14:-0.020238 15:-0.243706 16:0.281983 17:0.13006 18:0.123385 19:0.436876 20:0.104237 21:-0.693333 22:0.458028 23:0.259199 24:-0.334028 25:0.018038 26:0.482019 27:0.149277 28:-0.368473 29:-0.237967 30:-0.274583 
4.266116766533176 1:5.700721 2:-0.215132 3:0.002724 4:0.359424 5:-0.193467 6:-1.212486 7:-0.100574 8:0.141862 9:0.728815 10:-0.10961 11:-0.542706 12:-0.153824 13:-0.075988 14:0.030304 15:-0.013328 16:-0.412575 17:0.141215 18:-0.187563 19:0.448082 20:0.076795 21:-0.80451 22:0.184152 23:0.25947 24:0.329869 25:-0.011886 26:0.461838 27:-0.200234 28:0.422014 29:-0.003134 30:0.387035 
4.459259626860563 1:5.86 2:-0.640582 3:-0.224768 4:0.623902 5:0.190753 6:-0.876877 7:0.622125 8:-0.141376 9:0.340453 10:-0.442823 11:-0.217936 12:-0.044161 13:0.659871 14:0.074769 15:0.45865 16:0.076719 17:-0.116978 18:0.158451 19:0.183713 20:-0.043315 21:-0.23013 22:0.083582 23:0.174234 24:-0.254713 25:0.473816 26:-0.19925 27:-0.027746 28:-0.115245 29:0.137775 30:0.158434 
2.825268711992726 1:5.866167 2:-0.624774 3:0.208147 4:0.662952 5:-0.236338 6:-0.844801 7:0.629641 8:0.077599 9:0.332442 10:-0.445524 11:-0.255013 12:0.456004 13:0.494721 14:-0.129299 15:0.406299 16:0.199264 17:-0.132889 18:-0.13617 19:0.177548 20:0.037419 21:-0.206974 22:0.10351 23:0.177488 24:0.298443 25:0.470216 26:-0.172996 27:0.081122 28:0.092507 29:0.082126 30:-0.194372 
8 1:5.872104 2:0.391398 3:0.377421 4:0.564038 5:-0.35482 6:-0.838362 7:-0.457529 8:0.199308 9:0.351857 10:0.293903 11:0.228084 12:-0.474017 13:0.351027 14:-0.062217 15:-0.07172 16:-0.064471 17:0.504857 18:-0.245416 19:0.181423 20:-0.449487 21:-0.258607 22:0.378151 23:0.48223 24:-0.093064 25:0.256297 26:0.156478 27:0.488992 28:-0.533514 29:0.079183 30:-0.422668 
8 1:6.097889 2:-0.137869 3:-0.232435 4:-0.040346 5:-0.249175 6:-0.01984 7:-0.186238 8:0.457868 9:-0.020833 10:0.344684 11:0.24408 12:0.305053 13:0.252996 14:0.37484 15:0.242979 16:0.594653 17:-0.311221 18:0.193165 19:0.009068 20:0.392639 21:-0.343784 22:-0.298742 23:-0.545597 24:-0.042915 25:-0.100216 26:0.281154 27:0.481759 28:0.164374 29:-0.72159 30:0.296777 
7.87026067231188 1:6.097201 2:-0.10789 3:0.24506 4:-0.040422 5:0.239703 6:-0.05358 7:-0.212948 8:-0.452062 9:-0.02172 10:0.344971 11:0.234157 12:-0.068171 13:0.39121 14:-0.435752 15:0.501977 16:-0.330804 17:-0.263651 18:-0.100717 19:0.045466 20:-0.197046 21:-0.14167 22:0.491988 23:-0.695319 24:0.044591 25:-0.074639 26:0.194894 27:-0.56897 28:-0.061169 29:-0.719581 30:0.061323 
8 1:6.142805 2:-0.390274 3:0.17188 4:-0.24545 5:-0.350038 6:-0.131004 7:-0.264444 8:0.347886 9:0.044259 10:-0.399073 11:0.267399 12:-0.016899 13:0.316385 14:-0.150646 15:-0.066722 16:0.069215 17:0.31617 18:-0.138281 19:0.023678 20:-0.136976 21:-0.012437 22:0.239785 23:-0.303551 24:-0.370139 25:0.07671 26:0.123079 27:-0.405192 28:-0.197075 29:-0.031587 30:0.047945 
8 1:6.137937 2:-0.392352 3:-0.169703 4:-0.248618 5:0.313546 6:-0.172525 7:-0.290258 8:-0.322298 9:0.048122 10:-0.396432 11:0.277833 12:0.197421 13:0.234106 14:0.155175 15:-0.018763 16:-0.095991 17:0.313411 18:0.143674 19:-0.012778 20:0.218244 21:-0.132725 22:-0.206052 23:-0.24481 24:0.346342 25:0.040197 26:0.224274 27:0.382677 28:0.165728 29:-0.069231 30:-0.022224 
0.8002181894498963 1:5.537951 2:1.28952 3:-0.069995 4:0.326296 5:0.122141 6:-0.499493 7:-0.411355 8:0.519633 9:-0.325448 10:-0.145025 11:-0.515316 12:0.304769 13:0.451222 14:0.10549 15:-0.944524 16:-0.698175 17:0.387503 18:-0.363728 19:0.592039 20:0.436837 21:0.163224 22:-0.011987 23:-0.610261 24:-0.452554 25:0.085293 26:-0.461441 27:-0.161241 28:0.413558 29:0.41877 30:-0.150593 
4.642294761899286 1:5.520452 2:0.208641 3:0.284765 4:1.548436 5:-0.989155 6:-1.52117 7:-0.789807 8:0.467428 9:-0.212589 10:-0.259917 11:0.778943 12:0.227899 13:-0.051166 14:0.572555 15:-0.909529 16:-0.396464 17:-0.020935 18:0.091697 19:-0.213587 20:0.482399 21:0.227844 22:0.177507 23:-0.373192 24:-0.414886 25:-0.481923 26:-0.108248 27:0.048913 28:-0.008189 29:0.133373 30:0.022109 
2.291647886030056 1:5.433214 2:-0.780237 3:-0.018566 4:0.983208 5:-0.127015 6:-0.933617 7:-0.179735 8:-0.280584 9:-0.140361 10:0.001015 11:-0.211024 12:-0.059919 13:-0.537089 14:0.332182 15:-1.201943 16:-0.662374 17:-0.356378 18:0.256569 19:-0.271296 20:0.251622 21:0.621076 22:-0.5536 23:-0.670664 24:0.529294 25:-0.553089 26:-0.674285 27:0.230162 28:0.639806 29:-0.717913 30:0.452378 
1.199511879323212 1:5.899321 2:1.079779 3:-0.145221 4:-0.303046 5:0.169497 6:0.239974 7:-0.120362 8:-0.334478 9:-0.356457 10:-0.052822 11:-0.421609 12:-0.034825 13:-0.107469 14:0.198529 15:-0.463739 16:-0.135178 17:0.373259 18:-0.088126 19:0.569825 20:-0.062739 21:-0.182063 22:0.026248 23:-0.039956 24:0.126281 25:0.048612 26:0.117211 27:0.145099 28:-0.095411 29:0.339489 30:-0.210345 
1.388492990493453 1:5.898222 2:-0.536553 3:-0.346067 4:0.313886 5:-0.286911 6:-0.662039 7:-0.064797 8:-0.325376 9:0.118622 10:-0.062223 11:-0.666986 12:-0.295925 13:-0.186728 14:0.066592 15:-1.000098 16:-0.145395 17:0.32996 18:-0.27107 19:-0.200796 20:-0.107389 21:0.719414 22:-0.651863 23:-0.87897 24:0.408747 25:-0.293019 26:-0.273451 27:0.125556 28:-0.514498 29:-0.33216 30:-0.289976 
0.8124117276156635 1:5.837931 2:0.483269 3:0.586993 4:0.313165 5:-0.09554 6:-1.123073 7:-0.224032 8:-0.209658 9:0.162719 10:0.07175 11:-0.549308 12:0.171757 13:-0.111735 14:0.157101 15:-0.753909 16:-0.804721 17:0.439806 18:0.081598 19:0.134017 20:0.004704 21:0.959191 22:0.213973 23:-0.743562 24:-0.436248 25:-0.318121 26:-0.457493 27:-0.159345 28:0.124138 29:0.260109 30:0.058846 
0.3203527065929394 1:5.791109 2:0.880879 3:-0.452555 4:0.056101 5:-0.153996 6:-0.120972 7:0.076858 8:-0.000513 9:-0.555646 10:-0.182057 11:-0.242182 12:-0.060036 13:-0.476349 14:0.150245 15:-0.531393 16:-0.209732 17:-0.057368 18:-0.006875 19:0.85642 20:0.10148 21:-0.391764 22:0.07167 23:-0.365803 24:-0.105075 25:-0.029501 26:-0.381214 27:0.021698 28:0.386543 29:0.417008 30:-0.12517 
8 1:5.917479 2:-0.036778 3:0.164885 4:0.586302 5:-0.416705 6:-0.22197 7:-0.361379 8:-0.303539 9:0.289643 10:0.111315 11:-0.098539 12:-0.294018 13:-0.161963 14:-0.752498 15:-0.751275 16:0.113915 17:-0.322313 18:-0.461291 19:-0.212793 20:0.291712 21:0.374558 22:0.264295 23:0.206465 24:-0.021497 25:-0.659289 26:0.543353 27:-0.005737 28:0.16675 29:-0.531249 30:0.196358 
8 1:5.914979 2:-0.03284 3:-0.171181 4:0.562048 5:0.411292 6:-0.283184 7:-0.32616 8:0.347282 9:0.288247 10:0.110788 11:-0.115442 12:0.128048 13:-0.314785 14:0.783031 15:-0.450778 16:-0.588897 17:-0.315178 18:0.444242 19:-0.249668 20:-0.404098 21:0.007674 22:-0.322762 23:0.18128 24:-0.073758 25:-0.66774 26:0.546478 27:-0.125841 28:-0.047738 29:-0.61601 30:0.106284 
5.074908662596419 1:5.631995 2:0.279078 3:-0.79428 4:0.681303 5:-0.37787 6:0.051643 7:-0.247483 8:0.166963 9:-0.417539 10:0.66968 11:0.101183 12:-0.894887 13:-0.754348 14:0.888765 15:-0.575549 16:0.665002 17:-0.219975 18:0.56358 19:-0.124351 20:-0.358878 21:0.416605 22:-0.806077 23:-0.306117 24:0.283035 25:-0.165249 26:0.24712 27:-0.171339 28:-0.625398 29:0.039169 30:-0.334097 
1.801168574545355 1:5.343995 2:0.781331 3:0.358538 4:0.835724 5:0.790512 6:0.224782 7:-0.221789 8:0.08075 9:-0.605585 10:0.195687 11:-0.056346 12:-0.574881 13:-1.286613 14:-0.549881 15:-0.618023 16:-0.92956 17:0.082826 18:-0.553005 19:-0.034887 20:-0.129234 21:0.590027 22:0.602538 23:-1.015275 24:-0.455661 25:-0.114773 26:-0.195021 27:-0.535317 28:0.020133 29:0.024704 30:0.015675 
0.7911721621010703 1:5.329056 2:0.736687 3:-0.355417 4:0.892686 5:-0.722185 6:0.311676 7:-0.234333 8:-0.039643 9:-0.584876 10:0.192956 11:-0.036092 12:-0.344855 13:-1.384328 14:0.628195 15:-1.054877 16:0.417397 17:0.067522 18:0.574494 19:-0.096829 20:0.20097 21:0.040118 22:-0.913868 23:-0.875622 24:0.464609 25:-0.198142 26:-0.063619 27:0.545948 28:-0.033728 29:-0.043558 30:-0.056108 
0.7520091229783659 1:5.580563 2:-0.138712 3:-0.445951 4:0.932783 5:-0.357758 6:-0.266164 7:-0.416713 8:-0.039917 9:0.127567 10:0.068951 11:-0.233203 12:-0.88535 13:-0.133608 14:0.694687 15:-0.871727 16:0.475834 17:-0.385378 18:0.745122 19:0.014414 20:-0.336306 21:0.431836 22:-0.776187 23:0.279102 24:0.547166 25:0.638673 26:-0.329083 27:0.100086 28:-0.605582 29:0.444628 30:-0.331353 
3.266468816563766 1:5.591658 2:-0.11028 3:0.456999 4:0.877049 5:0.353714 6:-0.309298 7:-0.402474 8:0.095896 9:0.108977 10:0.045253 11:-0.264368 12:0.646598 13:-0.637574 14:-0.591391 15:-0.442658 16:-0.914882 17:-0.414525 18:-0.687209 19:0.048354 20:0.05406 21:0.918549 22:0.254201 23:0.23987 24:-0.505559 25:0.752645 26:-0.350611 27:-0.029838 28:0.470295 29:0.646158 30:0.10387 
1.721276332301105 1:5.263699 2:0.396245 3:0.286011 4:0.345254 5:0.293455 6:-0.039336 7:-0.066345 8:0.428972 9:-0.814401 10:0.64522 11:-0.346625 12:-0.317091 13:-0.170998 14:-0.193782 15:-0.175643 16:-0.632856 17:0.031707 18:0.106259 19:0.199586 20:0.742428 21:1.062698 22:0.529593 23:-0.99461 24:-0.982717 25:0.344986 26:-0.255696 27:-0.510833 28:0.247156 29:-0.504955 30:0.268189 
2.677623289095668 1:5.617124 2:0.066332 3:0.74798 4:-0.019036 5:-0.653918 6:0.256333 7:0.399189 8:-0.183027 9:-0.493774 10:-0.016152 11:-0.709597 12:-0.510551 13:-0.820195 14:0.469097 15:-0.505416 16:0.091283 17:-0.039025 18:-0.361362 19:0.234628 20:-0.031348 21:0.578054 22:-0.34764 23:-0.037673 24:0.027525 25:0.098006 26:-0.461073 27:0.102288 28:0.246492 29:-0.424047 30:0.326922 
3.903938785697698 1:5.604562 2:0.055207 3:-0.755987 4:-0.097767 5:0.728337 6:0.169332 7:0.378391 8:0.100308 9:-0.467657 10:-0.018875 11:-0.708166 12:-0.086253 13:-0.953551 14:-0.491939 15:-0.427967 16:-0.42274 17:0.023302 18:0.406283 19:0.240768 20:-0.161179 21:0.651999 22:-0.109022 23:-0.062804 24:-0.01503 25:0.083046 26:-0.502086 27:-0.092936 28:-0.247234 29:-0.605512 30:-0.048588 
4.442149758468603 1:5.452301 2:1.052551 3:-0.75667 4:0.115333 5:0.0167 6:-0.754268 7:0.05194 8:0.614788 9:-0.070153 10:-0.000204 11:0.307555 12:0.884621 13:0.539757 14:0.134407 15:0.075529 16:-0.235685 17:-0.381306 18:0.097686 19:-0.47055 20:-0.287368 21:0.942338 22:0.239429 23:-0.261673 24:-0.585772 25:0.570803 26:-0.03814 27:-0.283079 28:0.10635 29:-0.161892 30:-0.161084 
2.370772703041671 1:5.45846 2:1.071341 3:0.763786 4:0.150853 5:-0.155957 6:-0.762999 7:0.00634 8:-0.61115 9:-0.057498 10:0.016323 11:0.328077 12:-0.387848 13:0.967295 14:-0.109918 15:-0.081895 16:0.236509 17:-0.404028 18:-0.071781 19:-0.44591 20:-0.028666 21:0.54288 22:-0.829807 23:-0.201843 24:0.651759 25:0.504136 26:0.013246 27:0.298707 28:-0.041584 29:-0.237858 30:0.222422 
3.504489180618847 1:5.522825 2:0.359061 3:1.058074 4:0.122845 5:-0.18704 6:-0.396782 7:-0.323575 8:0.239677 9:-0.23483 10:0.139136 11:-0.219838 12:-0.044624 13:0.581358 14:0.937611 15:-0.632832 16:0.34409 17:0.346654 18:0.016519 19:-0.927474 20:-0.194739 21:0.320651 22:-0.964679 23:-0.731509 24:0.249537 25:-0.094651 26:0.098714 27:0.528125 28:0.423372 29:-0.454874 30:-0.439838 
3.107881351072135 1:5.520824 2:0.354933 3:-1.056635 4:0.063396 5:0.139313 6:-0.406779 7:-0.358201 8:-0.226483 9:-0.213336 10:0.152256 11:-0.217178 12:0.41148 13:0.475428 14:-0.852959 15:-0.415419 16:-0.655597 17:0.37245 18:-0.052035 19:-0.89895 20:0.164834 21:0.918026 22:0.400921 23:-0.794891 24:-0.228533 25:-0.046895 26:0.012825 27:-0.547974 28:-0.39207 29:-0.10395 30:0.613621 
1.34439514541682 1:5.584955 2:1.008009 3:0.112313 4:-0.277644 5:-0.165784 6:0.652308 7:0.131694 8:-0.348247 9:-0.601235 10:-0.020288 11:-0.414722 12:0.16429 13:-0.357509 14:-0.58487 15:-0.290031 16:-0.536395 17:0.353843 18:-0.26906 19:0.069877 20:0.05104 21:0.331382 22:-0.355897 23:0.083403 24:0.234885 25:0.084173 26:-0.637335 27:0.178794 28:-0.242323 29:-0.065159 30:0.377136 
1.502182795117067 1:5.955197 2:1.121332 3:-0.49558 4:-0.125747 5:-0.010305 6:-0.763357 7:-0.177431 8:0.331628 9:0.026417 10:0.278473 11:0.025882 12:-0.080371 13:-0.331211 14:-0.001645 15:0.805102 16:0.310552 17:-0.551498 18:-0.16177 19:0.381126 20:0.299983 21:0.409423 22:0.108243 23:-0.059403 24:0.314129 25:0.642089 26:-0.282078 27:0.078876 28:0.192106 29:0.178001 30:-0.172544 
1.651665157201453 1:5.951133 2:0.302756 3:-0.250063 4:0.185813 5:-0.390049 6:-1.245479 7:-0.035938 8:-0.154086 9:-0.246213 10:0.322239 11:-0.117923 12:0.011134 13:-0.19473 14:-0.191802 15:0.728657 16:0.046758 17:-0.049784 18:-0.067086 19:0.10225 20:0.319702 21:0.453554 22:-0.16041 23:-0.068786 24:-0.053754 25:1.071278 26:0.162109 27:0.227572 28:1.257813 29:0.178024 30:0.228709 
2.711403214775828 1:5.564833 2:-0.243168 3:0.747312 4:0.565802 5:0.049389 6:-1.096075 7:-0.244087 8:0.108429 9:-0.393752 10:-0.01612 11:-0.207172 12:-0.190748 13:0.211062 14:0.54585 15:0.234129 16:-0.181161 17:-0.108363 18:0.051983 19:0.23327 20:-0.290901 21:0.330264 22:-0.230726 23:-0.288672 24:-0.277265 25:1.000826 26:0.405309 27:-0.187493 28:-0.375491 29:-0.670096 30:-0.090815 
3.173340466135504 1:5.653222 2:1.281898 3:0.545285 4:0.39773 5:-0.135301 6:-1.690896 7:-0.462176 8:0.253738 9:-0.504455 10:-0.310939 11:0.527995 12:-0.271296 13:-0.08129 14:-0.271727 15:0.205051 16:-0.0983 17:-0.707656 18:0.186623 19:-0.098595 20:-0.281373 21:0.308745 22:0.373784 23:-0.200373 24:-0.176908 25:0.425416 26:-0.349805 27:0.031272 28:0.174341 29:0.417425 30:-0.330544 
4.520174315111448 1:5.746412 2:0.295268 3:-0.321627 4:0.381197 5:0.3531 6:-1.287321 7:-0.142465 8:0.185821 9:0.360612 10:0.049674 11:0.025814 12:0.119045 13:0.684078 14:0.241104 15:-0.074213 16:0.840658 17:-0.167962 18:0.275854 19:-0.016993 20:-0.17126 21:0.217297 22:-0.076394 23:0.225141 24:-0.8208 25:1.091595 26:0.174686 27:0.361163 28:0.626781 29:-0.275977 30:0.123292 
2.140818514172296 1:5.744627 2:0.300523 3:0.312768 4:0.422385 5:-0.488785 6:-1.244608 7:-0.1757 8:-0.177762 9:0.329753 10:0.041232 11:0.003964 12:0.343502 13:0.62124 14:-0.242702 15:0.403044 16:-0.741015 17:-0.163767 18:-0.290597 19:0.030373 20:-0.036085 21:0.241512 22:-0.023936 23:0.222456 24:0.907735 25:1.03605 26:0.140311 27:-0.410376 28:-0.589165 29:-0.355544 30:0.006409 
4.872799125332201 1:5.857886 2:0.737132 3:-0.305839 4:0.430621 5:-0.136216 6:-1.198389 7:-0.61919 8:0.273116 9:0.15401 10:0.380716 11:0.40689 12:0.92324 13:-0.069116 14:-0.669778 15:0.43846 16:0.086001 17:-0.313058 18:0.08568 19:-0.020118 20:0.601522 21:-0.120969 22:-0.216702 23:0.107466 24:0.818151 25:0.625223 26:0.175149 27:-0.448237 28:0.027845 29:-0.094514 30:0.305919 
3.536016668870373 1:5.910145 2:1.441764 3:0.290506 4:0.193168 5:-0.219358 6:-0.909603 7:-0.36519 8:0.044943 9:-0.154628 10:0.082433 11:-0.150863 12:-0.233736 13:-0.476587 14:0.08431 15:0.095378 16:-0.071899 17:-0.661802 18:0.137129 19:0.194984 20:0.331564 21:0.263443 22:-0.306925 23:0.25471 24:-0.716681 25:0.36944 26:-0.25658 27:-0.042822 28:-0.419824 29:0.085458 30:0.116976 
0.2256733762022064 1:5.910087 2:1.444348 3:-0.296193 4:0.182897 5:0.064983 6:-0.9462 7:-0.388216 8:-0.012263 9:-0.160966 10:0.062073 11:-0.197352 12:-0.097029 13:-0.522723 14:-0.124218 15:0.034649 16:0.103335 17:-0.68389 18:-0.041932 19:0.19114 20:-0.512819 21:0.304806 22:0.074265 23:0.166586 24:0.672288 25:0.275202 26:-0.273279 27:0.10847 28:0.394721 29:0.064218 30:-0.149992 
0.1854902185802687 1:5.27217 2:0.31126 3:-0.257131 4:0.098319 5:-0.147571 6:-0.879729 7:-0.015684 8:-0.695425 9:-0.323386 10:-0.180313 11:-1.174817 12:0.291235 13:-0.140957 14:0.617313 15:-0.653936 16:-0.412067 17:0.287295 18:0.239972 19:-0.168779 20:0.335905 21:0.793934 22:-0.519782 23:-0.855034 24:0.833611 25:-0.236461 26:-0.328077 27:0.087904 28:0.040833 29:-0.405922 30:0.100898 
2.223852162194002 1:5.467982 2:0.892028 3:-0.200644 4:-0.087315 5:-0.015395 6:-0.672124 7:0.452531 8:-0.488278 9:0.034849 10:-0.444455 11:-0.725039 12:0.747296 13:-0.146938 14:-0.09856 15:-1.031789 16:0.080228 17:-0.008097 18:-0.097396 19:-0.209917 20:-0.210862 21:0.406169 22:-0.402488 23:-1.402329 24:0.232049 25:-0.014614 26:-0.078162 27:0.106192 28:-0.197471 29:-0.225033 30:0.082063 
4.30435728931095 1:6.188843 2:0.188772 3:0.018597 4:-0.03265 5:-0.520865 6:-0.307568 7:0.484691 8:0.191723 9:-0.189987 10:0.274483 11:-0.499651 12:0.011464 13:0.099577 14:-0.062188 15:-0.275587 16:0.232861 17:-0.220713 18:0.021828 19:0.142971 20:-0.18454 21:0.088568 22:0.218121 23:0.076531 24:-0.047165 25:0.787846 26:-0.188905 27:-0.048724 28:0.058681 29:-0.036048 30:0.132831 
5.580161771529272 1:6.188378 2:0.185688 3:-0.028047 4:-0.065155 5:0.452736 6:-0.378247 7:0.448173 8:-0.23181 9:-0.187055 10:0.293272 11:-0.455235 12:0.065306 13:0.094869 14:0.086359 15:-0.066738 16:-0.349951 17:-0.228481 18:0.003993 19:0.134371 20:0.136711 21:-0.048867 22:-0.223924 23:0.142085 24:0.110783 25:0.779809 26:-0.156168 27:0.077181 28:-0.107065 29:-0.109005 30:-0.144696 
8 1:6.167055 2:0.293948 3:-0.345457 4:-0.039806 5:0.131083 6:-0.485693 7:0.006009 8:-0.256037 9:-0.074799 10:-0.055025 11:0.163619 12:-0.021432 13:0.654088 14:-0.100095 15:0.248093 16:0.317455 17:0.023153 18:0.543121 19:0.215321 20:0.306753 21:-0.166887 22:-0.086243 23:-0.098535 24:0.437276 25:0.085017 26:-0.378766 27:0.05945 28:0.243767 29:0.389163 30:-0.074803 
1.047684053703541 1:5.886393 2:0.531031 3:-0.243909 4:-0.09149 5:0.044406 6:-0.810048 7:-0.788195 8:-0.198686 9:-0.499358 10:-0.093856 11:0.293051 12:-0.157408 13:0.403836 14:0.116747 15:0.518535 16:0.566216 17:-0.296115 18:-0.179717 19:0.128948 20:-0.638678 21:0.30358 22:-0.189204 23:-0.130393 24:-0.268267 25:0.488989 26:-0.17838 27:-0.398258 28:-0.084349 29:0.071058 30:0.150184 
3.149880277776349 1:5.46443 2:-0.555525 3:-0.212526 4:1.150701 5:-1.076611 6:-1.03463 7:-0.100535 8:-0.325223 9:-0.482749 10:0.013379 11:-0.522573 12:0.539789 13:0.339329 14:-0.457038 15:-0.440199 16:-0.041565 17:0.532499 18:-0.345212 19:0.448043 20:-0.114883 21:-0.169425 22:0.710826 23:-0.002388 24:-0.702904 25:-0.896589 26:-0.090641 27:-0.064257 28:-0.061033 29:-0.128599 30:0.213932 
3.608138573586909 1:5.791883 2:-0.584498 3:-0.205772 4:0.327276 5:-0.184412 6:-1.933456 7:0.065219 8:-0.103547 9:0.653137 10:0.357681 11:0.362095 12:0.064417 13:0.674935 14:-0.133528 15:0.924304 16:0.16013 17:-0.262846 18:0.050316 19:-0.445906 20:0.108118 21:0.174912 22:0.040452 23:-0.081114 24:-0.22135 25:-0.054982 26:-0.079834 27:-0.180266 28:0.36838 29:-0.160838 30:0.053309 
1.754128981107347 1:5.783351 2:-0.58106 3:0.209363 4:0.354526 5:-0.080476 6:-1.951133 7:0.073314 8:0.132465 9:0.677117 10:0.362692 11:0.344946 12:0.362808 13:0.573407 14:-0.000437 15:0.847725 16:0.387288 17:-0.283412 18:-0.023412 19:-0.472864 20:-0.158253 21:0.041875 22:-0.146383 23:-0.090939 24:0.19741 25:-0.079866 26:-0.03143 27:0.188875 28:-0.325436 29:-0.202559 30:0.068922 
1.87496585729939 1:5.899323 2:-0.536839 3:-0.773134 4:0.071824 5:0.456653 6:-0.666385 7:-0.565651 8:0.085566 9:-0.053245 10:-0.102822 11:0.256327 12:0.083875 13:0.187496 14:0.198928 15:-0.06895 16:0.514222 17:0.252086 18:0.065662 19:0.190555 20:-0.669435 21:-0.353567 22:0.412414 23:0.263642 24:-0.028628 25:-1.263713 26:-0.200024 27:0.41994 28:-0.24174 29:-0.257508 30:-0.360894 
0.6978528232947188 1:5.752755 2:0.093042 3:0.158817 4:-0.413978 5:-0.146513 6:-0.586346 7:0.122468 8:0.107912 9:0.487879 10:0.087961 11:0.211271 12:-0.323936 13:-0.518272 14:0.434739 15:-0.192588 16:0.161881 17:0.2946 18:0.497593 19:0.406697 20:-0.429153 21:-0.532383 22:0.394099 23:1.44396 24:0.739187 25:-0.398272 26:-0.259768 27:0.476238 28:0.357051 29:0.34787 30:-0.122404 
1.720680450362554 1:5.743589 2:0.101465 3:-0.16694 4:-0.438423 5:0.04417 6:-0.575586 7:0.132648 8:-0.099234 9:0.47998 10:0.085881 11:0.227225 12:-0.058559 13:-0.598716 14:-0.472395 15:-0.049803 16:-0.32215 17:0.282679 18:-0.626992 19:0.432285 20:0.296341 21:-0.520195 22:0.113449 23:1.488844 24:-0.790028 25:-0.304342 26:-0.275406 27:-0.409585 28:-0.380336 29:0.354587 30:-0.066479 
3.26745058316976 1:5.423518 2:-0.200855 3:-0.04312 4:-0.108588 5:1.004405 6:-0.742803 7:0.336145 8:-0.001083 9:0.746863 10:0.669 11:0.958565 12:-0.151589 13:1.076506 14:1.088324 15:0.432347 16:1.050779 17:-0.661142 18:0.450957 19:-0.029905 20:0.09229 21:-0.47324 22:0.384538 23:0.146896 24:-0.014484 25:-0.274313 26:-0.325485 27:-0.414164 28:-0.891836 29:-0.295896 30:-0.085691 
6.076636147720266 1:5.529594 2:-0.462372 3:-1.084449 4:0.892301 5:-0.362207 6:-1.457471 7:-0.881721 8:-0.876824 9:0.339683 10:0.189738 11:0.387828 12:0.037427 13:-1.194566 14:-0.656703 15:0.44868 16:-0.281397 17:-0.10334 18:-0.321468 19:0.181018 20:0.190314 21:-0.144557 22:0.361806 23:0.293584 24:-0.234869 25:0.291343 26:0.138834 27:0.018644 28:0.134773 29:-0.03442 30:-0.068322 
6.277185919624269 1:5.528097 2:-0.457422 3:1.090808 4:0.867178 5:0.233769 6:-1.490023 7:-0.794345 8:0.978609 9:0.336359 10:0.186939 11:0.383861 12:-0.763094 13:-0.951191 14:0.516593 15:0.301794 16:0.459059 17:-0.121878 18:0.295241 19:0.109466 20:-0.182148 21:-0.389648 22:-0.137895 23:0.350969 24:0.301668 25:0.220274 26:0.134403 27:-0.046028 28:-0.134223 29:-0.097608 30:0.057545 
3.435562636914201 1:5.746449 2:-0.303496 3:0.60907 4:0.92061 5:-0.120147 6:-1.143972 7:-0.220096 8:0.285806 9:0.482173 10:0.178037 11:0.420861 12:-0.634715 13:0.939507 14:0.400633 15:0.62833 16:0.415848 17:-0.098197 18:-0.014101 19:0.397384 20:-0.235212 21:-0.522979 22:-0.075941 23:-0.467853 24:0.098437 25:0.107028 26:-0.567209 27:0.128751 28:0.063107 29:0.415014 30:0.449814 
2.285963634077875 1:5.741627 2:-0.287243 3:-0.603444 4:0.904914 5:0.045114 6:-1.137739 7:-0.265396 8:-0.233186 9:0.487774 10:0.18 11:0.437882 12:1.094784 13:0.372288 14:-0.470829 15:0.706568 16:0.000762 17:-0.065766 18:0.06032 19:0.424365 20:0.451042 21:-0.256678 22:0.320537 23:-0.428466 24:-0.035693 25:0.13512 26:-0.590476 27:-0.027705 28:-0.125686 29:0.195739 30:-0.640532 
3.942915399901901 1:5.985552 2:-0.041986 3:-0.302318 4:-0.463548 5:0.14966 6:0.5938 7:-0.168588 8:-0.147651 9:-0.079454 10:0.490307 11:-0.077062 12:0.183542 13:-0.154897 14:-0.114229 15:0.298974 16:0.175508 17:-0.830711 18:-0.12966 19:-0.08619 20:-0.608153 21:0.693788 22:0.148127 23:-0.425572 24:-0.210143 25:1.339666 26:0.045433 27:0.092944 28:0.063433 29:0.086153 30:0.107519 
1.573642462666823 1:5.982733 2:-0.051309 3:0.328057 4:-0.472644 5:-0.12078 6:0.604862 7:-0.155996 8:0.174654 9:-0.072429 10:0.508144 11:-0.040514 12:-0.235621 13:0.00038 14:0.107062 15:0.314604 16:0.078127 17:-0.832374 18:0.252986 19:-0.026972 20:0.439232 21:0.526319 22:-0.67211 23:-0.246648 24:0.384037 25:1.339516 26:0.002335 27:-0.110321 28:-0.082536 29:-0.003771 30:-0.155554 
8 1:5.96398 2:0.710228 3:-0.340417 4:0.718248 5:0.044314 6:-0.917969 7:-0.431613 8:0.344273 9:-0.324731 10:0.117738 11:0.428081 12:0.075138 13:0.041653 14:-0.381137 15:0.356282 16:-0.475271 17:-0.911467 18:-0.094015 19:-0.131029 20:0.296644 21:-0.089702 22:0.386731 23:0.287209 24:-0.164229 25:-0.000231 26:-0.480389 27:0.469057 28:0.022341 29:0.053218 30:-0.010719 
7.889514865611392 1:5.809734 2:0.556527 3:0.102246 4:0.439313 5:-0.737418 6:-0.576534 7:-0.62667 8:-0.381766 9:-0.256338 10:-0.073871 11:-0.09648 12:-0.095224 13:-0.308133 14:-0.827935 15:0.48742 16:-0.102425 17:0.2618 18:-0.189806 19:-0.193022 20:0.368775 21:-0.720586 22:-0.399825 23:0.357267 24:0.264799 25:-0.447609 26:0.472139 27:0.376728 28:0.248344 29:0.212541 30:0.16192 
7.545402998335032 1:5.805171 2:0.585067 3:-0.10411 4:0.383877 5:0.712279 6:-0.671214 7:-0.562559 8:0.440435 9:-0.275616 10:-0.102827 11:-0.101805 12:-0.15968 13:-0.354891 14:0.748991 15:0.418496 16:0.350189 17:0.266277 18:0.146031 19:-0.214316 20:-0.203428 21:-0.345147 22:0.823572 23:0.25432 24:-0.31213 25:-0.483305 26:0.402915 27:-0.415071 28:-0.255548 29:0.040191 30:-0.193944 
8 1:5.727617 2:1.310101 3:-0.03583 4:0.504824 5:-0.13203 6:-0.479397 7:0.005319 8:-0.195845 9:0.077088 10:0.071429 11:0.428848 12:0.138659 13:-0.149055 14:0.195401 15:0.216342 16:0.293264 17:-0.629373 18:0.136251 19:-0.17759 20:-0.041491 21:-0.63873 22:0.51913 23:-0.095998 24:-0.312576 25:0.374163 26:0.41611 27:0.221701 28:-0.051226 29:0.270423 30:0.341617 
5.622073592588087 1:5.819327 2:0.229157 3:-0.067435 4:0.545522 5:0.040347 6:-0.84523 7:0.180806 8:-0.53818 9:0.116596 10:0.670385 11:-0.018356 12:-0.552566 13:0.316136 14:0.1173 15:0.740764 16:0.859263 17:-0.010682 18:0.059188 19:0.22677 20:-0.684753 21:-0.183574 22:0.061852 23:-0.307508 24:0.103328 25:0.203768 26:-0.09877 27:0.225161 28:0.109041 29:-0.592433 30:0.033372 
8 1:5.883743 2:0.031626 3:0.212861 4:-0.547804 5:-0.053913 6:-1.11042 7:-0.585854 8:0.345375 9:0.644475 10:0.015922 11:0.183085 12:0.019287 13:0.135301 14:-0.062948 15:0.173615 16:-0.420309 17:-0.699703 18:-0.232279 19:0.148201 20:0.026361 21:-0.227796 22:-0.415041 23:-0.376045 24:0.41719 25:0.248757 26:0.003396 27:0.371268 28:-0.218135 29:0.025651 30:-0.127744 
6.506340886208084 1:5.881259 2:0.019088 3:-0.197519 4:-0.522436 5:-0.169968 6:-1.1301 7:-0.613854 8:-0.281978 9:0.656403 10:0.003816 11:0.14696 12:0.060493 13:0.122794 14:0.060452 15:-0.11186 16:0.447252 17:-0.674035 18:0.304885 19:0.119988 20:0.068234 21:0.117108 22:0.44777 23:-0.407468 24:-0.365897 25:0.322684 26:-0.026212 27:-0.377978 28:0.186804 29:0.137906 30:0.058934 
8 1:5.985966 2:-0.306732 3:-0.176006 4:0.108717 5:-0.639571 6:-0.857849 7:-0.058101 8:-0.059371 9:0.846813 10:0.316045 11:0.425676 12:0.322842 13:-0.955484 14:0.294781 15:0.711089 16:0.394123 17:-0.36674 18:-0.187659 19:0.186126 20:0.501965 21:-0.171886 22:0.407437 23:-0.320602 24:0.288378 25:-0.140456 26:-0.334844 27:0.077449 28:0.191766 29:0.094897 30:-0.143662 
1.701335481413711 1:6.29373 2:-0.439926 3:-0.079937 4:-0.503917 5:-0.024703 6:0.424898 7:-0.01189 8:-0.037394 9:-0.008945 10:0.183831 11:0.322057 12:0.433626 13:0.090842 14:-0.263468 15:0.278636 16:-0.240848 17:0.222459 18:0.042699 19:0.012438 20:0.20854 21:-0.568755 22:0.570875 23:0.136062 24:-0.169346 25:-0.978504 26:-0.103874 27:-0.006985 28:0.081976 29:-0.413264 30:0.049415 
5.237967751485835 1:6.09381 2:-0.660773 3:0.220587 4:-0.347848 5:0.037106 6:0.653061 7:-0.18052 8:0.350092 9:0.003773 10:0.440159 11:0.536524 12:0.297679 13:0.261846 14:-0.305352 15:0.611044 16:-0.025487 17:0.318096 18:0.073756 19:-0.036132 20:0.229933 21:-0.295776 22:0.320142 23:0.285875 24:-0.308355 25:-0.686016 26:0.155115 27:-0.163328 28:0.042377 29:0.218969 30:-0.061286 
3.737637031930682 1:5.967218 2:0.268633 3:0.255136 4:0.534335 5:-0.359844 6:-0.563703 7:0.402413 8:-0.271718 9:-0.151629 10:0.549922 11:0.28364 12:0.290257 13:1.012318 14:0.202717 15:-0.116647 16:-0.196723 17:0.478035 18:-0.083151 19:-0.195119 20:-0.200046 21:-0.512849 22:0.166992 23:0.413001 24:-0.342504 25:-0.843145 26:-0.005408 27:-0.362413 28:-0.529083 29:0.366451 30:0.11262 
4.809609416651404 1:5.545205 2:-0.384835 3:-0.42498 4:1.29857 5:0.465853 6:-0.966215 7:0.383345 8:0.544412 9:-0.533456 10:0.191765 11:-0.088712 12:0.370028 13:0.747082 14:0.212028 15:-1.705276 16:-0.224021 17:0.268809 18:0.169589 19:0.41632 20:-0.162977 21:-0.189662 22:-0.251443 23:0.195453 24:-0.186292 25:-0.764447 26:0.080263 27:-0.10135 28:-0.008291 29:-0.209516 30:0.11866 
8 1:6.152764 2:-0.464326 3:0.324872 4:0.603046 5:0.626853 6:-0.688851 7:0.229048 8:0.203522 9:-0.040733 10:0.101269 11:0.565179 12:0.072269 13:0.169167 14:0.141654 15:0.361182 16:0.069188 17:0.220835 18:-0.336039 19:0.063496 20:-0.074319 21:-0.51254 22:0.347028 23:-0.214967 24:-0.145661 25:-0.4068 26:0.231269 27:-0.292272 28:0.129959 29:-0.411454 30:0.152021 
3.288598076776295 1:6.145386 2:0.086221 3:-0.265589 4:0.428642 5:0.287821 6:-1.179745 7:-0.084205 8:0.148192 9:-0.015141 10:0.247652 11:0.451639 12:0.248315 13:0.582468 14:0.041254 15:0.256114 16:0.481365 17:0.127056 18:0.224765 19:0.049961 20:-0.027611 21:-0.253497 22:-0.118356 23:0.073725 24:-0.127053 25:-0.283293 26:0.018206 27:-0.057823 28:-0.618191 29:-0.535844 30:0.050389 
8 1:6.144921 2:0.078293 3:0.254797 4:0.453813 5:-0.411865 6:-1.142638 7:-0.067285 8:-0.120999 9:-0.0312 10:0.246234 11:0.413233 12:0.164345 13:0.606186 14:-0.075107 15:0.519755 16:-0.291493 17:0.125453 18:-0.228952 19:0.092537 20:0.054262 21:-0.072624 22:0.296834 23:0.019238 24:0.051162 25:-0.244974 26:-0.003534 27:0.042282 28:0.705762 29:-0.346834 30:0.171271 
7.649500561116033 1:6.029592 2:-0.534415 3:-0.476771 4:0.15086 5:0.019988 6:-0.401565 7:0.124345 8:-0.299329 9:-0.067835 10:0.293145 11:-0.091958 12:-0.139465 13:0.150245 14:0.195484 15:0.766693 16:-0.158037 17:-0.151998 18:-0.196898 19:-0.214351 20:-0.064774 21:-0.44943 22:-0.172786 23:0.469689 24:-0.261363 25:-0.743868 26:-0.008961 27:0.485846 28:0.165159 29:0.236141 30:-0.284957 
2.011787522173504 1:6.036373 2:-0.538356 3:0.472126 4:0.165441 5:-0.013765 6:-0.406656 7:0.145292 8:0.295346 9:-0.046798 10:0.279233 11:-0.117271 12:0.230318 13:0.047384 14:-0.316 15:0.499473 16:0.492106 17:-0.147299 18:0.18861 19:-0.203264 20:0.117785 21:-0.182669 22:0.413333 23:0.489145 24:0.175923 25:-0.775666 26:-0.085349 27:-0.477976 28:-0.205986 29:0.337541 30:0.188275 
8 1:6.253892 2:-0.148771 3:0.165611 4:-0.366553 5:-0.181034 6:-0.191357 7:-0.137821 8:0.401364 9:0.398785 10:0.280657 11:0.185741 12:-0.320652 13:-0.013592 14:-0.179697 15:0.689478 16:-0.200686 17:-0.285 18:-0.09871 19:-0.163735 20:0.041597 21:-0.268178 22:-0.204261 23:0.262017 24:-0.003734 25:-0.437564 26:0.017823 27:-0.049915 28:0.390198 29:0.054196 30:-0.061381 
8 1:5.824171 2:-0.381836 3:0.232907 4:-0.913628 5:-0.652322 6:1.103932 7:-0.320293 8:-0.049534 9:-0.175912 10:0.601378 11:0.0186 12:0.097748 13:0.205405 14:0.423042 15:0.252045 16:0.696323 17:0.230187 18:-0.054438 19:-0.051507 20:0.19757 21:-0.453435 22:-0.518951 23:0.048044 24:0.422857 25:0.248927 26:-0.105021 27:-0.043294 28:-0.025174 29:-0.037369 30:-0.360666 
8 1:5.976243 2:0.198931 3:0.292982 4:0.131258 5:-0.481282 6:-1.300189 7:-0.805876 8:-0.245815 9:0.253739 10:-0.0341 11:-0.417331 12:-0.304297 13:-0.180538 14:0.054597 15:-0.026899 16:-0.10129 17:0.261928 18:0.162637 19:0.070717 20:0.740991 21:-0.654854 22:-0.175369 23:-0.023948 24:-0.537933 25:-0.309516 26:-0.223509 27:-0.211283 28:-0.07005 29:-0.172122 30:-0.191579 
7.06930076110666 1:5.97932 2:0.201686 3:-0.289932 4:0.099095 5:0.283493 6:-1.3679 7:-0.77533 8:0.334217 9:0.255839 10:-0.045871 11:-0.440384 12:0.105653 13:-0.334589 14:-0.051883 15:-0.089246 16:0.029265 17:0.245371 18:-0.19353 19:0.085543 20:-0.460645 21:-0.527524 22:0.621186 23:-0.209721 24:0.518031 25:-0.378421 26:-0.211169 27:0.228503 28:0.074432 29:-0.080177 30:0.251191 
-0.6968142496968641 1:5.913334 2:1.864835 3:0.950856 4:0.45775 5:-0.351453 6:-0.334211 7:-0.969145 8:-0.785089 9:-0.066027 10:0.122153 11:-0.171468 12:-0.143245 13:0.270731 14:-0.737417 15:-0.289508 16:0.351234 17:-0.274889 18:0.19895 19:-0.033523 20:-0.355356 21:0.098196 22:0.252828 23:0.026557 24:0.121043 25:0.355724 26:-0.00927 27:0.166847 28:0.089473 29:-0.143911 30:-0.085124 
-2.504891440564909 1:6.361562 2:-0.198051 3:0.041578 4:-0.079223 5:0.035421 6:0.00618 7:-0.678856 8:-0.038515 9:0.124684 10:0.084203 11:-0.270612 12:-0.224177 13:0.152302 14:-0.255752 15:-0.365765 16:0.455791 17:0.245837 18:-0.25824 19:0.09815 20:0.007726 21:0.072108 22:0.003232 23:0.162446 24:-0.006984 25:-0.319666 26:0.103399 27:0.165627 28:-0.023035 29:0.031742 30:-0.005227 
-4.247981799578362 1:6.363813 2:-0.196478 3:-0.029095 4:-0.091028 5:-0.03633 6:0.014593 7:-0.65827 8:0.088345 9:0.115872 10:0.092496 11:-0.279851 12:0.269812 13:-0.025172 14:0.277865 15:-0.003933 16:-0.57989 17:0.262844 18:0.218013 19:0.099811 20:-0.055591 21:0.041936 22:-0.028402 23:0.163914 24:-0.015923 25:-0.32282 26:0.09996 27:-0.20437 28:0.031583 29:-0.008782 30:-0.011251 
-1.282846998341593 1:6.246839 2:-0.776628 3:-0.699498 4:0.121125 5:-0.01011 6:0.028313 7:-0.169112 8:-0.016874 9:0.530048 10:0.058917 11:-0.460596 12:0.115072 13:-0.212421 14:0.223543 15:0.22118 16:-0.182497 17:0.091125 18:-0.072269 19:0.095711 20:-0.453427 21:-0.020729 22:-0.098687 23:-0.162211 24:-0.336773 25:-0.071034 26:0.052573 27:0.090249 28:-0.007558 29:0.174475 30:0.185439 
-0.8040499801665263 1:5.76682 2:-0.02185 3:0.145028 4:-0.077758 5:0.728705 6:-0.636477 7:-0.584687 8:-0.971256 9:0.020677 10:-0.487252 11:0.910972 12:0.691465 13:0.350549 14:-0.236694 15:0.178445 16:-0.457317 17:0.318139 18:-0.060427 19:0.772095 20:-0.046583 21:-0.835981 22:-0.174286 23:-0.313925 24:0.315076 25:-0.032875 26:-0.038507 27:-0.187891 28:-0.260823 29:0.364746 30:0.058017 
-0.3575937229109443 1:5.764178 2:-0.046481 3:-0.146023 4:-0.015564 5:-0.820401 6:-0.503511 7:-0.49874 8:1.02825 9:0.006063 10:-0.500565 11:0.903961 12:-0.345743 13:0.676992 14:0.280496 15:-0.06166 16:0.523465 17:0.304087 18:0.053587 19:0.709752 20:0.329246 21:-0.431125 22:0.645443 23:-0.273097 24:-0.27138 25:-0.029946 26:0.019783 27:0.183096 28:0.203415 29:0.412025 30:-0.220432 
-0.2773771857161795 1:5.89025 2:-1.196063 3:-0.472212 4:0.272039 5:-0.151351 6:-0.261794 7:-0.179266 8:0.394933 9:0.767937 10:0.284835 11:-0.504124 12:-0.37202 13:0.170473 14:0.039527 15:0.39016 16:-0.505904 17:0.414043 18:-0.956258 19:0.031806 20:0.124104 21:0.515788 22:0.334857 23:-0.31503 24:-0.447041 25:0.748849 26:0.056333 27:-0.166377 28:0.122742 29:-0.483056 30:-0.182854 
-0.007339994144715352 1:5.311608 2:0.080341 3:-0.415755 4:1.257332 5:-0.913093 6:-0.856402 7:0.024121 8:-0.158008 9:-0.691401 10:0.246348 11:0.073948 12:-0.133785 13:-1.454792 14:-0.763028 15:0.70067 16:-0.2828 17:-0.281767 18:0.214832 19:-0.200037 20:0.359728 21:-0.240824 22:0.336991 23:0.099998 24:-0.218937 25:0.003107 26:-0.422926 27:0.478278 28:-0.468214 29:0.472727 30:-0.20075 
-8 1:6.305448 2:-0.133941 3:0.148481 4:-0.205231 5:-0.303251 6:0.292802 7:0.116314 8:0.359267 9:-0.049289 10:-0.441493 11:0.355993 12:0.164186 13:0.264495 14:-0.092535 15:0.048048 16:-0.122901 17:0.056096 18:-0.107845 19:0.160905 20:0.046666 21:-0.13562 22:0.111298 23:0.239412 24:-0.044378 25:-0.062082 26:-0.05639 27:-0.002589 28:-0.135233 29:0.317397 30:0.050256 
-0.3242414271906096 1:6.011992 2:-0.467356 3:-0.377548 4:0.314153 5:0.118098 6:-0.25826 7:0.277886 8:-0.4897 9:0.561324 10:-0.522812 11:-0.312792 12:-0.433628 13:-0.204773 14:0.14741 15:0.263921 16:-0.109163 17:0.352003 18:-0.275826 19:-0.006121 20:-0.294784 21:0.089573 22:0.206057 23:-0.035804 24:-0.292149 25:-0.029268 26:-0.144819 27:-0.457171 28:0.422911 29:-0.316541 30:0.203075 
-8 1:5.896613 2:-0.266356 3:-0.255607 4:-0.301849 5:0.241263 6:-0.433063 7:-0.271843 8:0.035889 9:0.641982 10:-0.551203 11:-0.66577 12:0.714344 13:0.574532 14:0.280278 15:-0.183954 16:-0.769128 17:-0.303307 18:0.064151 19:-0.165229 20:-0.062984 21:-0.366993 22:-0.087811 23:0.470178 24:-0.163838 25:0.147233 26:-0.216467 27:0.062209 28:-0.027548 29:0.051207 30:0.625843 
-0.04708455596529145 1:5.512451 2:-0.215548 3:-1.235193 4:0.742944 5:-0.208131 6:-0.133771 7:0.09785 8:0.928388 9:0.309384 10:0.356954 11:0.39244 12:-0.136808 13:0.376969 14:-0.203971 15:0.923919 16:0.066762 17:-0.539761 18:0.031868 19:0.073988 20:-0.439602 21:0.035706 22:0.021113 23:-0.312147 24:0.195118 25:-0.118945 26:0.410572 27:0.188267 28:0.12747 29:0.111648 30:0.48376 
-0.937588636233747 1:5.513502 2:-0.217263 3:1.224437 4:0.735791 5:0.234425 6:-0.208665 7:0.052851 8:-0.929605 9:0.302556 10:0.38107 11:0.431869 12:0.341407 13:0.196719 14:0.121786 15:0.791344 16:0.474533 17:-0.546334 18:0.040316 19:0.116023 20:0.472707 21:0.149366 22:-0.081977 23:-0.193902 24:-0.145419 25:-0.098344 26:0.383702 27:-0.239102 28:-0.083069 29:-0.094903 30:-0.448915 
-1.745564940527604 1:5.512451 2:-0.215548 3:-1.235193 4:0.742944 5:-0.208131 6:-0.133771 7:0.09785 8:0.928388 9:0.309384 10:0.356954 11:0.39244 12:-0.136808 13:0.376969 14:-0.203971 15:0.923919 16:0.066762 17:-0.539761 18:0.031868 19:0.073988 20:-0.439602 21:0.035706 22:0.021113 23:-0.312147 24:0.195118 25:-0.118945 26:0.410572 27:0.188267 28:0.12747 29:0.111648 30:0.48376 
-0.4503463761305819 1:5.892943 2:-0.550743 3:-0.459592 4:0.094174 5:-0.18073 6:0.731643 7:0.638698 8:-0.038297 9:0.285787 10:-0.210439 11:-0.088704 12:0.268407 13:0.562596 14:0.650803 15:0.307059 16:-0.708371 17:0.099672 18:-0.104293 19:0.08729 20:-0.206505 21:-0.071048 22:-0.361144 23:-0.099591 24:0.221532 25:-0.27208 26:-0.169147 27:-0.266527 28:0.231948 29:0.118821 30:-0.287961 
-0.8709472514551092 1:5.87712 2:-0.552871 3:0.453499 4:0.08667 5:0.257462 6:0.701764 7:0.63215 8:-0.032734 9:0.30337 10:-0.200633 11:-0.07656 12:0.11655 13:0.635612 14:-0.628468 15:-0.300216 16:0.74154 17:0.11472 18:0.104249 19:0.057497 20:0.223522 21:0.230649 22:0.257452 23:-0.084756 24:-0.270373 25:-0.22805 26:-0.111389 27:0.315614 28:-0.29645 29:0.24705 30:0.207073 
-1.063005795534022 1:5.746223 2:0.298991 3:0.221204 4:0.370287 5:-0.189528 6:-0.014696 7:-0.416655 8:1.113316 9:-0.546989 10:-0.565853 11:-0.005784 12:0.359447 13:-0.157277 14:-0.252899 15:-0.292872 16:0.266307 17:0.391393 18:-0.391503 19:0.192654 20:0.472531 21:-0.381346 22:0.223592 23:-0.521792 24:-0.39977 25:0.417817 26:0.684117 27:-0.325897 28:-0.136191 29:-0.148673 30:0.032772 
-0.5727135069247548 1:6.100836 2:-0.702149 3:-0.167992 4:0.209312 5:0.214963 6:0.255199 7:0.428622 8:0.11009 9:-0.683129 10:0.381237 11:0.28916 12:-0.288814 13:0.302126 14:-0.15975 15:0.201547 16:-0.727713 17:0.129424 18:-0.160455 19:-0.024982 20:-0.223817 21:0.140362 22:0.087491 23:-0.512216 24:0.217737 25:0.506287 26:-0.036075 27:0.153414 28:0.081001 29:-0.283277 30:0.212421 
-3.070425666688815 1:6.228121 2:-0.821433 3:-0.588283 4:-0.432172 5:0.133251 6:0.736058 7:0.208852 8:0.344722 9:-0.268676 10:0.411383 11:0.1814 12:-0.012364 13:0.137334 14:0.027754 15:-0.246288 16:-0.459366 17:-0.340066 18:-0.149564 19:-0.000847 20:0.252988 21:-0.266122 22:-0.583274 23:0.38417 24:-0.132384 25:-0.007542 26:0.018522 27:-0.256875 28:0.662717 29:0.071535 30:-0.275258 
-3.334269591289901 1:6.179584 2:-0.455676 3:0.415409 4:-0.776228 5:0.175278 6:0.090593 7:-0.157916 8:0.338214 9:0.356869 10:-0.240525 11:-0.350259 12:0.347901 13:-0.293911 14:-0.095817 15:-0.271236 16:-0.068315 17:0.097935 18:-0.544685 19:-0.16136 20:-0.604296 21:-0.240215 22:-0.066078 23:0.358699 24:0.657865 25:-0.187712 26:-0.283958 27:0.172033 28:-0.186129 29:-0.040968 30:-0.136576 
-0.5403061139127858 1:5.935128 2:0.203606 3:0.491006 4:0.041253 5:0.129617 6:0.545289 7:0.18545 8:-0.05008 9:0.970804 10:-0.29156 11:-0.082117 12:0.805367 13:0.422926 14:0.323038 15:-0.149144 16:0.681633 17:0.269698 18:-0.185121 19:0.079431 20:0.337962 21:-0.003942 22:0.509896 23:0.161459 24:0.560578 25:-0.623624 26:-0.068673 27:0.061252 28:0.311339 29:0.050955 30:-0.256071 
-0.8939660017807169 1:5.643332 2:0.46033 3:-0.603317 4:0.482853 5:0.206076 6:0.32053 7:-0.678356 8:0.021834 9:-0.344262 10:-0.60337 11:0.21786 12:-0.117926 13:0.361638 14:-0.025284 15:-0.207031 16:1.165613 17:0.327858 18:0.190916 19:0.202567 20:0.277909 21:-0.430898 22:-0.004068 23:-0.145717 24:0.191354 25:0.837086 26:-0.271475 27:-0.672277 28:0.44999 29:0.257741 30:-0.198333 
-2.390220589159362 1:6.460755 2:-0.177038 3:-0.42947 4:-0.068982 5:0.096358 6:-0.325182 7:-0.010821 8:-0.215327 9:0.104463 10:-0.365296 11:-0.221744 12:-0.387003 13:-0.012309 14:-0.187045 15:0.156156 16:-0.257661 17:0.163931 18:-0.24001 19:-0.02792 20:-0.41314 21:-0.167795 22:0.155206 23:0.097928 24:-0.364332 25:0.123365 26:-0.024767 27:0.10354 28:0.220237 29:0.271382 30:0.205496 
-1.350314135055153 1:6.469234 2:-0.202466 3:0.436245 4:-0.042991 5:-0.131485 6:-0.315341 7:0.032814 8:0.193116 9:0.1323 10:-0.354442 11:-0.193304 12:0.304776 13:-0.239259 14:0.159717 15:-0.023842 16:0.269415 17:0.13875 18:0.230911 19:-0.05709 20:0.407149 21:-0.093681 22:-0.043994 23:0.239678 24:0.361741 25:0.061967 26:-0.004348 27:-0.10442 28:-0.292772 29:0.081627 30:-0.309598 
-0.3494991159665194 1:5.839834 2:-0.595929 3:-0.226439 4:0.484114 5:0.256703 6:0.061501 7:-0.28562 8:1.602572 9:-0.25527 10:0.737166 11:0.371838 12:0.084666 13:0.513102 14:0.022529 15:-0.066029 16:0.362885 17:-0.272638 18:0.743596 19:-0.088169 20:-0.33992 21:-0.138352 22:-0.520582 23:0.018792 24:0.057106 25:0.346997 26:-0.329929 27:-0.108789 28:0.288009 29:-0.379011 30:0.327113 
-0.02619395103293829 1:5.365751 2:-1.394751 3:-0.17897 4:-0.07441 5:0.044396 6:0.241292 7:-0.508922 8:-0.181336 9:0.131381 10:0.790143 11:0.395576 12:-0.448492 13:0.767938 14:0.851535 15:-0.086857 16:-0.78605 17:-0.631074 18:0.414148 19:0.170739 20:0.121216 21:-0.3609 22:0.127896 23:-0.44813 24:0.550336 25:-0.214007 26:-0.204233 27:0.947574 28:0.690605 29:-0.204256 30:0.327439 
-1.466882359994643 1:5.537517 2:0.636789 3:-0.517223 4:-0.522058 5:-0.09814 6:0.047652 7:0.299631 8:-0.244873 9:0.208782 10:0.820765 11:-0.161922 12:0.452602 13:-0.86952 14:0.408447 15:-0.250162 16:0.069931 17:0.1596 18:0.835644 19:-0.253317 20:-0.233201 21:-0.230199 22:0.012481 23:-0.563415 24:0.274032 25:0.368085 26:0.283301 27:0.116821 28:-0.059408 29:0.525741 30:-0.163784 
-0.280951233149421 1:6.062208 2:-0.060362 3:-0.038979 4:0.082581 5:0.54182 6:-0.100575 7:0.432465 8:-0.330621 9:0.083522 10:0.731742 11:0.208878 12:-0.370763 13:-0.187347 14:0.151542 15:0.607574 16:0.060987 17:-0.45697 18:0.159618 19:-0.371942 20:0.044412 21:0.04298 22:0.374389 23:0.468537 24:-0.206715 25:0.011607 26:-0.11003 27:-0.142942 28:-0.452414 29:-0.214857 30:-0.075962 
-5.281649208558867 1:6.062208 2:-0.060362 3:-0.038979 4:0.082581 5:0.54182 6:-0.100575 7:0.432465 8:-0.330621 9:0.083522 10:0.731742 11:0.208878 12:-0.370763 13:-0.187347 14:0.151542 15:0.607574 16:0.060987 17:-0.45697 18:0.159618 19:-0.371942 20:0.044412 21:0.04298 22:0.374389 23:0.468537 24:-0.206715 25:0.011607 26:-0.11003 27:-0.142942 28:-0.452414 29:-0.214857 30:-0.075962 
-1.550082905086362 1:5.888315 2:-0.461628 3:0.407391 4:0.555728 5:0.456404 6:0.114597 7:0.668145 8:-0.438972 9:0.334391 10:0.266685 11:0.060386 12:0.372275 13:-0.165959 14:-0.079981 15:-0.462595 16:-0.409948 17:0.33949 18:0.992235 19:0.327745 20:-0.23382 21:0.101249 22:-0.132101 23:-0.137187 24:-0.205676 25:-0.00704 26:-0.076452 27:0.079197 28:0.098124 29:0.092493 30:-0.107426 
-2.300821015232074 1:5.872383 2:-0.486408 3:-0.408607 4:0.597329 5:-0.407272 6:0.193543 7:0.705489 8:0.382906 9:0.308165 10:0.273492 11:0.041587 12:-0.407928 13:0.101161 14:0.148313 15:-0.542425 16:0.090831 17:0.21498 18:-0.988639 19:0.343244 20:0.217567 21:0.264632 22:-0.021144 23:-0.139182 24:0.216832 25:-0.056598 26:-0.112442 27:-0.056946 28:-0.162331 29:0.171605 30:0.015986 
-0.08315849705557836 1:5.975283 2:-0.152072 3:-0.691321 4:-0.098737 5:0.591521 6:-0.891838 7:-0.41336 8:0.182372 9:0.406751 10:0.13451 11:0.129347 12:0.483509 13:-0.12168 14:-0.084682 15:0.489447 16:0.196167 17:-0.074256 18:0.113035 19:-0.383501 20:-0.060738 21:0.359413 22:0.190253 23:0.195243 24:0.652308 25:0.55066 26:0.086169 27:0.102557 28:-0.118209 29:0.076616 30:-0.008945 
-2.351340505491738 1:5.969745 2:-0.162904 3:0.681413 4:-0.056614 5:-0.720025 6:-0.814947 7:-0.411285 8:-0.131212 9:0.37835 10:0.135695 11:0.140288 12:-0.443892 13:0.185047 14:0.028307 15:0.51659 16:0.106668 17:-0.079591 18:-0.113904 19:-0.392558 20:-0.103991 21:0.142363 22:-0.363379 23:0.190904 24:-0.623419 25:0.602308 26:0.074832 27:-0.088801 28:0.103762 29:0.016376 30:-0.03299 
-5.492103674755893 1:6.006554 2:-0.406462 3:-0.052315 4:-0.625656 5:0.258455 6:-0.488059 7:0.21051 8:0.065364 9:-0.306616 10:0.157442 11:-0.494837 12:0.250446 13:-0.528791 14:0.432927 15:0.182469 16:0.266599 17:-0.288085 18:-0.031774 19:0.151058 20:0.259781 21:-0.325121 22:-0.006411 23:0.208582 24:-0.418999 25:0.448434 26:0.181901 27:-0.123676 28:-0.124834 29:0.431478 30:-0.235039 
-0.2128945247595707 1:5.884364 2:-0.121173 3:1.046259 4:0.102076 5:0.088803 6:-0.321102 7:0.166742 8:-0.451491 9:0.039405 10:-0.270268 11:-0.738477 12:0.453277 13:-1.070807 14:-0.055593 15:0.118783 16:-0.27772 17:-0.407915 18:-0.212874 19:0.403069 20:0.598483 21:0.030108 22:0.406454 23:-0.038648 24:-0.043358 25:-0.002141 26:-0.497563 27:0.108094 28:-0.562076 29:-0.63511 30:-0.105925 
-1.177265126507746 1:5.764491 2:0.557463 3:-0.727054 4:-0.150789 5:-0.70395 6:-0.000342 7:-0.671579 8:0.42521 9:-0.195029 10:0.441879 11:0.08598 12:1.015117 13:-0.36524 14:-0.746877 15:0.180532 16:0.071161 17:-0.317156 18:-0.348101 19:0.112715 20:0.543488 21:-0.486833 22:-0.262603 23:0.417751 24:-0.491597 25:0.25662 26:0.022968 27:-0.568117 28:0.597105 29:-0.291003 30:0.486441 
-8 1:6.120946 2:0.028378 3:-0.315183 4:-0.558276 5:-0.334016 6:-0.406624 7:-0.062769 8:0.228232 9:0.287608 10:-0.143972 11:-0.082082 12:0.014195 13:-0.003908 14:-0.325859 15:0.101742 16:0.31115 17:0.195366 18:-0.477948 19:-0.090098 20:0.430197 21:-0.238969 22:-0.222384 23:-0.2566 24:-0.253781 25:0.383012 26:0.219762 27:-0.235551 28:0.060366 29:0.135719 30:-0.037903 
-4.918500411485737 1:6.10603 2:0.028806 3:0.323253 4:-0.601584 5:0.225107 6:-0.46245 7:-0.079388 8:-0.230456 9:0.302176 10:-0.14921 11:-0.1051 12:-0.005311 13:0.002257 14:0.302461 15:0.261004 16:-0.149641 17:0.241105 18:0.485678 19:-0.099096 20:-0.334344 21:-0.133271 22:0.367008 23:-0.337161 24:0.346523 25:0.338728 26:0.239098 27:0.196572 28:-0.08529 29:0.118999 30:-0.067008 
-1.790020094971982 1:5.904376 2:-0.098596 3:0.960093 4:0.365233 5:-0.132964 6:0.505317 7:-0.29599 8:-0.265511 9:-1.11598 10:0.174779 11:-0.121764 12:0.250582 13:-0.635119 14:0.140507 15:-0.456049 16:-0.077491 17:-0.251876 18:-0.14732 19:-0.446315 20:-0.226215 21:-0.151241 22:0.353632 23:0.261951 24:0.278566 25:0.083733 26:-0.301091 27:-0.3801 28:-0.063292 29:-0.019943 30:0.267409 
-1.792775743401043 1:6.124607 2:-0.59062 3:0.826756 4:-0.233254 5:0.527796 6:0.008989 7:0.603111 8:-0.059282 9:-0.440844 10:-0.199143 11:-0.428175 12:0.341041 13:-0.224182 14:-0.194915 15:-0.129213 16:0.124065 17:0.339388 18:0.389867 19:0.096399 20:-0.073719 21:0.000923 22:-0.264055 23:-0.209771 24:0.308045 25:-0.374145 26:-0.014147 27:0.155404 28:0.155051 29:0.151239 30:0.290387 
-2.963907758618562 1:6.247468 2:-0.227533 3:-0.146636 4:0.503613 5:0.325098 6:0.083848 7:0.301207 8:0.610564 9:-0.116189 10:0.212366 11:-0.661659 12:0.393741 13:-0.722859 14:0.00769 15:-0.292488 16:-0.225768 17:0.438467 18:0.120532 19:-0.024225 20:0.132372 21:0.249362 22:-0.291184 23:-0.086966 24:0.130465 25:-0.06944 26:0.078822 27:0.27896 28:-0.539017 29:-0.234099 30:-0.047964 
-1.992321801664804 1:6.145162 2:1.001057 3:-0.430675 4:-1.422091 5:-0.071834 6:-0.425787 7:-0.243845 8:-0.07045 9:-0.014333 10:-0.460714 11:-0.093184 12:0.044949 13:0.145313 14:0.065709 15:0.039709 16:-0.013051 17:-0.070417 18:0.096068 19:0.937765 20:0.197028 21:-0.336188 22:0.201568 23:-0.08953 24:-0.039602 25:0.298666 26:0.063344 27:-0.004505 28:-0.006527 29:0.230075 30:-0.120826 
-3.544863597256392 1:5.776067 2:-0.719096 3:0.50821 4:0.606791 5:0.373241 6:-0.820852 7:0.36449 8:-0.130088 9:0.368469 10:-0.160096 11:-0.618034 12:-0.594306 13:-0.091678 14:0.360101 15:-0.630892 16:0.414243 17:0.121089 18:0.113301 19:-0.34656 20:-0.094318 21:-0.084589 22:0.592159 23:0.717203 24:-0.383165 25:-0.307667 26:0.348824 27:-0.119125 28:0.067892 29:-0.834624 30:-0.24852 
-2.888773348085904 1:5.772197 2:-0.720644 3:-0.520476 4:0.62492 5:-0.434113 6:-0.74704 7:0.353292 8:0.086639 9:0.342942 10:-0.172662 11:-0.638536 12:0.423594 13:-0.412057 14:-0.33426 15:-0.277716 16:-0.774704 17:0.138225 18:-0.224825 19:-0.332042 20:0.024683 21:-0.396936 22:-0.286221 23:0.752943 24:0.35372 25:-0.320766 26:0.35106 27:0.017494 28:0.103156 29:-0.661892 30:0.629441 
-0.1511489256469603 1:5.437699 2:-0.936012 3:1.823304 4:0.172212 5:0.151477 6:0.404039 7:-0.361665 8:0.047105 9:-0.320374 10:0.784284 11:0.339826 12:0.206129 13:0.016139 14:0.21783 15:-0.541653 16:0.136226 17:-0.171553 18:-0.219168 19:-0.13326 20:-0.357825 21:-0.473604 22:-0.428143 23:-0.112973 24:-0.384327 25:-0.364563 26:0.399844 27:-0.324564 28:-0.641289 29:-0.667746 30:-0.029332 
-2.394295890603506 1:5.793729 2:0.379558 3:1.535991 4:0.029599 5:0.157872 6:-0.529245 7:-0.017358 8:0.204537 9:0.269885 10:0.716696 11:-0.057776 12:-0.422194 13:0.153478 14:-0.026966 15:1.268107 16:-0.094471 17:-0.14506 18:-0.193956 19:-0.117621 20:0.052763 21:-0.588696 22:0.273527 23:-0.049361 24:0.129233 25:-0.35423 26:-0.025077 27:-0.038994 28:0.715007 29:-0.411189 30:0.268603 
-0.09016288653434228 1:5.983997 2:-0.672922 3:-0.057144 4:-0.159313 5:-0.024128 6:-0.299545 7:0.471418 8:-0.317446 9:0.080569 10:0.258607 11:-0.413418 12:0.264487 13:0.337841 14:0.611826 15:-0.171244 16:0.446114 17:0.001663 18:-0.19991 19:0.30061 20:-0.557524 21:-0.61182 22:-0.386601 23:-0.590475 24:0.11022 25:-0.00743 26:-0.326057 27:-0.445707 28:-0.251196 29:0.129356 30:0.03133 
-2.753449753236419 1:5.882038 2:0.433336 3:0.400318 4:-0.03615 5:0.254298 6:0.504341 7:-0.58111 8:0.142501 9:0.496048 10:0.76989 11:-0.546986 12:-0.139393 13:0.24131 14:-0.06462 15:-0.422938 16:-0.416629 17:-0.359418 18:-0.458668 19:-0.261569 20:0.165656 21:0.151181 22:-0.543431 23:0.673428 24:0.185383 25:0.011168 26:-0.04314 27:0.237208 28:0.276378 29:0.059365 30:-0.356878 
-0.9016495544164576 1:5.994727 2:-0.102189 3:0.325456 4:0.868202 5:-0.716626 6:-0.267547 7:-1.109936 8:0.967391 9:0.335529 10:-0.078526 11:0.258438 12:0.067308 13:-0.648088 14:0.025421 15:0.277575 16:0.465109 17:-0.684965 18:0.220217 19:-0.201381 20:0.167903 21:0.086123 22:0.218999 23:0.064487 24:0.209945 25:0.111731 26:-0.171137 27:-0.387449 28:0.055925 29:-0.126179 30:0.143101 
-0.005684516009999111 1:6.050721 2:0.852938 3:0.067645 4:-0.699671 5:0.123992 6:0.523345 7:-0.133391 8:0.200616 9:0.007476 10:0.769152 11:-0.022157 12:-0.296725 13:-0.236507 14:0.148909 15:0.137011 16:-0.012833 17:0.359183 18:0.077026 19:-0.335245 20:0.233408 21:0.358094 22:-0.300159 23:0.044981 24:-0.361423 25:-0.181709 26:0.253442 27:-0.169661 28:0.208995 29:-0.682841 30:0.230397 
-0.6871545060942753 1:5.812469 2:0.50069 3:0.070887 4:0.017819 5:-0.585879 6:-0.010435 7:-0.160168 8:-0.483377 9:-0.177909 10:-0.137677 11:-0.892371 12:0.196275 13:0.169 14:-0.221714 15:0.019706 16:-0.995357 17:-0.025489 18:0.213891 19:-0.715133 20:0.479429 21:-0.160704 22:-0.095877 23:-0.47186 24:-0.677814 25:0.072159 26:0.205108 27:-0.47146 28:-0.043904 29:-0.051984 30:-0.407202 
-1.20324165971327 1:5.818462 2:0.468896 3:-0.06802 4:-0.010485 5:0.563661 6:-0.108831 7:-0.113955 8:0.484824 9:-0.15743 10:-0.144034 11:-0.902148 12:-0.054419 13:0.240477 14:0.264076 15:-0.5504 16:0.8231 17:-0.06603 18:-0.158195 19:-0.731007 20:-0.295968 21:-0.135793 22:0.204533 23:-0.588594 24:0.672093 25:-0.008845 26:0.202889 27:0.429461 28:-0.011672 29:0.225169 30:0.429659 
-0.5525197957188501 1:5.800129 2:-0.420245 3:-0.671389 4:-0.821867 5:-0.627494 6:0.231895 7:0.062411 8:0.006825 9:-0.019921 10:0.466046 11:-0.022531 12:-0.214746 13:0.383874 14:0.228693 15:-0.773924 16:-0.459655 17:-0.22719 18:0.513561 19:0.02949 20:-0.784815 21:-0.280298 22:0.930387 23:-0.184792 24:-0.061899 25:0.217782 26:-0.197049 27:0.908748 28:0.371801 29:0.123923 30:-0.393214 
-0.5959168738371162 1:5.803741 2:-0.395652 3:0.66058 4:-0.859313 5:0.571405 6:0.176444 7:0.074316 8:-0.015807 9:-0.01768 10:0.502598 11:0.016867 12:0.382771 13:0.19471 14:-0.098773 15:-0.920347 16:-0.022829 17:-0.323225 18:-0.515352 19:0.031151 20:0.932934 21:-0.576467 22:-0.599262 23:0.095534 24:0.117698 25:0.224604 26:-0.242646 27:-0.862908 28:-0.406185 29:0.249202 30:0.274199 
-1.667130756494832 1:6.597046 2:-0.145724 3:0.391756 4:-0.252947 5:0.073535 6:0.243035 7:-0.187064 8:-0.058809 9:0.296273 10:0.160799 11:-0.13227 12:0.274034 13:0.407316 14:-0.039358 15:-0.37341 16:0.203258 17:-0.030951 18:0.309379 19:0.096992 20:0.010701 21:-0.021189 22:-0.00932 23:0.152184 24:0.288085 25:-0.030483 26:-0.010114 27:-0.141457 28:0.155107 29:-0.014141 30:-0.050228 
-0.6815816069291466 1:6.158513 2:0.771815 3:-1.265449 4:0.047028 5:0.152056 6:-0.261899 7:-0.371601 8:0.242243 9:0.183742 10:0.652977 11:0.487131 12:-0.017615 13:0.342567 14:0.223835 15:-0.074574 16:0.625577 17:-0.156631 18:-0.231472 19:-0.013744 20:-0.4676 21:-0.328347 22:-0.047799 23:0.146785 24:0.049611 25:0.030273 26:0.043499 27:0.414849 28:-0.442556 29:-0.264659 30:-0.327937 
-7.874819435940308 1:6.517396 2:-0.140056 3:-0.431082 4:0.25064 5:-0.019204 6:-0.810872 7:-0.449553 8:-0.203512 9:-0.007162 10:-0.011186 11:0.146523 12:0.044794 13:-0.030073 14:-0.452863 15:0.862119 16:-0.094746 17:-0.609207 18:-0.014345 19:-0.129268 20:0.288971 21:-0.091032 22:0.133383 23:-0.327481 24:0.428246 25:-0.228777 26:0.153339 27:0.124205 28:0.214496 29:-0.077647 30:-0.049552 
-5.045878998939545 1:6.520897 2:-0.139317 3:0.442599 4:0.254576 5:-0.065549 6:-0.813646 7:-0.407888 8:0.237333 9:-0.018523 10:-0.02012 11:0.139925 12:-0.05268 13:-0.02802 14:0.322582 15:0.687687 16:0.589397 17:-0.621777 18:0.095689 19:-0.141639 20:-0.147455 21:-0.247459 22:-0.036558 23:-0.340331 24:-0.439131 25:-0.189437 26:0.149255 27:-0.146434 28:-0.171372 29:-0.150401 30:0.128584 
-5.192860160134373 1:6.227021 2:0.500773 3:0.113329 4:-0.540014 5:-0.483357 6:0.189085 7:0.098947 8:-0.003896 9:-0.497398 10:-0.20496 11:-0.374948 12:0.251501 13:0.185439 14:-0.558212 15:0.221433 16:-0.085534 17:-0.127364 18:-0.218714 19:0.515395 20:-0.205373 21:-0.27094 22:0.133966 23:-0.302123 24:-0.398707 25:0.003053 26:-0.238381 27:0.447228 28:0.165728 29:0.248199 30:0.205497 
-4.586764280352802 1:6.222938 2:0.505051 3:-0.112604 4:-0.572599 5:0.45398 6:0.111925 7:0.105778 8:-0.031285 9:-0.469423 10:-0.202156 11:-0.367517 12:-0.076589 13:0.304243 14:0.559489 15:0.173571 16:0.262871 17:-0.130534 18:0.291763 19:0.515953 20:0.395947 21:-0.222411 22:0.027601 23:-0.191093 24:0.387526 25:-0.030802 26:-0.285699 27:-0.3958 28:-0.216194 29:0.116352 30:-0.321179 
-3.22407593476489 1:5.900451 2:0.112918 3:-0.042487 4:-0.100299 5:0.260591 6:0.14334 7:0.043225 8:-0.09243 9:0.306412 10:0.297302 11:0.156023 12:-0.035298 13:-0.166968 14:0.054171 15:0.001569 16:0.16623 17:0.353896 18:-0.209602 19:-0.073446 20:0.049921 21:-0.093808 22:0.410415 23:-0.676165 24:0.693352 25:0.099326 26:-0.444739 27:0.04702 28:-0.173001 29:0.367788 30:-0.134999 
-8 1:6.124372 2:0.664728 3:0.796739 4:-0.306952 5:-0.291765 6:0.139604 7:-0.541141 8:-0.219399 9:-0.283407 10:0.072935 11:-0.370366 12:0.048844 13:-0.084653 14:0.208615 15:-0.36493 16:-0.199189 17:-0.145165 18:-0.192277 19:-0.100712 20:-0.328221 21:-0.002018 22:-0.264638 23:0.151592 24:-0.023752 25:0.245571 26:0.310585 27:-0.135552 28:0.225193 29:0.673936 30:0.032353 
-0.1241763281410279 1:5.298527 2:-1.302155 3:-1.116493 4:-0.249285 5:-0.278703 6:-0.185399 7:-1.158198 8:-0.110051 9:0.480642 10:0.755462 11:-0.506692 12:0.869752 13:0.362382 14:-0.101717 15:-0.409891 16:0.167253 17:-0.530733 18:-0.441261 19:-0.080276 20:-0.154726 21:-0.604801 22:0.837914 23:0.124988 24:-0.250629 25:-0.098053 26:-0.201059 27:0.571303 28:-0.588311 29:0.094028 30:0.142845 
-0.1466622666747699 1:5.7638 2:-1.031716 3:0.514341 4:0.911216 5:-0.454683 6:-1.244172 7:0.031411 8:0.19606 9:-0.070732 10:-0.003591 11:0.210704 12:-0.231517 13:0.332008 14:0.10713 15:-0.232128 16:0.356644 17:-0.255647 18:-0.029283 19:-0.347047 20:-0.03139 21:-0.135708 22:0.050382 23:0.354262 24:-0.2591 25:-0.585171 26:-0.121078 27:0.353388 28:0.449136 29:-0.758481 30:0.309427 
-4.040511570440228 1:5.764704 2:-1.028118 3:-0.540856 4:0.889421 5:0.35702 6:-1.316078 7:0.000137 8:-0.177956 9:-0.045965 10:0.002515 11:0.231377 12:0.358543 13:0.108698 14:-0.113044 15:0.000506 16:-0.482416 17:-0.232911 18:-0.035662 19:-0.326617 20:0.010877 21:-0.12937 22:0.087949 23:0.324536 24:0.192862 25:-0.578345 26:-0.17342 27:-0.383031 28:-0.268784 29:-0.850871 30:0.077814 
-2.024311705231726 1:5.7638 2:-1.031716 3:0.514341 4:0.911216 5:-0.454683 6:-1.244172 7:0.031411 8:0.19606 9:-0.070732 10:-0.003591 11:0.210704 12:-0.231517 13:0.332008 14:0.10713 15:-0.232128 16:0.356644 17:-0.255647 18:-0.029283 19:-0.347047 20:-0.03139 21:-0.135708 22:0.050382 23:0.354262 24:-0.2591 25:-0.585171 26:-0.121078 27:0.353388 28:0.449136 29:-0.758481 30:0.309427 
-0.2075448563406385 1:6.17547 2:0.353358 3:-0.164674 4:0.379074 5:-0.220486 6:-0.532968 7:-0.489324 8:0.742489 9:-0.445303 10:-0.01029 11:-0.036083 12:0.11722 13:-0.032109 14:0.949447 15:-0.50165 16:0.141983 17:0.271076 18:-0.287678 19:0.327103 20:0.094921 21:0.655078 22:0.288958 23:0.043882 24:-0.30218 25:-0.302576 26:-0.136249 27:0.459279 28:0.22155 29:-0.29483 30:-0.669107 
-0.4925301568982159 1:5.881796 2:0.838113 3:0.297949 4:0.164417 5:-0.356078 6:-1.157816 7:-0.029372 8:-1.133817 9:-0.593019 10:-0.019011 11:0.014202 12:0.10042 13:0.665889 14:0.217129 15:0.74536 16:0.340453 17:0.501429 18:0.214637 19:0.042824 20:-0.424885 21:0.160347 22:0.070428 23:-0.222228 24:0.032685 25:-0.550635 26:0.096448 27:-0.477616 28:-0.370466 29:0.290199 30:-0.086108 
-0.2265041130087076 1:6.200267 2:1.081356 3:0.178528 4:0.879218 5:-0.363566 6:-0.176285 7:-0.809376 8:-0.614678 9:0.308644 10:0.34862 11:-0.603424 12:0.038229 13:-0.35223 14:-0.328574 15:-0.494178 16:0.477855 17:-0.465875 18:-0.203136 19:-0.124386 20:-0.201929 21:-0.490129 22:0.125272 23:-0.111771 24:0.460712 25:0.165627 26:0.187101 27:-0.476269 28:0.291035 29:-0.062444 30:-0.164911 
-0.4135942134178752 1:6.211699 2:1.071551 3:-0.16532 4:0.840033 5:0.384819 6:-0.234044 7:-0.737628 8:0.654314 9:0.300056 10:0.348309 11:-0.571222 12:-0.26396 13:-0.279531 14:0.357308 15:-0.081818 16:-0.680352 17:-0.425938 18:0.233064 19:-0.130373 20:0.363591 21:-0.359639 22:0.249859 23:-0.092781 24:-0.434697 25:0.231434 26:0.247362 27:0.433516 28:-0.283357 29:-0.020011 30:0.166213 
-0.04846823383700434 1:5.87304 2:0.214182 3:-0.756598 4:-0.44357 5:0.055521 6:-0.296496 7:-0.792787 8:-0.798389 9:0.549822 10:0.423147 11:-0.190715 12:-0.09762 13:0.595559 14:-0.859396 15:-0.271263 16:0.777605 17:-0.339344 18:-0.164008 19:0.06486 20:-0.341629 21:-0.55485 22:-0.451535 23:0.095498 24:0.469933 25:-0.122235 26:0.032994 27:-0.145785 28:-0.663999 29:-0.305643 30:0.021901 
-5.851529824213914 1:5.708595 2:0.190275 3:-0.319954 4:0.645912 5:-0.54468 6:-1.426573 7:0.349852 8:-0.198143 9:0.256242 10:-0.206047 11:-0.118613 12:-0.264393 13:0.144864 14:0.144796 15:0.410651 16:0.055728 17:0.286571 18:0.527075 19:0.431285 20:-0.132605 21:-0.965949 22:0.365338 23:-0.471713 24:-0.185786 25:0.010063 26:0.1587 27:0.079796 28:-0.205554 29:0.090587 30:0.084265 
-4.353112065455884 1:5.706892 2:0.178783 3:0.296398 4:0.609743 5:0.356626 6:-1.491233 7:0.387937 8:0.169128 9:0.271706 10:-0.197127 11:-0.133616 12:0.276723 13:-0.031592 14:-0.181271 15:0.34054 16:0.203893 17:0.228608 18:-0.523813 19:0.452671 20:0.52193 21:-0.883541 22:0.30774 23:-0.458019 24:0.206421 25:0.011363 26:0.150012 27:-0.08262 28:0.228266 29:0.110343 30:-0.169318 
-8 1:5.861765 2:0.437221 3:0.280177 4:-0.167965 5:0.292306 6:-1.585265 7:-0.132338 8:0.350009 9:0.395314 10:-0.221361 11:0.303785 12:0.376828 13:0.169389 14:0.06234 15:0.136633 16:0.258707 17:-0.648332 18:-0.039349 19:0.065439 20:-0.116324 21:-0.385825 22:0.45562 23:-0.386378 24:0.060014 25:0.18777 26:0.236142 27:0.129566 28:0.268631 29:-0.03643 30:0.068737 
-0.1794506075083772 1:6.068117 2:1.538126 3:-0.652004 4:0.179752 5:0.493959 6:0.001503 7:-0.045623 8:-0.808533 9:-0.22447 10:-0.311656 11:-0.23115 12:-0.39351 13:-0.629942 14:0.241354 15:-0.517877 16:0.22042 17:-0.75665 18:-0.261516 19:-0.373521 20:0.048889 21:-0.346894 22:0.096423 23:0.13909 24:-0.172128 25:-0.263535 26:-0.130231 27:-0.258604 28:-0.072699 29:0.014396 30:0.440819 
-0.4153953329967571 1:6.239257 2:0.566849 3:-0.608681 4:-0.438509 5:0.123097 6:0.341425 7:0.408665 8:-0.376361 9:-0.064659 10:0.556873 11:-0.043251 12:0.424462 13:0.011949 14:0.274976 15:-0.320685 16:0.361568 17:-0.047852 18:0.362709 19:-0.265129 20:-0.013878 21:-0.022908 22:0.117335 23:-0.132557 24:0.306667 25:0.063297 26:-0.289752 27:0.026091 28:-0.152531 29:-0.098626 30:-0.062127 
-7.517281038056135 1:5.737487 2:-0.42057 3:0.555711 4:0.036667 5:-0.900324 6:-0.661051 7:0.139318 8:-0.098969 9:-0.194186 10:0.434891 11:-0.304396 12:-0.1836 13:0.582774 14:0.582417 15:0.357491 16:0.109817 17:-0.325711 18:-0.213899 19:0.016503 20:-0.178746 21:-0.408839 22:0.124285 23:-0.415955 24:-0.405375 25:-0.470071 26:-0.108952 27:0.321971 28:0.024595 29:-0.176021 30:-0.033491 
-0.04201200866191544 1:6.305985 2:0.715307 3:-0.55443 4:-0.628391 5:-0.4864 6:0.239504 7:0.242515 8:-0.288711 9:0.160083 10:0.039436 11:-0.300731 12:0.493838 13:0.362178 14:-0.484371 15:0.271648 16:-0.441707 17:0.132346 18:-0.292508 19:0.034612 20:-0.10318 21:-0.194431 22:0.395525 23:-0.263297 24:-0.028503 25:0.279294 26:-0.073195 27:0.357605 28:0.296736 29:-0.249216 30:-0.174747 
-0.895341648685597 1:6.219756 2:0.885646 3:0.595293 4:0.415012 5:0.098884 6:-0.933057 7:0.047087 8:0.368274 9:0.446733 10:0.254269 11:0.101798 12:-0.172495 13:-0.761873 14:-0.178195 15:0.409172 16:0.482345 17:-0.45598 18:-0.38401 19:0.396659 20:0.571616 21:-0.307329 22:0.163518 23:-0.470463 24:-0.149748 25:0.245911 26:-0.210026 27:-0.058679 28:0.029118 29:0.35976 30:-0.13586 
-4.699159506030079 1:6.292396 2:-0.187663 3:0.061834 4:0.037097 5:-0.387411 6:0.588516 7:0.261442 8:-0.494753 9:-0.197969 10:0.139806 11:-0.400322 12:0.276162 13:-0.10444 14:-0.253387 15:-0.608521 16:-0.016919 17:0.904374 18:-0.163458 19:0.190988 20:-0.085069 21:-0.021749 22:0.143432 23:0.398579 24:-0.311948 25:0.006681 26:0.023613 27:0.42148 28:-0.263838 29:-0.345465 30:0.170034 
-0.5655455428352261 1:6.126266 2:-0.028696 3:0.037885 4:-0.074812 5:-0.342025 6:-0.758378 7:-0.320393 8:-0.10832 9:1.077396 10:-0.160901 11:-0.215293 12:0.172568 13:-0.392427 14:-0.467499 15:-0.349012 16:-0.146652 17:-0.287092 18:0.064322 19:-0.146827 20:0.061648 21:0.131076 22:-0.237974 23:0.193917 24:0.281483 25:0.149001 26:0.090396 27:-0.008794 28:0.167589 29:-0.501328 30:-0.322531 
-0.1034993550359834 1:6.167187 2:0.152068 3:-0.131951 4:0.546824 5:0.032992 6:0.056732 7:0.00478 8:-0.815694 9:0.062931 10:0.17405 11:0.540846 12:0.88287 13:-0.467337 14:-0.481615 15:0.236493 16:0.259608 17:-0.662707 18:-0.21049 19:0.147488 20:-0.079434 21:-0.265308 22:0.455805 23:0.1349 24:-0.210674 25:-0.457211 26:-0.440512 27:-0.101672 28:-0.361989 29:0.053422 30:-0.323197 
-0.2341371525722264 1:6.167187 2:0.152068 3:-0.131951 4:0.546824 5:0.032992 6:0.056732 7:0.00478 8:-0.815694 9:0.062931 10:0.17405 11:0.540846 12:0.88287 13:-0.467337 14:-0.481615 15:0.236493 16:0.259608 17:-0.662707 18:-0.21049 19:0.147488 20:-0.079434 21:-0.265308 22:0.455805 23:0.1349 24:-0.210674 25:-0.457211 26:-0.440512 27:-0.101672 28:-0.361989 29:0.053422 30:-0.323197 
-1.40494510303478 1:5.82641 2:0.359275 3:0.621225 4:0.6397 5:-0.108409 6:0.140758 7:-0.918197 8:-0.222011 9:-0.303462 10:0.185353 11:-0.614117 12:-0.204928 13:-1.417685 14:-0.433276 15:0.150762 16:-0.250325 17:-0.288313 18:0.375357 19:0.020106 20:0.2777 21:-0.194352 22:0.387387 23:0.366 24:-0.48221 25:-0.429761 26:-0.583068 27:-0.615288 28:-0.362436 29:0.13035 30:0.40197 
-2.222250133579589 1:5.820875 2:0.352133 3:-0.627346 4:0.6518 5:0.188401 6:0.108986 7:-0.899649 8:0.267685 9:-0.311801 10:0.18104 11:-0.625027 12:-0.711622 13:-1.22595 14:0.428335 15:0.043029 16:0.256678 17:-0.3464 18:-0.422835 19:0.028449 20:-0.220124 21:-0.51274 22:-0.157317 23:0.335399 24:0.42553 25:-0.503202 26:-0.513106 27:0.702119 28:0.425124 29:-0.034079 30:-0.408442 
-3.342657145022745 1:5.637092 2:2.163393 3:0.314569 4:0.034991 5:0.535102 6:-0.113853 7:-0.392075 8:0.448973 9:-0.362097 10:-0.321354 11:0.429351 12:-0.338694 13:-0.134905 14:0.000567 15:-0.132629 16:-0.408316 17:0.064732 18:0.484009 19:-0.482357 20:-0.211049 21:0.237893 22:0.036982 23:-0.092023 24:-0.402222 25:0.308904 26:-0.308213 27:0.046774 28:0.13465 29:0.557314 30:-0.314425 
-3.407789307809038 1:5.63863 2:2.140143 3:-0.326479 4:0.106223 5:-0.580376 6:-0.036511 7:-0.42897 8:-0.389557 9:-0.36221 10:-0.314261 11:0.453724 12:0.181317 13:-0.298963 14:0.022301 15:-0.359894 16:0.258488 17:-0.011901 18:-0.492411 19:-0.481744 20:0.146855 21:0.184671 22:-0.246411 23:-0.051883 24:0.417713 25:0.265473 26:-0.306567 27:0.011851 28:-0.25966 29:0.681403 30:-0.043102 
-0.005761852142538965 1:6.273534 2:-1.226025 3:1.258678 4:0.174888 5:-0.375178 6:0.085568 7:-0.163751 8:0.30184 9:0.528443 10:0.15164 11:-0.09767 12:0.289727 13:-0.16905 14:-0.17891 15:0.012467 16:0.359282 17:0.054691 18:-0.236868 19:0.052179 20:0.159715 21:-0.053844 22:-0.161381 23:-0.43354 24:0.196062 25:0.01748 26:0.318439 27:-0.153169 28:0.334541 29:0.024291 30:0.1519 
-0.7219772088068411 1:5.960329 2:0.326309 3:0.292781 4:0.055867 5:0.586337 6:0.081121 7:-0.054221 8:0.065332 9:-0.141041 10:-0.30305 11:-0.307165 12:-0.080517 13:-1.109778 14:-0.766832 15:-0.570352 16:0.583105 17:-0.016031 18:-0.149989 19:-0.573896 20:0.705103 21:0.245868 22:0.311228 23:-0.060289 24:0.216398 25:-0.892605 26:-0.141975 27:0.062676 28:0.020405 29:-0.076809 30:0.246507 
-0.8483321689192819 1:5.955096 2:0.366053 3:-0.296486 4:0.109668 5:-0.55642 6:0.181674 7:-0.063055 8:-0.059097 9:-0.200887 10:-0.31453 11:-0.32465 12:-0.655795 13:-0.946275 14:0.725195 15:0.01047 16:-0.782754 17:-0.017624 18:0.14063 19:-0.606645 20:-0.591674 21:-0.249706 22:-0.379555 23:-0.15449 24:-0.279325 25:-0.929284 26:-0.09943 27:-0.053287 28:0.027572 29:-0.221931 30:-0.136101 
-4.935241874480226 1:5.937624 2:0.061028 3:0.002702 4:-0.995823 5:-0.370327 6:0.110237 7:-0.414922 8:0.055308 9:-0.408771 10:0.083794 11:-0.155257 12:-0.058712 13:0.627463 14:0.384493 15:0.575803 16:-0.153663 17:-0.484302 18:-0.311195 19:-0.268354 20:0.020957 21:0.026143 22:-0.247689 23:-0.141953 24:0.030789 25:-0.233991 26:-0.67252 27:-0.410893 28:-0.248877 29:-0.05151 30:-0.308974 
-7.553124554942096 1:5.941696 2:0.10211 3:0.01903 4:-1.018523 5:0.301685 6:0.083238 7:-0.445313 8:-0.035642 9:-0.401596 10:0.08808 11:-0.153281 12:0.455287 13:0.455145 14:-0.366934 15:0.332857 16:0.456503 17:-0.436618 18:0.363225 19:-0.290617 20:0.003356 21:0.20775 22:0.145576 23:-0.142056 24:-0.054567 25:-0.229479 26:-0.584745 27:0.488975 28:0.277937 29:0.05898 30:0.223843 
-0.9427558179102685 1:5.82162 2:-0.315041 3:-0.032669 4:0.087054 5:-0.039986 6:0.466481 7:0.374036 8:0.137385 9:-0.185844 10:-1.040751 11:-0.684509 12:0.171406 13:0.210297 14:-0.951179 15:0.061602 16:-0.263038 17:0.533917 18:-0.283606 19:0.796257 20:-0.007972 21:-0.058519 22:-0.266497 23:-0.026932 24:0.499687 25:-0.027911 26:0.152632 27:-0.027457 28:-0.153669 29:-0.23744 30:-0.116261 
-3.429921243207259 1:5.851308 2:-0.321005 3:1.046618 4:0.431154 5:0.451665 6:0.013221 7:-0.203631 8:-0.050879 9:0.361565 10:0.035656 11:-0.540183 12:0.231872 13:-0.008374 14:-0.73087 15:0.048522 16:-0.46247 17:0.081983 18:0.471639 19:-0.101502 20:0.719244 21:0.429155 22:0.50301 23:-0.015428 24:-0.460307 25:-0.756986 26:-0.00148 27:-0.631457 28:0.333804 29:0.446241 30:-0.116807 
-0.6983109496585211 1:5.853492 2:-0.338631 3:-1.046466 4:0.457866 5:-0.410717 6:0.061047 7:-0.197249 8:0.056804 9:0.32672 10:0.018788 11:-0.548829 12:-0.203697 13:0.129793 14:0.695529 15:-0.126126 16:0.418568 17:-0.004243 18:-0.463853 19:-0.108103 20:-0.689606 21:-0.238328 22:-0.621311 23:-0.104911 24:0.342687 25:-0.828416 26:0.050089 27:0.66971 28:-0.40832 29:0.298258 30:-0.061114 
-0.9669968480378499 1:5.79232 2:0.136172 3:0.75764 4:-0.504056 5:0.703008 6:-0.405353 7:-0.58773 8:1.064913 9:-0.042745 10:0.294418 11:0.240367 12:0.189701 13:0.692141 14:0.399409 15:-0.390546 16:0.280267 17:-0.604951 18:0.277752 19:0.400618 20:-0.011067 21:-0.144067 22:0.583234 23:0.096948 24:0.548692 25:-0.014932 26:0.113757 27:-0.210465 28:0.255795 29:-0.643198 30:-0.214304 
-0.7922388592258695 1:5.780313 2:0.161077 3:-0.733862 4:-0.461712 5:-0.759551 6:-0.279998 7:-0.690575 8:-1.009572 9:-0.054195 10:0.292867 11:0.251729 12:0.251139 13:0.688568 14:-0.356846 15:-0.169292 16:-0.476546 17:-0.594916 18:-0.290205 19:0.404555 20:0.076008 21:-0.470227 22:-0.256133 23:0.122755 24:-0.546435 25:0.050379 26:0.147541 27:0.13853 28:-0.09668 29:-0.613732 30:0.594288 
-0.973422902298393 1:5.871558 2:-0.627185 3:0.339856 4:-1.034243 5:0.231934 6:1.126454 7:-0.008566 8:0.35889 9:0.287307 10:0.089502 11:0.061732 12:0.550739 13:0.428947 14:0.091111 15:-0.174632 16:-0.06243 17:0.468968 18:0.150261 19:0.441886 20:0.196637 21:0.248141 22:-0.118611 23:0.612567 24:-0.44145 25:0.071618 26:-0.937622 27:-0.250005 28:0.116185 29:0.083795 30:0.087058 
-5.787444612974312 1:6.059783 2:-0.856709 3:-0.635748 4:0.719041 5:-0.0668 6:-0.541971 7:-0.104093 8:-0.139186 9:0.596029 10:0.433207 11:0.14069 12:-0.222796 13:-0.45085 14:-0.403806 15:0.24598 16:0.269336 17:0.182292 18:0.018065 19:0.170455 20:-0.373539 21:-0.22247 22:0.31337 23:-0.124258 24:0.077664 25:0.222264 26:0.21734 27:-0.291608 28:-0.106797 29:-0.331868 30:0.241024 
-0.3107542664223291 1:5.957613 2:-1.386206 3:-0.206658 4:0.439861 5:-0.27249 6:0.031539 7:0.249104 8:-0.050518 9:0.540629 10:-0.659639 11:0.041649 12:0.223165 13:0.003261 14:0.338408 15:-0.267704 16:0.56961 17:-0.304032 18:0.354165 19:0.015604 20:0.680378 21:-0.289368 22:0.613733 23:0.268313 24:-0.004414 25:0.244385 26:-0.10091 27:0.077345 28:-0.128414 29:-0.456037 30:0.512145 
-2.385093280514645 1:6.213957 2:-0.469035 3:0.588936 4:-0.32046 5:0.191419 6:-0.156369 7:0.662525 8:-0.41341 9:0.186222 10:0.153224 11:-0.460642 12:-0.089793 13:0.285203 14:-0.04294 15:-0.615854 16:0.194976 17:-0.413643 18:0.277807 19:0.165761 20:0.284476 21:-0.403697 22:0.082458 23:-0.358681 24:-0.044843 25:-0.01451 26:-0.26489 27:0.63867 28:0.248959 29:0.108509 30:-0.143268 
-1.717877418652919 1:6.199234 2:-0.46505 3:-0.614098 4:-0.316585 5:-0.253541 6:-0.122547 7:0.692356 8:0.356409 9:0.178041 10:0.142398 11:-0.456618 12:0.231119 13:0.15411 14:0.111202 15:-0.353941 16:-0.535781 17:-0.418048 18:-0.211247 19:0.169006 20:-0.029656 21:-0.417521 22:0.192217 23:-0.422398 24:0.033782 25:-0.023319 26:-0.347687 27:-0.58326 28:-0.289482 29:0.145577 30:0.118693 
-5.289778669513354 1:6.349576 2:0.186893 3:0.199941 4:-0.731825 5:-0.233257 6:-0.266066 7:-0.148087 8:0.257161 9:-0.301498 10:-0.117251 11:-0.304029 12:-0.332055 13:0.237636 14:-0.385942 15:-0.216038 16:0.206119 17:0.265048 18:0.09888 19:0.248507 20:0.307081 21:0.302588 22:0.356075 23:0.418224 24:0.018969 25:0.005731 26:0.119528 27:0.079882 28:0.224258 29:-0.130703 30:-0.392584 
-7.363818601761372 1:6.298923 2:-0.504265 3:-0.136996 4:-0.242949 5:-0.025176 6:-0.180177 7:-0.180742 8:-0.455766 9:-0.187726 10:0.083394 11:-0.489245 12:0.118016 13:0.064479 14:-0.000929 15:-0.14373 16:0.125262 17:0.412687 18:-0.267251 19:0.17364 20:0.144581 21:-0.4069 22:-0.056634 23:-0.149088 24:-0.446741 25:0.296045 26:-0.656617 27:0.522325 28:-0.378763 29:0.197205 30:-0.149154 
-8 1:6.299886 2:-0.509665 3:0.121456 4:-0.237747 5:-0.01079 6:-0.182297 7:-0.15085 8:0.449708 9:-0.175749 10:0.066666 11:-0.52123 12:-0.068161 13:0.133568 14:0.047966 15:-0.048142 16:-0.151772 17:0.439569 18:0.220255 19:0.184822 20:0.040177 21:-0.271014 22:0.276481 23:-0.167357 24:0.514233 25:0.280324 26:-0.728545 27:-0.402586 28:0.36427 29:0.35439 30:-0.025824 
-2.754695821882775 1:6.352123 2:-0.165267 3:-0.024771 4:0.191056 5:0.208602 6:0.005602 7:-0.08878 8:-0.39948 9:-0.73148 10:-0.252851 11:0.415284 12:-0.062777 13:0.423923 14:0.20216 15:-0.031893 16:0.247073 17:0.17507 18:-0.376632 19:0.189706 20:0.001082 21:-0.431267 22:-0.074326 23:0.306461 24:0.294208 25:-0.01943 26:0.124474 27:-0.15293 28:0.187535 29:0.133266 30:0.086948 
-5.404135705556861 1:6.363719 2:-0.164916 3:0.010767 4:0.204599 5:-0.175736 6:0.036438 7:-0.070001 8:0.404431 9:-0.741703 10:-0.249397 11:0.395643 12:0.306282 13:0.300465 14:-0.173635 15:0.087948 16:-0.225449 17:0.200018 18:0.328012 19:0.171873 20:0.058622 21:-0.29125 22:0.348733 23:0.299611 24:-0.306229 25:0.012629 26:0.181411 27:0.157549 28:-0.176855 29:0.048506 30:-0.098744 
-5.575339535198312 1:6.217858 2:1.379893 3:-0.17326 4:0.990477 5:-0.365221 6:-0.68529 7:-1.077614 8:-0.082373 9:-0.263993 10:0.065035 11:0.217117 12:-0.159408 13:0.321064 14:-0.15959 15:-0.159237 16:-0.233434 17:-0.587515 18:-0.13502 19:-0.386127 20:0.004222 21:-0.385324 22:0.150098 23:0.247895 24:0.021373 25:0.06115 26:-0.103527 27:0.386915 28:-0.024412 29:0.247108 30:-0.033297 
-1.94066211136331 1:6.581945 2:-0.288216 3:0.210472 4:0.708114 5:-0.019007 6:-0.68419 7:0.256922 8:-0.32009 9:0.049414 10:0.194967 11:-0.148808 12:0.365447 13:0.459828 14:0.061053 15:-0.415343 16:-0.088505 17:-0.028527 18:-0.185173 19:-0.074672 20:0.295155 21:-0.125809 22:-0.01043 23:0.078699 24:-0.262553 25:-0.343693 26:0.173863 27:0.049464 28:-0.150892 29:-0.04662 30:-0.063566 
-0.4090886343379694 1:6.459915 2:-0.127601 3:-0.279988 4:0.338452 5:0.147045 6:0.100588 7:0.291277 8:-0.245427 9:0.088474 10:0.282991 11:0.256259 12:0.581845 13:0.032689 14:-0.166486 15:0.189573 16:-0.482208 17:-0.223741 18:0.124007 19:0.207531 20:-0.012714 21:-0.392341 22:-0.407905 23:0.037109 24:0.025436 25:0.15662 26:-0.063184 27:-0.143498 28:0.301384 29:0.382173 30:0.19821 
-0.1735317437591745 1:6.459915 2:-0.127601 3:-0.279988 4:0.338452 5:0.147045 6:0.100588 7:0.291277 8:-0.245427 9:0.088474 10:0.282991 11:0.256259 12:0.581845 13:0.032689 14:-0.166486 15:0.189573 16:-0.482208 17:-0.223741 18:0.124007 19:0.207531 20:-0.012714 21:-0.392341 22:-0.407905 23:0.037109 24:0.025436 25:0.15662 26:-0.063184 27:-0.143498 28:0.301384 29:0.382173 30:0.19821 
-0.2825867174790762 1:5.859514 2:1.085558 3:1.091958 4:-0.300994 5:-0.07016 6:-0.196933 7:0.020253 8:0.34482 9:-0.293724 10:0.185442 11:-0.15022 12:-0.093806 13:0.87799 14:-0.549089 15:-0.199082 16:0.139525 17:-0.279661 18:-0.156807 19:-0.083093 20:-0.635551 21:-0.046885 22:-0.215842 23:0.255904 24:-0.077993 25:-0.172921 26:0.490907 27:0.170009 28:-0.088576 29:-0.29519 30:0.071828 
-2.20901651578569 1:5.791334 2:-1.670263 3:0.633878 4:0.199853 5:-0.865654 6:-0.811252 7:0.209217 8:-0.071638 9:-0.216644 10:-0.495253 11:-0.289876 12:0.103106 13:0.195079 14:-0.076977 15:-0.518727 16:0.169688 17:0.206299 18:0.312484 19:0.024428 20:0.456246 21:-0.008962 22:0.241924 23:-0.118482 24:0.149669 25:0.296994 26:-0.244918 27:0.074431 28:0.040367 29:0.313958 30:0.224791 
-1.644804651007697 1:5.801435 2:-1.642563 3:-0.617222 4:0.150701 5:0.7735 6:-0.935176 7:0.217808 8:0.037811 9:-0.211358 10:-0.512659 11:-0.306143 12:0.055416 13:0.187803 14:0.126669 15:-0.300503 16:-0.400281 17:0.202089 18:-0.301768 19:0.042663 20:-0.315183 21:-0.296968 22:-0.153394 23:-0.237088 24:-0.046817 25:0.304539 26:-0.242154 27:-0.064579 28:-0.106613 29:0.135139 30:-0.324275 
-0.2528248196464915 1:5.969234 2:0.608661 3:1.041205 4:0.175295 5:-0.525408 6:-0.27089 7:0.503281 8:-0.413792 9:-0.340487 10:0.318126 11:-0.340038 12:0.819288 13:0.89939 14:-0.020001 15:-0.037049 16:-0.002665 17:0.110453 18:0.402962 19:0.017278 20:0.176868 21:-0.125072 22:0.494131 23:-0.013733 24:0.024794 25:-0.084151 26:0.250166 27:0.516952 28:-0.206863 29:0.120882 30:0.107313 
-0.07550389777454698 1:5.89073 2:0.325792 3:-0.926673 4:-0.322399 5:0.574643 6:0.069376 7:0.970095 8:0.29125 9:-0.185106 10:0.258252 11:-0.394135 12:-0.275364 13:1.446884 14:0.052491 15:-0.18721 16:-0.494374 17:0.294927 18:-0.3043 19:-0.267272 20:0.060396 21:-0.154949 22:-0.210751 23:-0.157094 24:0.073062 25:0.057274 26:-0.002715 27:-0.49608 28:-0.137643 29:0.22982 30:-0.284753 
